\data\
ngram 1=21710
ngram 2=76925

1-grams:
кыларын -9.23643038174
аздык -11.4336549591
жакканын -11.4336549591
өмүрү -8.48921597991
табылышына -11.4336549591
кимяси -11.4336549591
жасоого -11.4336549591
тамташы -11.4336549591
коруймун -11.4336549591
булгары -10.7405077785
карадан -11.4336549591
куюуну -11.4336549591
суроосун -10.7405077785
чоктун -11.4336549591
күрөңкө -10.7405077785
тентиреген -10.7405077785
жымың -11.4336549591
тийбесе -11.4336549591
мутакемде -11.4336549591
прокуроруна -11.4336549591
паранжы -11.4336549591
унутулбай -11.4336549591
кырылдаткан -11.4336549591
атты -8.60044161502
ышкыра -11.4336549591
мунун -8.34261250571
айлантат -11.4336549591
көр -8.79459762946
көзигишпесе -11.4336549591
уруудан -11.4336549591
буюмдан -11.4336549591
табылбоочудай -11.4336549591
мунуңду -11.4336549591
субаке -11.4336549591
жанып -10.047360598
төшөктөн -10.7405077785
чубап -10.3350426704
шаршенди -11.4336549591
кошулбаган -11.4336549591
кийизге -10.7405077785
чапан -9.82421704664
кечиксең -11.4336549591
жүргүнчүлөрдүн -11.4336549591
бирөөлөрдүн -10.3350426704
жер -6.95631814459
шөмтүрөткөн -11.4336549591
олуяатада -11.4336549591
чөгүңкү -11.4336549591
жагылганча -11.4336549591
кишиче -10.7405077785
арчадан -11.4336549591
күптүсү -11.4336549591
болуштан -11.4336549591
балаңыз -10.047360598
атынан -10.3350426704
жүргөнүн -8.86870560161
сөзүнүн -9.23643038174
ээсииин -11.4336549591
өкүнөт -11.4336549591
кеберсиген -11.4336549591
жарыла -10.7405077785
чыгаша -11.4336549591
чамасы -9.82421704664
туулбаганы -11.4336549591
таңылчак -11.4336549591
боорун -10.7405077785
майтарышы -11.4336549591
айдалгандан -11.4336549591
учурашканын -10.3350426704
канмак -11.4336549591
калжактатпай -11.4336549591
чүмкөлгөн -11.4336549591
каткырышты -9.82421704664
заңдап -10.7405077785
айттың -10.047360598
кутулса -11.4336549591
тапкансып -10.7405077785
чыгыптыр -10.7405077785
жаштарды -10.047360598
үлгүг -11.4336549591
артисттерге -9.82421704664
буйдалды -11.4336549591
үйлөрдүн -9.82421704664
суроомо -11.4336549591
тирелет -11.4336549591
башкаларга -9.48774481002
бардыр -9.48774481002
кайрысам -11.4336549591
шагы -10.3350426704
абышкакемпирлер -11.4336549591
өлгөндөн -10.7405077785
жете -9.35421341739
самсаалап -11.4336549591
тебетайды -11.4336549591
чыгышып -10.3350426704
тааныштырып -11.4336549591
чебеленет -11.4336549591
бөргениң -11.4336549591
уулуңду -10.7405077785
күчүмдү -10.7405077785
чымчып -10.047360598
кулактарынын -10.7405077785
чайкамасын -11.4336549591
кармай -10.047360598
элечек -10.3350426704
салтын -10.7405077785
булбулдун -11.4336549591
сазда -10.7405077785
акылдашсаң -11.4336549591
анкетин -11.4336549591
күндөрдө -9.64189548984
аянсынбы -11.4336549591
жаңсады -11.4336549591
шакин -9.48774481002
угуута -11.4336549591
дүйнөдөгү -11.4336549591
айдай -10.3350426704
жөөлүй -11.4336549591
алгыр -11.4336549591
катта -11.4336549591
бошогон -10.7405077785
комузчулары -9.82421704664
тандап -9.82421704664
кайрыгы -11.4336549591
төгүшүүгө -11.4336549591
балакатка -11.4336549591
чогуна -11.4336549591
калтыра -11.4336549591
жардам -8.48921597991
жумшактап -11.4336549591
пайдалана -11.4336549591
айбаттуу -10.047360598
күлүгүн -11.4336549591
көөрү -9.82421704664
калдыратып -11.4336549591
толубай -11.4336549591
эткен -8.86870560161
кыңгыраган -11.4336549591
буттары -9.64189548984
урматтаганын -11.4336549591
ынтаасыз -11.4336549591
чакыртылган -11.4336549591
унчуккан -10.7405077785
сугарыи -11.4336549591
мүмкүнчүлүгү -11.4336549591
убактысын -10.7405077785
жалгыздыктын -11.4336549591
шайтанга -11.4336549591
ылдамдай -11.4336549591
киргендей -10.3350426704
дайра -11.4336549591
тапшырып -11.4336549591
инилерине -11.4336549591
карашты -9.35421341739
дүйнөнун -11.4336549591
пристав -10.3350426704
көрсөң -10.7405077785
бирөө -7.74477550496
калбаптыр -11.4336549591
бечара -9.48774481002
каңтарылып -10.7405077785
болбоду -9.48774481002
кайрылышы -11.4336549591
ырааттуу -11.4336549591
комузчулукту -10.7405077785
айтканда -9.23643038174
торунан -11.4336549591
сакта -10.3350426704
жагыңа -10.7405077785
жаткандырсың -11.4336549591
бырыштырышка -11.4336549591
айтарын -10.047360598
тозоку -11.4336549591
жаатка -11.4336549591
аракеттенүү -11.4336549591
мүмкүн -7.87830689758
апакемди -11.4336549591
жалынды -11.4336549591
батадубанын -11.4336549591
кызматында -11.4336549591
пишпекке -9.64189548984
балдарыңызга -11.4336549591
оозуңду -11.4336549591
сөөктөр -10.7405077785
жакпагандарды -11.4336549591
чыйрымбайдын -11.4336549591
түктүйткөн -11.4336549591
султаке -9.64189548984
жиберишчүдөй -11.4336549591
жөнөй -10.7405077785
мамыда -11.4336549591
жеңгени -11.4336549591
издегенсиди -11.4336549591
киришкен -10.047360598
кыздарды -11.4336549591
кыйгач -10.3350426704
жүгүртүпгүп -11.4336549591
кебетеси -10.047360598
жеңилсем -11.4336549591
бөзарман -11.4336549591
кылгансыбай -11.4336549591
жемелешип -11.4336549591
бактыбызга -11.4336549591
көпчүлүктү -10.7405077785
тулпар -10.7405077785
бердим -10.047360598
согумга -11.4336549591
шишип -10.7405077785
этияттуу -11.4336549591
титиреши -11.4336549591
келишимдүүлүгү -11.4336549591
тиктеди -8.48921597991
падналаган -11.4336549591
убараланыпгеа -11.4336549591
түгөнот -11.4336549591
дептир -11.4336549591
кармалса -11.4336549591
гүлдөп -10.3350426704
жоготор -11.4336549591
начар -10.7405077785
жыгылбай -11.4336549591
жаратканы -11.4336549591
баласынын -8.72560475797
клып -11.4336549591
укалай -11.4336549591
оролуп -11.4336549591
айлындагы -10.3350426704
кыйшайтып -10.7405077785
беттешүүдө -11.4336549591
жалтанган -10.3350426704
көкбөрү -10.047360598
ачмыйган -11.4336549591
кумсарып -10.047360598
тилге -9.82421704664
күтшкүңк -11.4336549591
сер -10.7405077785
ылайыксыз -11.4336549591
атат -10.7405077785
сөгүп -10.7405077785
кармайын -10.7405077785
жаңырткылачы -11.4336549591
үйбүлөсү -9.23643038174
ичкерте -11.4336549591
акындар -10.047360598
уйкусу -9.03575968627
баруу -10.3350426704
мектеп -10.7405077785
ишеничибизди -11.4336549591
жүрөгүн -8.54328320118
ажал -10.3350426704
оңбодум -11.4336549591
шулыинге -11.4336549591
бастырганда -11.4336549591
сенде -11.4336549591
эсин -10.3350426704
башкарма -11.4336549591
басылып -10.3350426704
кетчүдөй -9.48774481002
таанылар -11.4336549591
айлымды -11.4336549591
дилгирлигине -11.4336549591
жаныңа -11.4336549591
кысты -9.64189548984
ойногон -10.3350426704
кеткенине -11.4336549591
үстүнөн -9.03575968627
жалаа -11.4336549591
өзгөчөдүгүн -11.4336549591
кыла -9.03575968627
кыягы -10.3350426704
катышкан -10.7405077785
каалаганындай -10.7405077785
алеикум -11.4336549591
кенч -10.7405077785
колкосун -11.4336549591
баратканын -8.60044161502
күпүлдөгөн -11.4336549591
соо -8.86870560161
революция -10.7405077785
учурашайын -10.7405077785
агылтөгүл -11.4336549591
келчи -10.3350426704
жазалоонун -11.4336549591
драмдын -11.4336549591
кетериңде -11.4336549591
тешет -11.4336549591
бөлөшкөнсүйт -11.4336549591
болжоп -10.3350426704
батыра -11.4336549591
укмуштай -10.047360598
аксакалдардан -11.4336549591
көлүндөй -11.4336549591
оңбосун -11.4336549591
жеңелик -10.7405077785
өлүүсүңбү -11.4336549591
базардын -10.3350426704
имерилишине -11.4336549591
жеңкетайлыгыңа -11.4336549591
аралабаган -11.4336549591
кылбай -9.35421341739
стулга -10.7405077785
заңын -11.4336549591
өксүтпөсөң -11.4336549591
ушактар -11.4336549591
чыгайын -10.7405077785
келечегинен -11.4336549591
окшотуп -10.3350426704
үстү -9.48774481002
театрданмын -11.4336549591
суроолуу -9.82421704664
чочой -11.4336549591
тааныбайт -10.7405077785
өзүнүн -7.50182932635
кароолчусу -11.4336549591
чарбаңыз -11.4336549591
үчүгк -11.4336549591
чоюп -10.3350426704
жаштар -9.13106986608
эшигинин -11.4336549591
сербейтип -11.4336549591
кабагын -9.82421704664
койсун -11.4336549591
жайлоонун -10.7405077785
киргизе -11.4336549591
жүгүртө -11.4336549591
ичин -9.48774481002
тарбиялап -11.4336549591
сагакөрсөтөм -10.7405077785
жатат -8.13781809307
опуртопурду -11.4336549591
көңүлүнө -8.66106623683
жапырайган -10.7405077785
күтүүдөн -10.7405077785
жүрбөсөңөр -11.4336549591
бөлүшүүгө -11.4336549591
укпайт -10.7405077785
ойпотуу -11.4336549591
карматып -10.047360598
угулгандан -11.4336549591
атаэненин -10.7405077785
түшкөндөн -10.3350426704
жүрү -11.4336549591
старчындын -11.4336549591
талаша -10.047360598
эзсине -11.4336549591
кыяк -10.7405077785
кылбаганын -11.4336549591
мөзгил -9.82421704664
чакмагын -11.4336549591
карабаш -9.48774481002
бакырыгын -10.047360598
байбичепин -11.4336549591
күүлөрүнүн -9.64189548984
өкмөттү -11.4336549591
башкасы -11.4336549591
учурлар -10.3350426704
макташкан -11.4336549591
барын -9.35421341739
мыкчыган -11.4336549591
эже -11.4336549591
чапчылаганы -11.4336549591
күйткүйт -11.4336549591
агымына -10.7405077785
чок -9.13106986608
далысын -11.4336549591
зле -10.3350426704
түштүң -11.4336549591
эмнесине -10.047360598
урушту -11.4336549591
бересиң -10.7405077785
кызылбашта -11.4336549591
жаман -7.50182932635
муруп -10.7405077785
жологус -11.4336549591
мүрзөсүнүн -11.4336549591
ченде -9.64189548984
майтарылган -11.4336549591
эмиштер -10.3350426704
кайрыл -11.4336549591
каптырайын -11.4336549591
тааныбай -10.3350426704
курмандыкка -11.4336549591
майдамайда -10.047360598
суксуңсуксуң -11.4336549591
найзасын -11.4336549591
катмардан -11.4336549591
айтканбыз -11.4336549591
көзүңөрдү -11.4336549591
баадан -11.4336549591
мынча -9.23643038174
айлангандай -11.4336549591
китеп -9.82421704664
дейсиңер -10.7405077785
жалчылардын -11.4336549591
картөшкөсү -11.4336549591
бөгөт -10.7405077785
дилдедей -11.4336549591
тамында -11.4336549591
күлкүлөр -10.7405077785
калганым -11.4336549591
жолоочуларды -11.4336549591
убара -9.23643038174
майланышкан -10.7405077785
энесинин -11.4336549591
секетбай -11.4336549591
белибиз -11.4336549591
тердете -11.4336549591
амандашам -11.4336549591
аш -8.54328320118
тийиштик -10.7405077785
толуп -9.03575968627
тилегиң -11.4336549591
кимди -9.03575968627
жөнөгүлө -11.4336549591
токтоп -9.82421704664
кубарыңдын -10.7405077785
бакырыкты -11.4336549591
таштап -7.96791905627
көрүнүп -8.60044161502
кызыгат -11.4336549591
буруу -11.4336549591
лам -9.82421704664
дептери -11.4336549591
уйкуда -10.047360598
душмандар -11.4336549591
жыгачтары -11.4336549591
чечилсе -10.7405077785
курагы -11.4336549591
байбичеге -10.7405077785
бешташтын -10.7405077785
бараткан -8.06635912909
көлкөйгөн -11.4336549591
билегин -11.4336549591
коңкоюп -11.4336549591
тыя -11.4336549591
баамдашты -11.4336549591
бергендигине -11.4336549591
тарабына -10.3350426704
күүңдү -11.4336549591
тамашалады -11.4336549591
королулар -11.4336549591
барарымы -11.4336549591
аксынын -11.4336549591
жолугушуулар -11.4336549591
тыныбектики -10.7405077785
өкүмдүү -10.7405077785
ошентейин -11.4336549591
төрөлөрү -11.4336549591
сааш -11.4336549591
ирмебей -10.7405077785
кыялын -10.047360598
кубанычтуу -8.79459762946
маскаралайт -11.4336549591
чертесиңер -11.4336549591
эрк -10.7405077785
ээрге -11.4336549591
жегеничкени -11.4336549591
өткөрүлүүчүдекадасы -11.4336549591
угулбай -10.047360598
төшкө -10.3350426704
курбуң -11.4336549591
эсиңер -11.4336549591
тийиши -11.4336549591
жанкороз -9.48774481002
ашыкпа -11.4336549591
ойлойсуң -11.4336549591
оторбайды -10.7405077785
созулушу -11.4336549591
жайытынын -11.4336549591
ашкананын -11.4336549591
жолуң -9.82421704664
айлыма -11.4336549591
түштүктө -10.7405077785
этишет -11.4336549591
жобону -11.4336549591
кайгынын -10.7405077785
тактысынан -11.4336549591
мепен -11.4336549591
түшүндү -8.13781809307
жармаша -11.4336549591
түйүнүн -11.4336549591
жолуна -9.64189548984
мүрүндөй -11.4336549591
күндөлүк -10.3350426704
көңүлү -7.50182932635
аядыбы -11.4336549591
камдуулар -11.4336549591
өнөрпөз -11.4336549591
кайрымын -11.4336549591
татыбайт -11.4336549591
бакырдын -11.4336549591
атасыныкына -11.4336549591
чөгөлөп -9.48774481002
шат -11.4336549591
жыбыраган -10.7405077785
секретарына -10.7405077785
ашуусу -11.4336549591
тыныбектикине -11.4336549591
кептен -10.7405077785
субанда -11.4336549591
ооздукту -11.4336549591
байлаштырылган -11.4336549591
солдатка -10.047360598
туйгундай -11.4336549591
кесеге -10.7405077785
түртүшөр -11.4336549591
болушунан -11.4336549591
жолдорун -11.4336549591
жашыргансыйт -11.4336549591
кестирет -11.4336549591
татырбаганы -11.4336549591
бөчара -11.4336549591
корстон -11.4336549591
манаптарга -10.3350426704
жобурагандардан -11.4336549591
күүлөрүнө -11.4336549591
филген -11.4336549591
сазы -11.4336549591
бүктөй -11.4336549591
кыса -10.047360598
жолуңа -11.4336549591
алдыңкылар -11.4336549591
бурулуп -9.64189548984
көргөндүн -11.4336549591
кашын -9.48774481002
чегип -10.7405077785
коркконунан -10.3350426704
байлыкка -11.4336549591
музыкант -10.7405077785
тилектештеринин -11.4336549591
көлшал -11.4336549591
бүтүрөт -11.4336549591
түшүнө -7.99966775459
салын -11.4336549591
калкалар -11.4336549591
де -11.4336549591
карасанатайлыгы -11.4336549591
өстүрүүгө -10.7405077785
чычканча -11.4336549591
ошолордуку -11.4336549591
арасы -11.4336549591
күйүнгөнү -11.4336549591
неме -8.03245757741
баамдаган -10.7405077785
жоронун -10.7405077785
үйрөнгөн -9.82421704664
бүктөлүү -11.4336549591
түпсүз -10.7405077785
ойнойт -10.7405077785
сыйынса -11.4336549591
сиңирген -11.4336549591
суусамырга -11.4336549591
салдырчы -11.4336549591
опузасы -11.4336549591
таластыктар -9.82421704664
корккону -11.4336549591
күнөөлөрүн -11.4336549591
чукуранымыш -11.4336549591
ичише -11.4336549591
чий -11.4336549591
өмүрдө -11.4336549591
куулугу -11.4336549591
алдыдан -11.4336549591
пикир -10.3350426704
талпынсаңчы -11.4336549591
багыма -11.4336549591
учурашарын -11.4336549591
таасын -10.047360598
кийиминен -11.4336549591
кысмакка -11.4336549591
аваз -11.4336549591
кыргыз -7.48241124049
козгой -10.3350426704
туюлууда -11.4336549591
кеңегнкиси -11.4336549591
манжалары -10.7405077785
ышкыбоз -11.4336549591
барында -11.4336549591
ыңк -11.4336549591
ыйына -10.7405077785
нанын -11.4336549591
тарткансыйт -11.4336549591
бешалты -9.82421704664
дөңчөдө -11.4336549591
кулкунуңа -11.4336549591
ушинтпей -10.7405077785
чакыруу -11.4336549591
келдиңби -10.3350426704
кошулганда -10.047360598
кимисине -11.4336549591
оозун -8.03245757741
килограмм -11.4336549591
шыкаалайт -11.4336549591
үстүн -11.4336549591
жамынган -11.4336549591
койчукойчу -11.4336549591
жазы -11.4336549591
кыргыздын -8.54328320118
аягы -9.03575968627
жолотпойт -11.4336549591
шаттандырат -11.4336549591
жөндөм -10.7405077785
сүйлөшөбүз -10.7405077785
атаай -11.4336549591
үйлүүжайлуу -11.4336549591
така -10.3350426704
урчугундагы -11.4336549591
чокмороктошкон -11.4336549591
ысыгына -11.4336549591
чукулунан -9.82421704664
дуулашып -11.4336549591
шытырап -11.4336549591
үшкүрдү -10.047360598
сылады -9.82421704664
чамгарактаган -11.4336549591
бүлбүл -11.4336549591
далдаланган -11.4336549591
ансыз -9.03575968627
шакиртинин -11.4336549591
такалышат -10.7405077785
кыскача -10.3350426704
чечилмек -11.4336549591
чыккынчы -11.4336549591
оңбой -11.4336549591
жаралган -10.7405077785
баайап -11.4336549591
жабалактай -11.4336549591
тоскоолдук -11.4336549591
жердегилердин -11.4336549591
сарбагыштарга -11.4336549591
иштөөчү -10.7405077785
эптүү -10.7405077785
булгады -11.4336549591
кал -10.047360598
мизи -10.3350426704
чормойтту -11.4336549591
укмаксанболуп -11.4336549591
таруудан -11.4336549591
барчы -11.4336549591
кордуктай -11.4336549591
актер -11.4336549591
сарайга -10.7405077785
оозуна -8.79459762946
шабдан -11.4336549591
тушарын -11.4336549591
сейрек -10.047360598
күүлөрүн -8.72560475797
арыз -9.82421704664
обосунда -11.4336549591
дептер -11.4336549591
тапыраган -10.7405077785
арыздашууну -11.4336549591
терлери -11.4336549591
мени -7.15698884006
маматтыкында -11.4336549591
туюлар -11.4336549591
күбүрөгөндүктөн -11.4336549591
ийменгенин -11.4336549591
шаңкылдаган -10.3350426704
жазганды -11.4336549591
жүрдү -9.35421341739
көмузчулар -11.4336549591
туягың -11.4336549591
жыгачтай -11.4336549591
үчөөбүз -10.7405077785
сакалдан -11.4336549591
жолдошторунун -10.7405077785
толгоосу -10.7405077785
чымыны -10.7405077785
чакадагы -10.7405077785
колдогу -10.7405077785
айдаралы -10.7405077785
чыгам -10.7405077785
чачпагынын -11.4336549591
илкий -11.4336549591
жоготкон -11.4336549591
тооиун -11.4336549591
достору -11.4336549591
мэлдону -11.4336549591
жолдоштор -10.3350426704
тартышты -11.4336549591
бышактай -11.4336549591
учун -10.7405077785
кайыкка -11.4336549591
арабадагы -10.7405077785
калтырат -11.4336549591
тамдын -10.7405077785
бошоттуруп -11.4336549591
таарынбагыла -11.4336549591
ыргакты -11.4336549591
эртеңки -10.047360598
окчун -11.4336549591
ороодогу -10.7405077785
көтөрүңкү -10.047360598
аткар -11.4336549591
башкармак -10.7405077785
колуктусу -9.48774481002
кыймылын -10.047360598
жашынын -11.4336549591
күтүүдө -11.4336549591
атаеы -11.4336549591
аттиң -10.3350426704
шыпылдатып -11.4336549591
чымчылашып -11.4336549591
жайлоосу -11.4336549591
аткарылбагандыктан -11.4336549591
жоготпогондугу -11.4336549591
чоңураак -10.7405077785
соккон -9.35421341739
айкөл -10.7405077785
акылдагы -11.4336549591
таятасыныкына -10.3350426704
сурнайчыларды -10.7405077785
мудалуу -10.3350426704
таксыр -10.047360598
ичтери -11.4336549591
сылапсылап -11.4336549591
эртелеп -10.3350426704
түшүшпөгөн -11.4336549591
кызыкчу -11.4336549591
чалкалап -9.23643038174
самоорго -10.7405077785
баштын -11.4336549591
сакалдын -11.4336549591
чатбазардагы -11.4336549591
күүдөгү -11.4336549591
иреңиң -11.4336549591
жөнү -9.03575968627
жаштыгы -10.7405077785
аттаныңыз -11.4336549591
келиши -9.13106986608
таанышабыз -11.4336549591
кептелер -11.4336549591
студенттик -11.4336549591
бербейсиңби -11.4336549591
жокто -9.13106986608
канжар -11.4336549591
ууруга -11.4336549591
өзүң -8.17555842105
сараңдык -10.7405077785
кыянатчылыгы -11.4336549591
какем -11.4336549591
торгойлордун -11.4336549591
күлөсүз -10.7405077785
мингизин -11.4336549591
кошулмак -10.7405077785
душмандарына -11.4336549591
өзгөргөн -11.4336549591
туугай -11.4336549591
москвада -10.047360598
кантонунун -11.4336549591
оруста -11.4336549591
жоголсун -11.4336549591
ажайып -10.7405077785
кылышсын -11.4336549591
жерипе -11.4336549591
сылаа -11.4336549591
кийимдери -11.4336549591
шапалак -11.4336549591
мүнөзүм -11.4336549591
эмнесиң -11.4336549591
мактоонун -11.4336549591
чебелектеди -11.4336549591
ээрчиген -10.3350426704
колдураган -10.3350426704
кочкул -11.4336549591
алышчу -11.4336549591
бөлөсүнүкүнө -11.4336549591
шаңкылдады -11.4336549591
көптөй -11.4336549591
ортосунан -11.4336549591
өспүрүмдү -11.4336549591
алыл -11.4336549591
заманыңарга -11.4336549591
ичикке -11.4336549591
качуу -11.4336549591
кайраттуу -10.3350426704
шардана -10.047360598
далдаалап -11.4336549591
сыйбайт -11.4336549591
улантылды -11.4336549591
өлдүңөр -11.4336549591
салгандарыбыз -11.4336549591
жүрөгүндөгү -11.4336549591
ачтыбы -11.4336549591
адырлуу -10.3350426704
тирүүлүк -11.4336549591
орногонун -11.4336549591
күлүгү -10.7405077785
эмөс -11.4336549591
кишисине -11.4336549591
жылбагандан -11.4336549591
кишим -11.4336549591
билермандык -11.4336549591
булгалактатып -11.4336549591
элкичинекей -11.4336549591
жаргак -10.7405077785
тазаланды -11.4336549591
себилбей -11.4336549591
мамилелер -11.4336549591
кыйыгыма -11.4336549591
айтпаймын -11.4336549591
ыктымал -11.4336549591
шайланат -10.3350426704
жуулуп -11.4336549591
сураганым -10.7405077785
жиберди -8.72560475797
ымдашы -11.4336549591
келгенбиз -11.4336549591
жаңыдаы -11.4336549591
жыгыласың -11.4336549591
чалынын -10.7405077785
кыргыздары -11.4336549591
угушкан -10.047360598
базары -11.4336549591
белгилери -11.4336549591
турду -7.06420710661
бактын -11.4336549591
эрбейип -11.4336549591
айтышпа -11.4336549591
жарамак -11.4336549591
асмандан -9.82421704664
ыйламсырап -11.4336549591
далбас -10.7405077785
от -8.60044161502
табылат -9.23643038174
кайгырбастан -11.4336549591
эте -10.3350426704
актерлук -11.4336549591
сыйлайбы -11.4336549591
угарын -11.4336549591
тоюнду -11.4336549591
ойлоно -9.48774481002
жийиркеничтүү -11.4336549591
туташкансып -11.4336549591
калтырганына -11.4336549591
көркүнө -10.3350426704
чапандан -11.4336549591
жоргосун -10.7405077785
кошулган -9.35421341739
калдыңар -11.4336549591
куржундан -11.4336549591
ниети -11.4336549591
кадыресе -9.48774481002
элеттиктер -11.4336549591
жасалга -11.4336549591
киришти -8.66106623683
салбаган -11.4336549591
жосунга -11.4336549591
тундура -11.4336549591
музыкалаштырып -10.3350426704
далдааланган -11.4336549591
аралап -8.1014504489
бөлгөнүн -11.4336549591
жыйылышкан -11.4336549591
акмалаган -11.4336549591
билинбеген -10.7405077785
күйүпжанып -10.7405077785
курсагы -9.23643038174
катуудан -10.7405077785
өлгүр -11.4336549591
көңүлдөш -11.4336549591
карганышат -11.4336549591
болгур -10.047360598
ашканда -11.4336549591
кутулдум -10.3350426704
үтч -11.4336549591
айтканынын -10.7405077785
жетекчилери -10.7405077785
кайрылышты -10.7405077785
тааныды -9.64189548984
уулдарын -11.4336549591
үзүлдү -11.4336549591
көргүсү -9.48774481002
камчысы -10.3350426704
белдин -11.4336549591
изинин -11.4336549591
колдору -9.35421341739
кырсыкка -10.7405077785
конушумду -11.4336549591
айылым -11.4336549591
кыйшалактай -10.7405077785
какканын -11.4336549591
эсиңе -10.7405077785
бакылдаган -10.7405077785
султаналынын -7.39060369124
коробойт -10.7405077785
короздонуп -11.4336549591
кордоого -11.4336549591
угуңуз -11.4336549591
аяганым -11.4336549591
менен -4.33776173797
качканын -10.7405077785
суурулуп -11.4336549591
күнүндөгүдөй -11.4336549591
сыягы -10.3350426704
жыйыпдарда -11.4336549591
жоксуң -10.7405077785
өмүрүмдө -10.047360598
мыктыбекти -10.3350426704
жоголдуң -10.7405077785
өрдүрүп -11.4336549591
жаңырта -11.4336549591
кудайбергенге -10.7405077785
келинчеги -9.48774481002
андай -8.03245757741
келишип -8.60044161502
жалдырашып -10.7405077785
тачанка -11.4336549591
көлөкөлөп -11.4336549591
эркелете -10.7405077785
каскыр -11.4336549591
түздөп -11.4336549591
көтөргөнсүп -11.4336549591
болуп -5.7988653559
алардып -11.4336549591
арбайган -11.4336549591
дөмпөйүп -11.4336549591
музыкалык -10.3350426704
сарбагышка -10.7405077785
жөөлөшүп -11.4336549591
учунан -11.4336549591
билиңиз -10.7405077785
тааныштыктын -11.4336549591
эрдин -9.23643038174
тетиги -10.7405077785
каймасар -10.7405077785
жумуп -10.7405077785
калчудай -9.64189548984
даярданып -11.4336549591
арибин -11.4336549591
токтото -9.23643038174
алкоосун -10.7405077785
кызматчынын -11.4336549591
карарганын -11.4336549591
козголушабы -11.4336549591
калтырбоо -11.4336549591
колго -8.60044161502
пааналап -11.4336549591
тамактын -10.047360598
шыкала -11.4336549591
опколжуйт -10.7405077785
кынына -11.4336549591
билишпейт -9.82421704664
учуна -10.047360598
качкан -8.72560475797
атырылып -11.4336549591
тилмечтер -11.4336549591
даярмын -10.047360598
каныктырышкан -11.4336549591
өлбөсөң -11.4336549591
чалайын -11.4336549591
тажаттыбы -11.4336549591
көндү -10.7405077785
казганда -11.4336549591
чеченсинген -11.4336549591
зордук -10.7405077785
оозго -11.4336549591
жаткандан -11.4336549591
чыңырыгы -10.7405077785
беришкен -9.82421704664
көнбөдү -9.48774481002
каягыман -11.4336549591
отур -9.82421704664
калдактайт -11.4336549591
көңүлүнүн -10.7405077785
болосуң -9.35421341739
бастырмалуу -11.4336549591
шымынын -11.4336549591
салгылачы -11.4336549591
каркырага -11.4336549591
штанчан -11.4336549591
албасам -11.4336549591
ыйлады -11.4336549591
кетерин -11.4336549591
кийиминин -10.3350426704
кубанбайт -11.4336549591
сураштырып -10.7405077785
аңкайышып -11.4336549591
эсе -10.7405077785
араздашты -11.4336549591
божурап -11.4336549591
керемет -11.4336549591
берелиби -11.4336549591
токомдон -11.4336549591
бүркөлө -11.4336549591
хахаха -11.4336549591
кыйындады -11.4336549591
таякка -11.4336549591
булбулдарды -11.4336549591
келбеттүү -11.4336549591
курч -10.047360598
бергенден -10.047360598
лирикалык -11.4336549591
жарыкта -10.7405077785
чиеленишкен -11.4336549591
убагы -10.047360598
окуяларга -11.4336549591
арбакты -11.4336549591
башыңа -11.4336549591
байтеректей -11.4336549591
чыгарсыңар -11.4336549591
жаңырыгы -11.4336549591
топко -9.23643038174
тапкыла -11.4336549591
тынчтангыла -11.4336549591
манаска -11.4336549591
тойгончо -11.4336549591
жүрсө -9.48774481002
мактанып -10.7405077785
кайнатасына -11.4336549591
элжиреп -10.7405077785
балдарынан -10.7405077785
үңүрөйүшүп -11.4336549591
кампада -11.4336549591
адамгерчилигине -11.4336549591
тутунгандай -11.4336549591
чуулдашып -11.4336549591
шартылдай -11.4336549591
кыйкыра -10.3350426704
жарытпаганы -11.4336549591
ичели -11.4336549591
самоорлордун -11.4336549591
алейкумасалам -11.4336549591
уялды -11.4336549591
бирге -8.34261250571
оңуна -10.047360598
тынчып -11.4336549591
чогулгандарды -11.4336549591
бутуколун -10.7405077785
байкалды -10.3350426704
таарынып -10.047360598
кыдырышып -11.4336549591
зарылдыгын -10.3350426704
каткан -10.047360598
кел -8.66106623683
алдында -7.93714739761
сурнайыңды -11.4336549591
пайдасына -11.4336549591
табуу -10.047360598
артынып -10.7405077785
чапандуу -11.4336549591
ылайык -11.4336549591
кагуу -10.3350426704
куйкасын -11.4336549591
ышкыбоздордон -11.4336549591
кадырлуу -9.13106986608
талкаланды -11.4336549591
өткөздү -10.7405077785
чокусу -10.3350426704
кимге -8.25560112872
станцияга -11.4336549591
бошоткула -10.7405077785
үйрөнүшсүн -11.4336549591
жут -10.3350426704
келечекте -11.4336549591
дирижердин -11.4336549591
зың -11.4336549591
сөзгенден -11.4336549591
өткүлө -11.4336549591
сиңишкенин -11.4336549591
жащай -11.4336549591
бекемдеди -11.4336549591
чыбыкты -9.48774481002
алейкимасалам -10.3350426704
жипти -11.4336549591
кемселинин -11.4336549591
жештен -11.4336549591
жалгызсың -11.4336549591
кечке -9.64189548984
баладан -9.82421704664
чыгыңыз -11.4336549591
боромбай -9.13106986608
турам -9.64189548984
кетүү -10.047360598
туурда -10.7405077785
элде -10.3350426704
калайын -10.7405077785
жыйрылганда -11.4336549591
заманда -10.7405077785
айтканындай -11.4336549591
жылан -11.4336549591
курсту -11.4336549591
болдукпу -11.4336549591
бүчүсүн -10.7405077785
сорпоңду -11.4336549591
жери -8.06635912909
маматтыкына -10.3350426704
унутпай -10.7405077785
көпчүлүгүн -11.4336549591
айбанга -11.4336549591
тай -9.64189548984
мамырга -10.7405077785
балбандарын -11.4336549591
айылдардан -10.7405077785
кумары -10.047360598
балген -11.4336549591
дыйканбай -11.4336549591
көнбөй -10.7405077785
куурчак -11.4336549591
азабы -10.3350426704
сүрсүгөн -11.4336549591
күнөөмдү -10.047360598
түшүнүштү -10.047360598
кыбырап -10.7405077785
тартып -7.56245394816
тызылдай -11.4336549591
келалбай -11.4336549591
тыягынан -10.7405077785
оорулу -11.4336549591
бозоруп -11.4336549591
төрагасынын -10.7405077785
айтты -8.03245757741
соодагерлери -11.4336549591
каалаган -9.35421341739
кейиди -10.047360598
огонбайдын -9.64189548984
отурушту -8.43792268552
газетаны -9.23643038174
сакалын -8.54328320118
ыйлашып -11.4336549591
маңдайлаш -11.4336549591
окуясынын -11.4336549591
зуулатты -11.4336549591
жалын -10.7405077785
үзбөй -10.3350426704
күүчүгө -11.4336549591
билген -7.72008289237
токой -9.03575968627
дегдеп -11.4336549591
аралашпаңыз -11.4336549591
аттанып -9.82421704664
жашташ -11.4336549591
болушканына -11.4336549591
жамандык -10.3350426704
алыстап -10.7405077785
күйөөсүнө -8.94874830928
термечиков -11.4336549591
барышы -11.4336549591
кымкап -11.4336549591
сурай -9.82421704664
эркекаял -11.4336549591
жөнгө -10.7405077785
акыйкаттын -11.4336549591
кулунун -11.4336549591
кайруусуна -11.4336549591
тартынасың -11.4336549591
айлыңдын -11.4336549591
ойдогусундай -11.4336549591
чайыттай -10.7405077785
күнүндөгүсүнөн -11.4336549591
эрдикатын -9.82421704664
жарашат -10.7405077785
өстүргөнүңүз -11.4336549591
эстелигин -10.7405077785
саамалык -11.4336549591
турагы -11.4336549591
бейкапар -11.4336549591
айтканына -10.7405077785
салчы -11.4336549591
айсалкын -8.48921597991
өгүздөн -11.4336549591
жайыкышы -11.4336549591
тарыхынын -11.4336549591
азгырылдымбы -11.4336549591
бышыруудан -11.4336549591
жүрөжүрө -10.3350426704
чаңкаят -11.4336549591
сотону -11.4336549591
сценасынын -11.4336549591
берүү -9.35421341739
эмнелерди -11.4336549591
жаитакпай -11.4336549591
конокту -10.7405077785
бермейинче -11.4336549591
карк -11.4336549591
тетирисинче -9.82421704664
ойсоңдогондун -11.4336549591
орус -7.82273704643
чакырам -11.4336549591
трлрышыпбырышып -11.4336549591
кошомат -11.4336549591
шашкалактады -11.4336549591
экенмин -10.047360598
келатышты -11.4336549591
тиктейт -8.94874830928
отурушуп -9.48774481002
азаматтар -9.82421704664
тилешет -11.4336549591
кырындагы -10.7405077785
экениң -11.4336549591
көкүрөгүн -10.7405077785
ырдашпаган -11.4336549591
бербөө -10.7405077785
чирип -11.4336549591
учурашпай -11.4336549591
ичпейбиз -10.3350426704
калыңы -10.3350426704
көрөйүн -9.23643038174
ажыбайдын -11.4336549591
тегине -11.4336549591
кандырды -11.4336549591
таанышуудан -11.4336549591
десең -9.48774481002
абайлаңыз -11.4336549591
кыйкырыктары -11.4336549591
отузга -11.4336549591
кай -8.72560475797
өмүрүндө -8.60044161502
дува -11.4336549591
бөксөрүп -11.4336549591
баалуу -9.48774481002
кылымыш -11.4336549591
бышырышты -11.4336549591
өткөндүн -11.4336549591
коңшулаш -10.047360598
өстүргөн -10.3350426704
көргөнүңдү -11.4336549591
ырчыбы -11.4336549591
алышкан -8.72560475797
шабданбай -11.4336549591
эскирип -11.4336549591
өлдүм -11.4336549591
экиленте -11.4336549591
саяк -11.4336549591
жиберүүнүн -11.4336549591
камыр -10.7405077785
тургулачы -11.4336549591
козгоп -9.82421704664
энчимди -11.4336549591
сызылууда -11.4336549591
жоп -11.4336549591
табият -11.4336549591
элиңен -11.4336549591
оюң -10.7405077785
тыңшайт -10.7405077785
жабык -11.4336549591
кампасына -11.4336549591
балачака -10.7405077785
элдешпеген -11.4336549591
кетирбей -10.7405077785
түтүн -9.48774481002
үндөр -9.23643038174
койду -6.95631814459
убактысынча -11.4336549591
жарлык -10.7405077785
жеңижокту -10.7405077785
үчөөсү -11.4336549591
балкыткан -11.4336549591
тарыхында -11.4336549591
чалдыкканда -11.4336549591
чыркырап -11.4336549591
барга -11.4336549591
жыгылганын -11.4336549591
сүбөлөшө -11.4336549591
башаягына -10.3350426704
комузчулук -11.4336549591
бошойбуз -11.4336549591
жөнөп -10.047360598
келсек -11.4336549591
ыңгыраңып -11.4336549591
салкын -9.03575968627
ээрчишип -11.4336549591
тактан -11.4336549591
бузушпай -11.4336549591
караанын -9.82421704664
жыла -10.7405077785
кошпостон -11.4336549591
шерик -11.4336549591
үйлөнөбү -11.4336549591
доору -10.3350426704
тагдырга -11.4336549591
ошон -10.7405077785
көчүп -9.03575968627
туруучу -9.82421704664
теңдеши -11.4336549591
бакандарга -11.4336549591
өнүп -10.7405077785
сүрөттөр -11.4336549591
коюнкончун -11.4336549591
малын -9.64189548984
аялдан -9.82421704664
жүргүнчүлөргө -10.7405077785
ээгине -11.4336549591
куру -9.13106986608
алабармандап -11.4336549591
балачакалуу -11.4336549591
сөзүн -7.22896233968
калбадымбы -11.4336549591
баканы -11.4336549591
жыйындарда -10.7405077785
черткени -11.4336549591
алдастабай -11.4336549591
аңдабастан -11.4336549591
жубайын -11.4336549591
качууга -10.3350426704
сепкен -11.4336549591
эки -6.04458322926
жашагыла -11.4336549591
жүрүп -7.12958986587
түшүнүүчү -10.7405077785
канбай -10.7405077785
акмалап -10.047360598
жазыптыр -11.4336549591
сагынганымдычы -11.4336549591
үрүп -10.047360598
урап -10.7405077785
балдарым -10.7405077785
күрөшү -11.4336549591
экинчи -8.1014504489
сокого -11.4336549591
шолоктой -11.4336549591
тырмалашып -11.4336549591
мөнен -11.4336549591
капкачан -8.66106623683
кетпеңиз -11.4336549591
азаптозогуна -11.4336549591
өтүп -7.69598534079
коңурук -11.4336549591
киргизүүнү -11.4336549591
укпайсыңбы -11.4336549591
суутайын -11.4336549591
адетин -11.4336549591
сасыкжийдесинен -11.4336549591
кампасы -11.4336549591
колуман -9.82421704664
кыштоосунун -11.4336549591
илбериңки -10.047360598
үнсүз -9.64189548984
ары -7.52163195364
алышууга -11.4336549591
каалаганымды -11.4336549591
келдирин -11.4336549591
аспабы -10.7405077785
каржайган -11.4336549591
суранабыз -11.4336549591
салышкан -10.7405077785
карабадыңар -11.4336549591
мактоосунан -11.4336549591
ишенди -10.3350426704
жууруп -11.4336549591
бийлерге -11.4336549591
калтырууда -11.4336549591
кайырчылар -11.4336549591
иреңдерин -11.4336549591
үймөлөнгөн -11.4336549591
прөзидиум -10.7405077785
такай -10.7405077785
жалчысын -11.4336549591
ылаалап -11.4336549591
билиши -11.4336549591
тынчпы -11.4336549591
гой -10.3350426704
күчкө -11.4336549591
тегерете -10.7405077785
окуй -8.86870560161
күшүлдөпбышылдап -11.4336549591
ызырынганын -10.7405077785
шолоктоп -10.7405077785
атайдык -11.4336549591
букту -10.7405077785
талашпай -11.4336549591
жалган -10.7405077785
баякедей -11.4336549591
сиздерге -10.3350426704
ырдашат -10.7405077785
өзүбү -10.7405077785
шектенет -11.4336549591
чоңчоң -11.4336549591
этип -8.48921597991
көздөбөй -11.4336549591
садырдын -8.66106623683
азгырган -10.3350426704
келдиби -9.64189548984
астында -9.82421704664
омүрүмо -11.4336549591
карманды -9.82421704664
токтотту -9.35421341739
кушчуларга -11.4336549591
силердйн -11.4336549591
таманын -11.4336549591
антка -10.7405077785
жалак -11.4336549591
жатканын -8.94874830928
элекпиз -11.4336549591
райымбек -7.64946532515
сүртүндү -10.3350426704
шартылдата -10.3350426704
жыгачтан -10.3350426704
тегеренип -10.047360598
чайнегин -11.4336549591
алышарын -11.4336549591
ойлоном -11.4336549591
ошондой -7.93714739761
күрөңкөнүн -10.7405077785
чалган -9.82421704664
өзүңөрдө -11.4336549591
алгандар -10.7405077785
созулганда -11.4336549591
жерлер -11.4336549591
дүйнөнү -10.047360598
кылышчу -10.7405077785
кыялга -9.82421704664
деди -6.28616048226
кубалашкан -11.4336549591
эмесминби -11.4336549591
конбой -11.4336549591
жылгаларынан -11.4336549591
өнөрпоздук -11.4336549591
сыяктанып -11.4336549591
сүйлөшөм -11.4336549591
чөйрөсү -11.4336549591
баштоочу -11.4336549591
бектендин -11.4336549591
көлекөдө -11.4336549591
желкесине -11.4336549591
адамкерчилиги -11.4336549591
сызгырылтат -11.4336549591
жаркыратып -11.4336549591
итирейген -10.7405077785
казнасынын -11.4336549591
уурдатып -11.4336549591
карт -9.03575968627
атканын -10.7405077785
сүргөнүнө -11.4336549591
кайнагасын -11.4336549591
малынын -9.82421704664
түйүнчөк -11.4336549591
жыйналган -10.3350426704
кылдын -10.7405077785
жылгалуу -11.4336549591
өктөмдүгүнө -11.4336549591
иренжигендей -11.4336549591
туруктуу -11.4336549591
албуут -11.4336549591
табигый -11.4336549591
тышкары -9.03575968627
баштыгын -11.4336549591
чумуп -11.4336549591
куржунга -11.4336549591
акысынан -11.4336549591
алтын -8.79459762946
кымбатка -10.7405077785
тикесинен -10.047360598
туугандар -9.23643038174
келди -6.81853444223
укканына -10.7405077785
түтүндөн -10.7405077785
болбодуңар -11.4336549591
молдокем -11.4336549591
тамашанын -10.3350426704
бекерчиликтин -11.4336549591
аялдарына -10.3350426704
аламбы -11.4336549591
чуйулунан -11.4336549591
арабага -10.3350426704
сойгонун -11.4336549591
ырдаба -11.4336549591
кула -11.4336549591
бозоюн -11.4336549591
кармадым -11.4336549591
шайланды -10.047360598
сабактын -11.4336549591
жабалактаган -11.4336549591
жазбай -10.3350426704
жарашуу -11.4336549591
таралган -11.4336549591
көзешип -11.4336549591
баштар -10.3350426704
адамдары -11.4336549591
баарынча -11.4336549591
жүгүрдү -11.4336549591
камчыларын -11.4336549591
шамалсыз -11.4336549591
байкайт -11.4336549591
оштоно -11.4336549591
жамгыр -10.3350426704
кийлигишчү -11.4336549591
соконукунан -11.4336549591
алмаштырып -11.4336549591
жымкырылып -11.4336549591
чатышып -11.4336549591
чакырбаганы -10.7405077785
жүргөндүктүн -11.4336549591
пайдасы -10.7405077785
трубанын -11.4336549591
жообу -10.3350426704
датканын -10.3350426704
батып -8.94874830928
кээринен -11.4336549591
карапайымдыгы -11.4336549591
үзүлгөн -10.3350426704
семетей -10.7405077785
буруксуйт -11.4336549591
шоктутум -11.4336549591
айрылбайм -11.4336549591
артистсиңер -11.4336549591
дал -8.25560112872
шаа -11.4336549591
түшүңүз -10.7405077785
баштарына -11.4336549591
жоошутту -11.4336549591
нооту -10.3350426704
жосунуна -10.7405077785
жүрүшкө -11.4336549591
дөңгөлөктүн -11.4336549591
районго -9.82421704664
качанкы -11.4336549591
улай -11.4336549591
акылдаш -11.4336549591
алек -9.48774481002
илинүү -11.4336549591
айдакемдин -10.7405077785
көңүлдөн -11.4336549591
алдыртан -10.3350426704
кошулганга -11.4336549591
келбесе -10.3350426704
далилдөө -10.7405077785
караанды -11.4336549591
эркеги -11.4336549591
айкалыштырып -10.3350426704
нарботиндин -11.4336549591
ырдах -11.4336549591
бузулган -10.7405077785
аттуутондуу -11.4336549591
энесине -10.3350426704
өрдөк -11.4336549591
ыркырашып -11.4336549591
мырзага -11.4336549591
мемирөөдө -11.4336549591
курагынан -10.7405077785
албаганын -11.4336549591
ашкана -11.4336549591
кыжырланып -10.3350426704
алданаг -11.4336549591
жашайт -11.4336549591
көңүлүнөн -9.82421704664
чыйрала -11.4336549591
колпочтон -11.4336549591
кызматчыларын -11.4336549591
жакшылыкты -11.4336549591
тамак -8.86870560161
сөзимин -11.4336549591
чүйрүгөндөр -11.4336549591
туурап -10.047360598
кырсыктан -11.4336549591
оорусу -9.64189548984
көлдөп -11.4336549591
каалашкан -11.4336549591
келтирүүдө -11.4336549591
алшгкан -11.4336549591
соороторлук -11.4336549591
токтогулдан -9.48774481002
кармагыла -10.3350426704
каштарына -11.4336549591
окуганын -11.4336549591
мергендин -11.4336549591
старчын -10.3350426704
барымтага -11.4336549591
чойду -11.4336549591
ооруган -11.4336549591
жакындары -10.7405077785
көңүлүмдө -11.4336549591
ныгыра -11.4336549591
акыркысынын -11.4336549591
макулдашып -11.4336549591
чамгаракка -11.4336549591
нышты -11.4336549591
билгизбесмин -10.7405077785
ошонуң -10.7405077785
төмөндөбөгөн -11.4336549591
кымбаттуу -11.4336549591
жигиттиктин -11.4336549591
кыйынчылык -9.82421704664
баарыаын -11.4336549591
шырдамалдар -11.4336549591
күтүрөтүп -11.4336549591
жет -10.3350426704
таята -9.48774481002
жооптуу -10.7405077785
айлыңарга -10.7405077785
батар -11.4336549591
коротпой -11.4336549591
күйөөсүн -9.23643038174
насыяты -11.4336549591
чыдаган -11.4336549591
жактырьппты -11.4336549591
ансамблин -11.4336549591
жомогу -10.047360598
ачтан -11.4336549591
кайнат -10.7405077785
касиеттүү -10.3350426704
ийаий -11.4336549591
көңүлгө -9.64189548984
өгүз -10.3350426704
билгичтиги -11.4336549591
элестетет -11.4336549591
угушуп -9.64189548984
уккула -10.7405077785
жогундагы -11.4336549591
молдону -9.64189548984
арыкбай -10.3350426704
күндөгүсүндөй -11.4336549591
зкөөбүз -11.4336549591
бетеге -11.4336549591
толукталууда -11.4336549591
ишенбесин -11.4336549591
керекпи -10.3350426704
аттаганы -11.4336549591
чочулайт -11.4336549591
абыщканын -11.4336549591
экиге -10.3350426704
көбүктү -11.4336549591
алдыман -10.7405077785
салыпт -11.4336549591
катынын -10.7405077785
текжайы -11.4336549591
түпгүнүшө -11.4336549591
якшы -11.4336549591
алдап -10.7405077785
шумкардай -10.3350426704
кептөн -11.4336549591
беришкенден -11.4336549591
тааныганда -11.4336549591
колуңду -9.48774481002
чулдурак -11.4336549591
тартынбайт -10.7405077785
баткансып -11.4336549591
тарабайт -11.4336549591
эрбейген -11.4336549591
оюда -11.4336549591
учурун -10.7405077785
бурууга -10.7405077785
койбой -9.64189548984
жумшарыңкы -11.4336549591
чубашты -11.4336549591
таржымалымды -11.4336549591
кара -6.42970865313
абдырахман -11.4336549591
үйүндө -8.34261250571
ишимди -11.4336549591
жандыралы -11.4336549591
бергени -10.047360598
учкашып -10.7405077785
карабасты -11.4336549591
шашылышпады -11.4336549591
түндүктөн -10.3350426704
жаанчачын -11.4336549591
алдрдын -11.4336549591
атабабасынын -11.4336549591
азан -10.7405077785
өткөрөйүн -11.4336549591
ээленгендер -11.4336549591
жоолугуң -11.4336549591
арыш -11.4336549591
колхозчу -11.4336549591
катаал -11.4336549591
сунгулачы -11.4336549591
торунун -10.7405077785
асылып -11.4336549591
күүдөн -8.94874830928
ичейин -11.4336549591
босогонун -11.4336549591
жатмак -10.7405077785
чочоңдошуп -11.4336549591
маданияттуу -11.4336549591
каптаган -10.3350426704
киргенче -10.7405077785
сырдарыя -10.7405077785
билгиң -11.4336549591
чүтй -11.4336549591
түшкөнүн -9.82421704664
келгени -9.64189548984
аке -9.82421704664
кубарып -11.4336549591
тараган -10.7405077785
ирегелеш -11.4336549591
китебин -10.047360598
кыймылдаганын -11.4336549591
жоголгон -9.48774481002
балачакасына -11.4336549591
сынына -11.4336549591
ичүүчүлөр -11.4336549591
ачыңыз -11.4336549591
келатып -10.7405077785
өткөнчө -10.7405077785
ушулбу -10.3350426704
аташса -11.4336549591
чыгармасы -10.7405077785
этишти -10.3350426704
намыстанганы -11.4336549591
жалаадап -11.4336549591
кичинекейи -11.4336549591
жүргөм -11.4336549591
төлөтүүн -11.4336549591
апкаарыды -11.4336549591
акчийдеги -10.3350426704
дартын -10.7405077785
имиш -9.48774481002
коңулда -11.4336549591
шашылды -10.7405077785
талыкпас -11.4336549591
сөзүңдү -10.047360598
ойлошот -11.4336549591
учурду -11.4336549591
көрүүчү -10.7405077785
боолуу -11.4336549591
атка -8.06635912909
кетет -8.48921597991
каргадай -11.4336549591
чалабула -11.4336549591
атчандар -9.35421341739
сопу -11.4336549591
шарактай -11.4336549591
сыябы -11.4336549591
сурашпады -11.4336549591
кароол -11.4336549591
улукка -11.4336549591
катындарга -11.4336549591
наар -11.4336549591
батынбас -11.4336549591
алгамын -11.4336549591
көрүнүшүнө -10.7405077785
уусун -11.4336549591
ыйлай -10.3350426704
бузбайт -11.4336549591
күлкү -8.60044161502
барам -9.82421704664
наманганда -11.4336549591
атканда -10.7405077785
болсок -10.7405077785
жеңилиптир -10.7405077785
атыңарды -11.4336549591
экчеп -11.4336549591
сагынганы -10.7405077785
чылым -10.047360598
үңүрөйө -11.4336549591
арбыды -11.4336549591
курчалган -10.3350426704
чоочуткан -11.4336549591
дөңгөлөгү -11.4336549591
кайгымды -11.4336549591
шабдалы -11.4336549591
баскансыган -11.4336549591
каалгасынын -11.4336549591
чакырышкандыр -11.4336549591
мөгдөп -11.4336549591
махабаттын -11.4336549591
тогунан -11.4336549591
энтигип -10.7405077785
толкунунда -11.4336549591
багы -9.35421341739
че -11.4336549591
чоочунбуз -11.4336549591
көчөңдүн -11.4336549591
чумугандай -11.4336549591
диний -11.4336549591
эмгекчилери -10.7405077785
акылары -11.4336549591
малды -10.3350426704
кампайтты -11.4336549591
тартты -8.79459762946
келе -7.74477550496
көздөрдөн -11.4336549591
толкуп -10.7405077785
кызыкпагандай -11.4336549591
жалгаган -11.4336549591
бербеси -11.4336549591
табылбаганы -11.4336549591
кандырган -11.4336549591
эркин -8.38913252135
бирибирибизден -10.3350426704
дүркүрөп -10.7405077785
тайдыруу -11.4336549591
кырын -11.4336549591
талашууга -11.4336549591
максат -8.79459762946
байгөни -11.4336549591
чымчым -11.4336549591
махаббат -9.48774481002
тегеректеп -11.4336549591
ооту -11.4336549591
тегерек -9.82421704664
сурнайчыны -10.7405077785
тапыртупур -11.4336549591
азышкан -11.4336549591
көзиксе -11.4336549591
жаракөр -10.7405077785
залим -11.4336549591
чычайтып -10.3350426704
байбичем -11.4336549591
ээликкен -10.7405077785
ырдай -9.64189548984
султаналы -6.0309775772
сыноодон -11.4336549591
каптап -9.82421704664
жалгызмынбы -11.4336549591
коркогу -11.4336549591
көздөрдү -11.4336549591
куунун -11.4336549591
түшүнүшпөй -10.3350426704
шадыбектин -10.7405077785
чоло -11.4336549591
опосуз -10.7405077785
күүң -10.7405077785
күрмөсүнүн -9.13106986608
жетет -9.35421341739
кадам -11.4336549591
төркү -10.3350426704
делдейди -11.4336549591
келгенде -7.44467091251
түгүгл -11.4336549591
терме -10.7405077785
душманым -11.4336549591
кошулушту -11.4336549591
оюуну -11.4336549591
өздөрүнүкү -11.4336549591
айыпка -10.3350426704
колкоздун -11.4336549591
кестини -9.82421704664
билбес -11.4336549591
тургандыр -10.7405077785
жамбашына -11.4336549591
кургандардын -11.4336549591
берсеңиз -10.7405077785
чоочун -8.72560475797
бөксөргөн -11.4336549591
жантакпай -7.74477550496
чатакматагыңар -11.4336549591
бошотпойсуңар -11.4336549591
шуу -10.047360598
кордугун -10.3350426704
меймандостук -11.4336549591
күндөгүдөй -10.7405077785
таңгалган -10.7405077785
көтсе -11.4336549591
убалыңар -10.7405077785
каалагандай -10.3350426704
бүтүштү -10.7405077785
адамкалый -11.4336549591
акысын -9.82421704664
күлүктүн -11.4336549591
үсөндүн -11.4336549591
колумдагы -11.4336549591
жатасыңанын -11.4336549591
орусорус -11.4336549591
эпсиз -10.3350426704
орундарына -11.4336549591
көрүүгө -9.64189548984
кишилергө -11.4336549591
кишилери -10.047360598
терсколдун -11.4336549591
башкасын -10.3350426704
барарын -9.23643038174
билесиңерби -11.4336549591
көбөйгөн -11.4336549591
төмөнүрөөк -10.7405077785
тажап -10.7405077785
v -11.4336549591
жазасынан -11.4336549591
сөзсүз -9.64189548984
балбанды -10.7405077785
меймандарын -11.4336549591
былкылдатпай -10.7405077785
дайым -10.7405077785
кишп -10.7405077785
чыкпай -8.79459762946
бермек -9.35421341739
түшөт -9.13106986608
чертүүчүлөр -11.4336549591
калышкан -8.66106623683
кыягынын -11.4336549591
калучу -10.7405077785
учкашкан -10.7405077785
аныи -11.4336549591
каларлык -10.7405077785
баспаган -11.4336549591
кажылдашуулар -11.4336549591
күңкүлүнө -11.4336549591
торпогу -11.4336549591
бүлүк -10.047360598
шапке -11.4336549591
туу -10.7405077785
бироокум -11.4336549591
жолугушуудан -10.047360598
жүгүртүштү -11.4336549591
жолдошуна -10.3350426704
асыл -9.23643038174
сууругандай -11.4336549591
теңдүүбү -11.4336549591
өкүлү -10.047360598
күнүнө -10.047360598
сергек -10.047360598
коюучу -10.7405077785
кыласыңбы -10.7405077785
чычалашып -11.4336549591
тыянактай -11.4336549591
туштушунда -11.4336549591
түшүрбөй -11.4336549591
кайталоочу -11.4336549591
туталанбай -11.4336549591
айтышты -9.35421341739
генерал -11.4336549591
жазылып -10.7405077785
жекире -11.4336549591
союл -10.7405077785
миңдеген -10.7405077785
эгики -11.4336549591
ойнойм -11.4336549591
чийкил -10.3350426704
аркыберкини -11.4336549591
барасыз -11.4336549591
коколой -11.4336549591
айланышты -11.4336549591
тандаганда -11.4336549591
ийкеп -9.64189548984
тойчусунан -11.4336549591
жоорутуп -11.4336549591
бардык -10.047360598
өбөктөп -10.3350426704
кишилиги -11.4336549591
мырзаңы -11.4336549591
болгонуна -9.64189548984
жыйганда -11.4336549591
асылышты -11.4336549591
үрмаралбы -11.4336549591
бошотуп -10.7405077785
бөлмөдө -10.3350426704
досумду -11.4336549591
кырдач -10.7405077785
ушактан -11.4336549591
болоруң -11.4336549591
азыктүлүккө -11.4336549591
козголушуп -11.4336549591
духу -11.4336549591
айтылып -11.4336549591
омурт -11.4336549591
оо -8.94874830928
жамакчы -11.4336549591
актала -11.4336549591
сарыбагыштан -11.4336549591
байыр -11.4336549591
карызы -11.4336549591
жата -8.94874830928
күмбөздүң -11.4336549591
торуна -11.4336549591
билүүнүн -11.4336549591
турушуп -9.82421704664
калганбы -10.7405077785
көздөрүнүн -11.4336549591
жубарымбек -10.047360598
бадалдардан -11.4336549591
тазалыгын -11.4336549591
шарга -11.4336549591
аялдык -11.4336549591
коем -10.3350426704
саламчылар -11.4336549591
артисттериң -11.4336549591
жүрөктөрүнүн -11.4336549591
тийгис -11.4336549591
козголуптур -11.4336549591
өтүшкен -11.4336549591
сыздайт -11.4336549591
чечиле -11.4336549591
ыраак -11.4336549591
карашынан -11.4336549591
кулуңмун -11.4336549591
айтылуу -10.3350426704
укканбыз -11.4336549591
арабасына -11.4336549591
ишенип -10.047360598
тарапта -9.48774481002
ачка -10.047360598
жардыжалчынын -10.7405077785
атаңдын -10.047360598
и -11.4336549591
элиңден -11.4336549591
кайтпасын -11.4336549591
ушул -6.26886898515
устаттар -11.4336549591
карыш -10.7405077785
көтөргөнүнө -11.4336549591
тинтишип -11.4336549591
капкагын -10.3350426704
чертилиши -10.7405077785
кесибиң -11.4336549591
албырып -10.047360598
милиционер -9.48774481002
басынабы -11.4336549591
кумсарган -11.4336549591
бармаксың -11.4336549591
ишенгени -10.3350426704
албасы -11.4336549591
социалдык -11.4336549591
кетишип -10.7405077785
кутудагы -11.4336549591
кылдар -10.7405077785
кашкайып -10.3350426704
көкөйүбүз -11.4336549591
түрсүлдөгөнү -11.4336549591
кылымдардан -11.4336549591
тобурашкандарды -11.4336549591
азыркыдан -11.4336549591
адабият -11.4336549591
чайпалтып -11.4336549591
максатынын -11.4336549591
жакырланып -11.4336549591
токтолбогону -11.4336549591
уйгө -10.7405077785
сумурай -11.4336549591
иштегенден -11.4336549591
камыңды -11.4336549591
келгендиктенби -11.4336549591
жакындагыла -11.4336549591
качканым -10.7405077785
башталган -9.48774481002
ургачыга -11.4336549591
келгилечи -10.7405077785
өткөргөнүн -11.4336549591
жутунганда -11.4336549591
атасам -11.4336549591
бисмилла -11.4336549591
туруксуздугун -11.4336549591
аябайын -11.4336549591
билектен -10.047360598
тумчугуп -11.4336549591
болушун -11.4336549591
жалтанбастыгынан -11.4336549591
экеы -11.4336549591
жөнжайын -11.4336549591
киргиле -10.3350426704
тутандырды -11.4336549591
биздикине -11.4336549591
колдо -9.64189548984
жээнинен -11.4336549591
тапшырган -11.4336549591
аска -10.7405077785
рыскулбек -10.7405077785
айлан -11.4336549591
болуш -6.85894398057
эсен -9.82421704664
бирөөнүн -9.03575968627
сыйласын -11.4336549591
соодагерлерге -11.4336549591
шар -10.7405077785
жактын -10.7405077785
өйдөтөмөн -10.7405077785
күткөнүндөй -10.7405077785
балаадан -10.7405077785
үйбүлөсүн -11.4336549591
кооптонуп -10.7405077785
дарегин -10.7405077785
чаржайыт -11.4336549591
күрөшүп -10.047360598
айлыбыздын -11.4336549591
адатын -10.3350426704
кекиртегин -11.4336549591
маалын -11.4336549591
кагаздар -11.4336549591
кудалашкан -10.7405077785
келдиң -9.23643038174
ырдашсын -11.4336549591
баргандан -10.3350426704
эңгидеңги -10.7405077785
нысабы -11.4336549591
тайраңдап -11.4336549591
арасынан -9.35421341739
тузуңду -11.4336549591
илгери -9.13106986608
атабек -10.047360598
комузучу -11.4336549591
папирос -11.4336549591
сайылып -11.4336549591
жүрүшүп -10.3350426704
көрүшөлүк -11.4336549591
болсоң -8.66106623683
каткат -10.7405077785
жеткен -8.66106623683
жардыгын -11.4336549591
кемкарчын -11.4336549591
чоңунун -11.4336549591
султана -11.4336549591
комузумду -10.7405077785
булактардан -11.4336549591
ишиңер -11.4336549591
отуруучу -10.3350426704
коркутуп -10.3350426704
тароодо -11.4336549591
капка -10.3350426704
бөлмөнүн -9.82421704664
экөөнү -11.4336549591
старчындарды -10.7405077785
берди -6.54330583085
тоскону -11.4336549591
дөөттүн -11.4336549591
ачыла -10.047360598
көрбө -10.3350426704
короосуна -11.4336549591
чечтирип -11.4336549591
эрлер -11.4336549591
өкмөтүнөн -11.4336549591
тагдырыма -10.3350426704
башкаларды -10.7405077785
бетиме -11.4336549591
уруусун -11.4336549591
өзгөйлүгүн -11.4336549591
кемегелер -11.4336549591
жөз -11.4336549591
тизесине -10.7405077785
руксат -11.4336549591
кырманта -11.4336549591
терчү -11.4336549591
көлбүп -11.4336549591
немеге -10.7405077785
өздөрүн -9.64189548984
куткаргандар -11.4336549591
сыймыктангандай -11.4336549591
окуганы -10.7405077785
малайга -10.7405077785
үйбүлөдөй -11.4336549591
тааныштарды -11.4336549591
отурбайбы -11.4336549591
артык -9.13106986608
чабуу -10.047360598
идеясын -11.4336549591
ырдады -10.3350426704
тамашалашып -10.7405077785
чыйпалактайт -11.4336549591
эмитен -10.7405077785
кылганың -11.4336549591
кылбайт -10.7405077785
баасы -10.7405077785
ашарын -11.4336549591
акылдаша -11.4336549591
кетип -7.82273704643
үйрөнгөнүмдү -11.4336549591
көңүлүмдүн -11.4336549591
драм -10.7405077785
сурнайы -11.4336549591
баланчаныкына -11.4336549591
токтогулачы -11.4336549591
жыйылган -10.3350426704
жумуштап -11.4336549591
туюлат -10.7405077785
ыйлабайт -11.4336549591
үйжайы -11.4336549591
кенже -11.4336549591
күнөөлүүдөй -11.4336549591
эркиндиктен -11.4336549591
жалооруу -11.4336549591
билгениңди -10.7405077785
баарынан -8.72560475797
ортолошту -11.4336549591
далайын -10.7405077785
ыктап -10.3350426704
аялдарынан -10.7405077785
жиберчи -10.7405077785
иниңиз -10.7405077785
сойбой -10.7405077785
учурунда -9.23643038174
сендерге -11.4336549591
арбашып -11.4336549591
былжыраган -11.4336549591
машакты -9.82421704664
чуңкурда -11.4336549591
камдалуудай -11.4336549591
жасалган -10.7405077785
маанисин -10.047360598
акылдуулугуң -11.4336549591
экөөң -9.82421704664
эрээн -11.4336549591
жазалаганын -11.4336549591
жашырат -10.3350426704
кысталыштан -11.4336549591
чырканакты -10.7405077785
жалбарышты -11.4336549591
кулдудай -11.4336549591
жалынуужалбаруу -11.4336549591
иниси -9.03575968627
жоомарт -11.4336549591
билбейсиңерби -11.4336549591
көгала -11.4336549591
окууну -9.64189548984
абышкаоы -11.4336549591
чыдамсызданат -11.4336549591
нота -11.4336549591
катышпай -11.4336549591
тамга -10.7405077785
жаныбекке -9.48774481002
катышып -10.047360598
арналуу -11.4336549591
чеберлердин -10.7405077785
тгукумусуң -11.4336549591
жумуштарынын -11.4336549591
мойнокту -11.4336549591
театралдык -11.4336549591
кантээр -10.047360598
толгогондо -11.4336549591
жекжаат -10.047360598
табыма -11.4336549591
өзгөрүү -11.4336549591
оорудай -11.4336549591
берүүдө -11.4336549591
кичүүсүн -11.4336549591
келтирди -10.3350426704
мукактанды -10.7405077785
ортосунда -8.48921597991
күндөр -10.7405077785
тушоосу -11.4336549591
шишимик -10.7405077785
көргөнүм -10.7405077785
дайындады -11.4336549591
созо -10.3350426704
калат -7.82273704643
телпектей -10.7405077785
көлкүлдөдү -11.4336549591
бадырагы -11.4336549591
кыстарылган -10.047360598
албагандыр -11.4336549591
мудаасын -11.4336549591
беттеше -11.4336549591
сеникиби -11.4336549591
эриндин -11.4336549591
маданияттуулукка -11.4336549591
минуталардын -11.4336549591
чакта -11.4336549591
көргөнсүшүп -11.4336549591
десе -7.93714739761
антсе -10.7405077785
башың -10.7405077785
аарчы -10.7405077785
атайлыгың -11.4336549591
алчаңдай -11.4336549591
офицери -11.4336549591
сурайлы -11.4336549591
кылыгы -11.4336549591
келүүчү -11.4336549591
жасатуу -10.7405077785
күлкүгө -11.4336549591
чарбалыгы -11.4336549591
батаңарды -11.4336549591
үйдү -8.60044161502
алачыкка -11.4336549591
бейчеки -11.4336549591
шатырашып -11.4336549591
чиренип -10.3350426704
айкалышып -11.4336549591
коркутмак -11.4336549591
тайын -11.4336549591
каалабагандай -10.7405077785
бурулчадан -11.4336549591
келгендеги -10.7405077785
заманасы -11.4336549591
чолосу -11.4336549591
жолуктуңбу -10.7405077785
кайрыласыз -11.4336549591
өзгөрүлбөйт -11.4336549591
далдалынан -11.4336549591
байлsr -11.4336549591
калар -9.35421341739
сурмалуу -10.7405077785
матайдын -10.3350426704
түрсүлдөдү -11.4336549591
чалынбагай -11.4336549591
жүгүртүп -9.35421341739
өкмөт -9.82421704664
талкалаткан -11.4336549591
баданадай -11.4336549591
көчүшүп -11.4336549591
уюнан -11.4336549591
садагаң -10.047360598
столду -11.4336549591
озол -11.4336549591
курсагым -11.4336549591
уккулуктуу -10.047360598
кийиз -9.23643038174
чабылып -10.3350426704
чыгармачылыктын -11.4336549591
ыза -10.047360598
коломтого -10.3350426704
ачылышып -11.4336549591
коштурбай -11.4336549591
ананайындарым -11.4336549591
күзөтүп -11.4336549591
үзөнгүсүн -10.7405077785
көрөгөн -11.4336549591
кесесин -11.4336549591
уруучулук -11.4336549591
багың -11.4336549591
оозунда -11.4336549591
калтырбайбыз -11.4336549591
шоруң -10.7405077785
капалантпайын -11.4336549591
бакырыгына -11.4336549591
ишенбесе -11.4336549591
чарбамын -11.4336549591
короздун -10.3350426704
чайпалып -10.7405077785
ыйлаган -10.3350426704
күнүмдөгүдөй -11.4336549591
кысат -11.4336549591
билчү -8.34261250571
баржок -11.4336549591
бактысына -11.4336549591
ысыксуугуна -11.4336549591
чакыруудан -10.047360598
мүрт -11.4336549591
канат -10.047360598
келгенден -8.34261250571
диртилдеп -11.4336549591
сансыз -10.7405077785
жүк -10.047360598
сенден -8.86870560161
чачпак -11.4336549591
урганы -10.7405077785
барбасаңыз -11.4336549591
созулган -11.4336549591
милицияга -10.3350426704
тагылып -11.4336549591
кеңколдогу -11.4336549591
малдан -9.82421704664
айдоого -9.82421704664
жебесең -11.4336549591
магдыроо -11.4336549591
чабуулга -11.4336549591
кадимкисине -11.4336549591
жанданып -10.7405077785
учурашкандан -10.7405077785
каратып -11.4336549591
бөлмөгө -10.047360598
тарбияланган -11.4336549591
байкем -10.7405077785
жактагы -8.94874830928
сапсайып -11.4336549591
ыйлаганына -11.4336549591
баратышынан -11.4336549591
түлөө -11.4336549591
кармашы -11.4336549591
кадырлаганы -11.4336549591
жантакпайга -11.4336549591
моюндарын -11.4336549591
органына -11.4336549591
жууруда -11.4336549591
муунун -10.7405077785
кыбыңдатып -11.4336549591
насвай -11.4336549591
тирчилик -10.047360598
солк -11.4336549591
терисинин -11.4336549591
бутуна -10.7405077785
тийейин -11.4336549591
өзүмө -10.7405077785
үйдөгү -9.48774481002
учурагандай -11.4336549591
жүрүштурушун -11.4336549591
бошоно -11.4336549591
тааныймын -11.4336549591
эсте -10.7405077785
качат -10.7405077785
муштумдар -11.4336549591
эркти -11.4336549591
алабы -9.48774481002
өтөр -10.7405077785
калпакты -11.4336549591
учканда -11.4336549591
купуя -10.047360598
жанынан -8.54328320118
укмушка -10.7405077785
көргөздү -9.64189548984
дец -10.7405077785
курушун -11.4336549591
чертти -9.23643038174
өзбек -10.047360598
тарыхы -11.4336549591
мээнеттен -11.4336549591
булуккан -11.4336549591
жолугушууда -11.4336549591
булар -8.13781809307
карагердин -10.3350426704
ийменди -10.7405077785
сүйлөдү -7.93714739761
силкишип -11.4336549591
амандашты -11.4336549591
шашкалаң -11.4336549591
досуң -11.4336549591
туубаган -11.4336549591
ишти -9.48774481002
достамырлары -11.4336549591
асман -9.23643038174
таңыркап -11.4336549591
мертинмек -11.4336549591
болущ -11.4336549591
байкагансып -11.4336549591
уюшулган -11.4336549591
балабыз -11.4336549591
кайракайра -10.7405077785
макташты -11.4336549591
жайнатып -10.7405077785
сүйлөшүндө -11.4336549591
агызып -11.4336549591
эртеден -9.48774481002
мөңгү -11.4336549591
унщнтип -11.4336549591
дүмбүлүнө -10.7405077785
ал -5.13286916441
кыязда -10.7405077785
айтышып -8.79459762946
башкараак -11.4336549591
жаланып -10.3350426704
жаздырышат -11.4336549591
топтоштурулган -11.4336549591
эместиги -10.7405077785
немени -9.48774481002
комиссия -11.4336549591
сабакка -10.3350426704
элегиң -10.7405077785
комузунан -10.3350426704
кулаган -11.4336549591
жыргап -11.4336549591
сатыктагы -11.4336549591
опузалай -11.4336549591
байбичесин -11.4336549591
баарысы -11.4336549591
сызып -11.4336549591
чыккансып -11.4336549591
калды -6.00430933012
тамактар -11.4336549591
уулума -11.4336549591
өлгөнүнө -11.4336549591
коштошууга -10.7405077785
аяшпайт -11.4336549591
созушуп -11.4336549591
үмүт -9.64189548984
тегерегиндегилерди -10.7405077785
чыккан -7.14319551792
абийриң -10.7405077785
тынар -10.7405077785
ачыгы -11.4336549591
уккандырсың -11.4336549591
жалчылардан -11.4336549591
арага -9.64189548984
буларды -9.35421341739
соолуктар -11.4336549591
ликбөзге -11.4336549591
жакаларындагы -11.4336549591
жашыруудан -11.4336549591
шапкечен -11.4336549591
тилегендер -11.4336549591
чуусу -10.7405077785
кармашпай -11.4336549591
байыш -11.4336549591
зарылдыгы -10.7405077785
кылт -11.4336549591
алынчу -11.4336549591
дедиңби -11.4336549591
дүкүлдөп -11.4336549591
сөзгенер -11.4336549591
далдалоого -11.4336549591
ченеп -11.4336549591
китепке -11.4336549591
окшоду -9.82421704664
жылкы -8.86870560161
килем -10.047360598
атайдай -11.4336549591
аларын -11.4336549591
терөзеден -11.4336549591
бүлөлөргө -11.4336549591
этти -8.13781809307
ормойтуп -11.4336549591
баяндады -9.82421704664
эрегишүү -11.4336549591
жумшара -11.4336549591
учурата -11.4336549591
кылбасмын -11.4336549591
эгинден -10.7405077785
чоочуп -9.48774481002
дос -8.72560475797
ноендору -11.4336549591
өнөрүңүздү -11.4336549591
зткен -11.4336549591
чытырашнайдан -11.4336549591
кайнап -9.23643038174
эмин -11.4336549591
айылдарында -11.4336549591
тарагандан -10.3350426704
кежигеси -11.4336549591
теңселишет -11.4336549591
бербеген -10.3350426704
жактырат -10.7405077785
күчтүүсү -10.7405077785
кыбырлыгы -11.4336549591
кийип -8.29816074314
кыянаттыгы -11.4336549591
басылышы -11.4336549591
айткан -8.06635912909
катырат -11.4336549591
делбейтип -11.4336549591
аманбы -10.7405077785
жиреп -10.7405077785
үйрөтүүгө -11.4336549591
ботойдон -11.4336549591
зыйнаттын -10.047360598
өлүмү -10.3350426704
курбусунун -11.4336549591
түрө -11.4336549591
үкү -11.4336549591
умтулганда -10.7405077785
келипсиз -11.4336549591
жыпжылаңач -11.4336549591
өчөр -11.4336549591
дуулар -11.4336549591
маданияттын -11.4336549591
даңкы -10.047360598
байкамаксан -11.4336549591
аласыңбы -11.4336549591
тынчтыкка -11.4336549591
токтогулча -11.4336549591
жыйноо -10.047360598
коштошту -11.4336549591
убагыңарда -11.4336549591
барабара -9.82421704664
салууларды -11.4336549591
өзүнөн -9.48774481002
айылдаштар -11.4336549591
таякеңердин -11.4336549591
жомокто -11.4336549591
көзи -9.64189548984
калчу -9.64189548984
жасалып -11.4336549591
тийгизем -11.4336549591
алышууда -11.4336549591
соет -11.4336549591
күлүктөн -11.4336549591
билинбей -9.03575968627
дүмбүлүн -11.4336549591
чыйпыйы -11.4336549591
кыйыктангандай -11.4336549591
улутунат -11.4336549591
кудаанын -10.7405077785
тамырларына -11.4336549591
жайчылык -11.4336549591
кетсең -10.047360598
күйөөгө -9.82421704664
үйүнүн -8.94874830928
айландырышкан -11.4336549591
аттанат -11.4336549591
тымызын -10.047360598
толгоп -9.03575968627
тынчтангандан -11.4336549591
көбүнүн -11.4336549591
үйдөбү -11.4336549591
кийимкечеден -11.4336549591
токойду -9.23643038174
чыкпачы -11.4336549591
көрүчү -11.4336549591
тырмагы -11.4336549591
ташын -10.7405077785
тамашаны -8.79459762946
мурчуюп -10.3350426704
суратпай -11.4336549591
айткым -11.4336549591
өх -9.48774481002
жыйындын -10.7405077785
асманда -11.4336549591
адашабы -11.4336549591
күүч1өрүтн -11.4336549591
чачка -11.4336549591
күчүндө -11.4336549591
алдыларына -9.82421704664
тана -11.4336549591
софу -11.4336549591
саясатына -10.7405077785
чыдабайт -10.7405077785
дүйнөдөн -8.66106623683
судьянын -11.4336549591
чарчаган -11.4336549591
байбичесине -10.3350426704
митингди -11.4336549591
демите -11.4336549591
изине -10.047360598
туурадан -10.7405077785
бригадирдин -10.3350426704
азайтты -11.4336549591
меймандашат -11.4336549591
эткенин -11.4336549591
айтар -10.7405077785
угары -11.4336549591
лүк -11.4336549591
слишком -11.4336549591
кампа -10.7405077785
кудалашып -11.4336549591
энтигишип -11.4336549591
буйдалбай -10.7405077785
кыраат -11.4336549591
үзөн -10.3350426704
түрмөдөн -10.7405077785
куралган -10.7405077785
күлдөн -11.4336549591
жаманга -11.4336549591
кудалашканы -11.4336549591
болдуң -10.3350426704
эмнелер -11.4336549591
кошуудан -11.4336549591
түгөлдүгү -11.4336549591
издейм -10.7405077785
кыйшайган -11.4336549591
карыптын -11.4336549591
табак -10.7405077785
ээрчиди -10.3350426704
буюмдардын -10.3350426704
көрөт -9.35421341739
сөздирди -11.4336549591
ката -10.3350426704
сыпайкерчиликтүү -10.047360598
кайнинин -11.4336549591
арыкты -11.4336549591
колхоздор -11.4336549591
кутулгусу -11.4336549591
уйгуру -11.4336549591
түгөтпөй -11.4336549591
буйрубагансып -11.4336549591
таттуу -8.94874830928
сүрөбүз -11.4336549591
кирбей -10.7405077785
акчасы -10.7405077785
курун -10.7405077785
кагылайын -8.94874830928
наманганга -11.4336549591
өчпөгөнүн -11.4336549591
сабырсызданышты -11.4336549591
акмат -10.7405077785
жаткандарды -11.4336549591
арыктайт -11.4336549591
кудайберген -7.46336304552
кызылдуу -10.3350426704
курманбек -11.4336549591
быйылкыдай -11.4336549591
уулдун -10.7405077785
жаатташып -11.4336549591
жүгөрү -10.3350426704
жүргөнүмдө -11.4336549591
жүдөшүп -11.4336549591
зууранын -9.82421704664
ошонукундай -11.4336549591
келаткандыктан -11.4336549591
тизесин -9.82421704664
үйрөнгөнүндөй -11.4336549591
кыйнады -11.4336549591
ашса -10.7405077785
оторбай -8.34261250571
кызга -9.64189548984
билгизбөө -10.7405077785
кеселге -11.4336549591
дария -11.4336549591
колубутумду -11.4336549591
чокем -10.7405077785
илээшкенеийт -11.4336549591
каткырганын -10.7405077785
кирүүдөн -11.4336549591
сагынганым -11.4336549591
макмалдан -11.4336549591
үйлөндүңбү -11.4336549591
жашында -10.7405077785
качкындар -11.4336549591
кайтты -9.82421704664
белги -10.047360598
өпкөндө -11.4336549591
чаба -11.4336549591
кыңгырата -11.4336549591
бүтпөс -11.4336549591
дайындашкан -10.7405077785
оозуңардан -11.4336549591
чыктым -11.4336549591
анкеталык -11.4336549591
тартылганын -11.4336549591
төмөн -8.38913252135
орундатууга -11.4336549591
каардуулугу -10.7405077785
нквдга -11.4336549591
тынчы -9.48774481002
таңгаларлык -10.7405077785
дегениң -10.3350426704
жетейин -11.4336549591
балдары -10.047360598
кеткенсиң -11.4336549591
атайым -10.7405077785
сатарлар -11.4336549591
сибирде -11.4336549591
күтпөй -9.82421704664
байкабасын -11.4336549591
теңтуш -10.047360598
досума -11.4336549591
ташкаранын -11.4336549591
сурма -10.7405077785
белем -9.82421704664
сергип -10.7405077785
бейбак -11.4336549591
бакырган -10.3350426704
кармаштырып -11.4336549591
тиктиришип -11.4336549591
түшмөк -10.7405077785
сээп -10.3350426704
баралы -11.4336549591
олуяатадагы -10.7405077785
көрүнүшкөн -11.4336549591
манаптары -9.13106986608
кенде -11.4336549591
отурганча -10.7405077785
экообүздүн -11.4336549591
жаралуу -10.047360598
балачакасы -9.64189548984
акынга -10.047360598
кактыны -10.7405077785
кутулган -11.4336549591
бүттү -9.03575968627
арданат -10.7405077785
муундары -10.3350426704
кымтып -11.4336549591
учуруп -11.4336549591
аарчып -11.4336549591
аксы -10.3350426704
чыкпайт -9.82421704664
обочодо -11.4336549591
башыңыздан -11.4336549591
уруу -11.4336549591
бектенге -10.047360598
эрдижука -11.4336549591
керт -9.48774481002
бастырылган -11.4336549591
тыныбекке -9.13106986608
жашымда -11.4336549591
чулчуюп -11.4336549591
кабарланган -11.4336549591
жарыбай -10.7405077785
жеңилет -11.4336549591
жатасың -10.047360598
уурдаганы -11.4336549591
баркылдагы -11.4336549591
даабады -10.7405077785
бой -9.35421341739
кармаңыз -11.4336549591
арабанын -10.3350426704
отуруунун -11.4336549591
үргүлөй -11.4336549591
арбыта -10.7405077785
муз -11.4336549591
бузулбай -11.4336549591
кошуңуз -10.3350426704
журт -10.3350426704
сөзүнөн -9.48774481002
мээримсиз -11.4336549591
жагы -9.13106986608
үйлөндүрдү -11.4336549591
бура -10.047360598
үрмарал -11.4336549591
окуучулардан -11.4336549591
түшкө -10.047360598
көкөйүн -11.4336549591
дүйнөсүн -10.7405077785
сай -10.3350426704
чуулдашкан -11.4336549591
калкы -10.7405077785
чогултасызбы -11.4336549591
пюлоктоткондон -11.4336549591
жүздүүлүк -11.4336549591
эсептегенде -11.4336549591
нйчего -11.4336549591
үйлөнүү -10.3350426704
чыгармачылык -11.4336549591
кызыктыра -10.7405077785
айтарлык -11.4336549591
кымызын -11.4336549591
төзтөз -10.3350426704
бөкчөйгөн -11.4336549591
чыксак -10.7405077785
кайрыды -9.64189548984
кылдаттык -10.7405077785
малчыларды -11.4336549591
ырас -8.13781809307
убактардан -11.4336549591
жемеледи -9.82421704664
катышканы -11.4336549591
эмгекчилерине -11.4336549591
өзүмдүн -10.047360598
токтолгондо -10.7405077785
үйлөнүүмдү -11.4336549591
тогуз -8.94874830928
канаты -11.4336549591
көөдөндөрү -11.4336549591
жуксуз -11.4336549591
сайроодо -11.4336549591
эстешти -11.4336549591
капталы -11.4336549591
кыйылышып -11.4336549591
беттер -10.7405077785
тскушту -11.4336549591
мамилени -11.4336549591
кубанычта -11.4336549591
аңгемесин -10.7405077785
карышкырлар -11.4336549591
бозочулардын -11.4336549591
ич -9.35421341739
үчкошойдун -11.4336549591
үрпөйүп -11.4336549591
пайдаланып -10.3350426704
күлгө -10.7405077785
сугу -11.4336549591
жайрады -11.4336549591
кердирип -11.4336549591
саздагы -10.047360598
кууганына -11.4336549591
лауреат -11.4336549591
отургандардын -8.94874830928
оёздун -10.3350426704
токолдун -10.3350426704
байлардан -10.3350426704
кайтканда -10.7405077785
кагаздай -11.4336549591
этбетинен -11.4336549591
болсом -9.64189548984
камкордугуна -11.4336549591
тосо -10.3350426704
куурулгур -11.4336549591
күбөлөгөнсүйт -10.7405077785
чырайлык -11.4336549591
ойлосо -9.82421704664
ортолуктан -11.4336549591
анткорлугун -11.4336549591
кудайбергенди -10.3350426704
тамашада -11.4336549591
этияттык -11.4336549591
аңкайып -11.4336549591
акылманды -11.4336549591
жап -10.7405077785
какты -10.3350426704
шилтөөгө -11.4336549591
кызматчыларга -10.7405077785
кантишет -11.4336549591
махаббатың -11.4336549591
алдыга -9.48774481002
бокочо -11.4336549591
антпесең -10.3350426704
кайтышты -10.3350426704
унаасы -11.4336549591
арбайыпсарбайып -11.4336549591
жигиттердин -10.047360598
чекир -9.64189548984
жөнөрдө -10.7405077785
шыбыш -10.7405077785
жасакер -11.4336549591
алдангандырсың -11.4336549591
окулуп -10.3350426704
баштыкка -11.4336549591
наалат -11.4336549591
жигиттер -8.66106623683
алгыла -9.23643038174
розыск -10.7405077785
ыйгарды -11.4336549591
кыйналуучу -11.4336549591
чакан -10.7405077785
куйрук -10.7405077785
шыйпаңдатып -11.4336549591
агаңдын -11.4336549591
ээрчийт -11.4336549591
бээси -11.4336549591
булбулга -11.4336549591
бөйрөк -11.4336549591
төркүнүңө -11.4336549591
даткага -11.4336549591
кетиптир -9.82421704664
тутанткысы -11.4336549591
дедиң -11.4336549591
акылынан -10.047360598
кече -9.48774481002
чыкпагандан -11.4336549591
шымаланып -11.4336549591
жаралганбы -11.4336549591
жылдарында -11.4336549591
өзүмдү -10.7405077785
окшошкон -11.4336549591
болгонум -10.3350426704
беттештирип -11.4336549591
түнөйт -10.7405077785
ачты -9.03575968627
оңдогончо -11.4336549591
тоюнуп -10.7405077785
кубанганын -10.3350426704
араздашканы -11.4336549591
солкулдашып -11.4336549591
жашайм -11.4336549591
китепти -10.3350426704
төкмө -10.7405077785
кичикапкадан -11.4336549591
ошончолук -10.3350426704
имерди -10.7405077785
күлөт -9.82421704664
шилтенгенин -11.4336549591
куунак -10.7405077785
болгондой -9.23643038174
сурабайбыз -11.4336549591
энчисиндеги -10.7405077785
былтыр -10.3350426704
чыгарылган -11.4336549591
улап -10.047360598
силккенде -11.4336549591
келиндери -11.4336549591
жабыктан -10.7405077785
туугандыктын -11.4336549591
тилинде -11.4336549591
кастарлаган -11.4336549591
өйүзүнө -11.4336549591
желдетишип -11.4336549591
жөнөөчүдөй -11.4336549591
шыбак -11.4336549591
шалы -11.4336549591
кылбас -10.7405077785
жоон -9.35421341739
дөңгө -9.48774481002
адамдарга -10.7405077785
урчугуна -11.4336549591
сокпой -11.4336549591
боорлорум -11.4336549591
жантакпайдан -11.4336549591
коюнун -11.4336549591
угузган -11.4336549591
ойлонтту -10.3350426704
жетелегенде -11.4336549591
чапмак -11.4336549591
айтчу -10.7405077785
мейманын -11.4336549591
тушунан -10.7405077785
жактырып -10.3350426704
чакырылган -10.3350426704
бурадарыма -11.4336549591
кимдики -11.4336549591
томаяктын -11.4336549591
какшыктаганы -11.4336549591
туйганда -11.4336549591
утулду -10.7405077785
туяксыз -11.4336549591
багышты -11.4336549591
каттап -9.82421704664
акембайда -11.4336549591
кошумчабыз -11.4336549591
заседателдер -10.7405077785
сырт -11.4336549591
саканагына -11.4336549591
тайманбастыгы -11.4336549591
имерилгенден -11.4336549591
муңканган -11.4336549591
окутуудан -11.4336549591
эшиктө -11.4336549591
касиетинен -11.4336549591
канатынын -11.4336549591
жалдыратып -11.4336549591
саздардан -11.4336549591
кирген -8.86870560161
жөргөлөк -10.047360598
айыпкер -11.4336549591
ойлору -11.4336549591
болушуңар -11.4336549591
жигитердин -11.4336549591
томпоет -11.4336549591
кошкон -10.7405077785
кылдарга -11.4336549591
белен -10.7405077785
танапис -11.4336549591
баланчанын -10.7405077785
тирүүсүндөгү -11.4336549591
керек -6.4638416595
балдарга -9.23643038174
күүлү -11.4336549591
сөөмөйү -10.7405077785
жалбырагын -11.4336549591
мындайча -10.7405077785
шартынан -11.4336549591
тургак -11.4336549591
ырчы -7.48241124049
жайдары -9.82421704664
беремин -11.4336549591
аңта -11.4336549591
жанындай -11.4336549591
убараланышып -11.4336549591
наманганды -11.4336549591
энесинен -10.7405077785
кириши -11.4336549591
бөлүнө -10.7405077785
байге -10.7405077785
кормок -11.4336549591
айрылуу -10.7405077785
кирой -11.4336549591
беденин -11.4336549591
жүрөгүмдү -11.4336549591
мандатың -10.7405077785
отунду -11.4336549591
үйлөнтүү -11.4336549591
шиши -11.4336549591
экенсиңер -10.3350426704
малдарды -11.4336549591
туурдук -11.4336549591
айтсак -11.4336549591
карылыктын -10.7405077785
ушакайыңга -11.4336549591
таяна -9.82421704664
качкандан -11.4336549591
сакалынан -10.3350426704
муңдашар -11.4336549591
ымыркайды -11.4336549591
ажырай -11.4336549591
картаңдар -11.4336549591
жылчыгы -11.4336549591
тыйын -10.7405077785
кийлигишүү -11.4336549591
өлөрүм -11.4336549591
көө -11.4336549591
бирск -10.7405077785
калп -9.48774481002
каяккадыр -11.4336549591
айий -11.4336549591
эси -9.48774481002
карып -9.03575968627
көлөкөңөр -11.4336549591
чөптөрү -11.4336549591
созулуп -10.7405077785
кежир -10.3350426704
суроолоруна -10.7405077785
көрөсүңөр -10.7405077785
өлүм -9.64189548984
көкөлөтөт -11.4336549591
дарексиз -11.4336549591
болбо -9.23643038174
антпей -10.3350426704
кутуруп -11.4336549591
байбичеси -8.94874830928
өзгөрүүлөр -11.4336549591
келтирүү -9.82421704664
абышканын -8.66106623683
уяттуу -10.7405077785
мелодия -11.4336549591
сыйынганынын -11.4336549591
уөздин -10.7405077785
билүү -8.86870560161
түн -8.72560475797
оошпогон -11.4336549591
комузчулуктун -10.3350426704
эгиндерди -11.4336549591
топтун -9.48774481002
билер -10.3350426704
алаксыта -11.4336549591
ата -8.2147791342
тайып -9.48774481002
жүргөй -11.4336549591
сельсоветтин -11.4336549591
кутуларын -11.4336549591
экөөбүзгө -10.047360598
келген -6.53581515912
илките -11.4336549591
мыктыбектин -11.4336549591
таңыркануу -11.4336549591
сөздиби -11.4336549591
кадырлашкан -11.4336549591
мүйүздөргө -11.4336549591
келгениң -11.4336549591
кокуй -9.82421704664
калыбына -10.3350426704
ырбатып -10.7405077785
көпүрөлөр -11.4336549591
базар -11.4336549591
сөзсүтз -11.4336549591
кейип -10.3350426704
тыйылган -11.4336549591
айдаган -10.3350426704
акшайы -11.4336549591
өткөрүү -10.7405077785
абысындары -10.7405077785
кайнады -11.4336549591
кер -9.35421341739
сиңдисине -10.7405077785
жиликтерин -11.4336549591
таятасы -9.13106986608
алымсынбайт -11.4336549591
кыйкырганда -10.7405077785
жаштыгына -11.4336549591
чыбыгын -10.7405077785
канттан -11.4336549591
арбытып -10.3350426704
майыша -11.4336549591
кашыма -11.4336549591
басылгандан -11.4336549591
куланышкан -11.4336549591
калышып -11.4336549591
турмушу -9.35421341739
оюндагысын -10.7405077785
болбойбу -10.7405077785
чымчыкей -10.7405077785
кетмен -11.4336549591
үпүп -10.7405077785
эмнең -10.3350426704
өлөң -11.4336549591
ийкешти -11.4336549591
күмбөздү -11.4336549591
сабырлакды -11.4336549591
кудайдын -9.64189548984
үйдө -7.60501356258
ийнин -10.7405077785
кааласам -11.4336549591
чочуйт -11.4336549591
бакылдабагыла -11.4336549591
сахнада -11.4336549591
жаймажай -10.3350426704
убададан -10.7405077785
кызытарын -11.4336549591
тиштенди -10.7405077785
күлкүнүн -11.4336549591
тартпай -10.7405077785
терикти -11.4336549591
күлүңдөгөн -11.4336549591
мудасын -11.4336549591
кайрышы -11.4336549591
чоңойгонун -10.7405077785
нандан -9.82421704664
мактоодон -10.7405077785
өлгөндө -10.7405077785
үнү -7.79606879935
сынагандыр -11.4336549591
чакыртат -10.7405077785
бат -11.4336549591
угуудан -10.7405077785
чынжырынан -11.4336549591
акылдашмакчыбыз -11.4336549591
түшүнөрсүң -11.4336549591
аткарды -10.047360598
жүргөнүм -11.4336549591
жоруктары -11.4336549591
табыштыңар -11.4336549591
бутага -11.4336549591
айкырык -10.7405077785
пейилдүүлүгүнөн -11.4336549591
көрөңгөсүнүн -11.4336549591
көшүп -11.4336549591
өтөйүн -11.4336549591
чоңойткомун -11.4336549591
өңгө -11.4336549591
оттуу -9.64189548984
кыйкырууга -11.4336549591
аянган -11.4336549591
майлуу -11.4336549591
бүлдүргүч -11.4336549591
бүтүрүп -10.3350426704
билбейм -8.66106623683
тиледи -10.047360598
шогун -11.4336549591
жатышып -10.3350426704
полициядан -10.7405077785
карабаган -11.4336549591
атаэнесине -11.4336549591
койгондон -10.047360598
колотко -10.3350426704
октон -11.4336549591
шумкарча -10.7405077785
филармонияны -11.4336549591
убарасы -11.4336549591
багыт -10.7405077785
жайлооң -11.4336549591
шылк -9.82421704664
жашасын -11.4336549591
кызматкер -11.4336549591
жайкаган -11.4336549591
тунуктугун -11.4336549591
күлдүрбөдүңүзбү -11.4336549591
ощонун -11.4336549591
жешип -10.3350426704
тайды -11.4336549591
калышчу -10.047360598
көрүнгөндөн -11.4336549591
кургакчылыгыиаы -11.4336549591
чакыра -11.4336549591
элиң -11.4336549591
түшүрүп -10.047360598
айчүрөктү -11.4336549591
тымый -11.4336549591
стулдун -11.4336549591
петр -8.66106623683
гөр -9.48774481002
өлөрүнө -11.4336549591
жулкунган -11.4336549591
чыгаар -11.4336549591
курчанган -10.3350426704
таянган -11.4336549591
жайкалган -11.4336549591
өчү -11.4336549591
сагынсаң -11.4336549591
азапты -11.4336549591
жоругуң -11.4336549591
көзекти -10.047360598
ойлогондо -10.047360598
шырдамалы -11.4336549591
ырына -10.047360598
сыртта -10.3350426704
корсот -11.4336549591
айымканды -10.047360598
чыгараары -11.4336549591
тутуп -10.7405077785
анча -8.86870560161
сөзишти -10.047360598
баамдашат -10.7405077785
өлсө -10.7405077785
кошко -11.4336549591
аштын -10.7405077785
күркүрөө -10.7405077785
ышкылуу -11.4336549591
соң -8.66106623683
майдаланып -11.4336549591
уууу -11.4336549591
толгоно -11.4336549591
билермандарынын -11.4336549591
бүлөлөрү -10.7405077785
боорукерлик -10.7405077785
ойлонгонсуп -11.4336549591
көзүмдү -11.4336549591
агытышса -11.4336549591
николайдын -10.3350426704
күүтлөрүн -11.4336549591
үстүндө -8.34261250571
шишедеги -11.4336549591
ичиндеги -8.86870560161
амалкөйлүктүн -11.4336549591
ызырынып -10.7405077785
акылы -9.48774481002
кайдагы -11.4336549591
көрүшмөйүнчө -11.4336549591
бузулганын -11.4336549591
ырлары -10.047360598
найзасынын -11.4336549591
отурду -7.52163195364
этажерка -11.4336549591
милиңия -11.4336549591
кыянатчылар -11.4336549591
шыгына -11.4336549591
мырзасына -11.4336549591
ойготууга -11.4336549591
дедим -10.7405077785
тамашалуу -9.64189548984
катнашы -10.7405077785
төрдү -10.7405077785
жумду -11.4336549591
жардыланып -11.4336549591
шаанисинен -11.4336549591
көрмөкмүн -10.7405077785
дарты -10.7405077785
ылдамдата -11.4336549591
ажырабоо -11.4336549591
бышактап -11.4336549591
кепте -11.4336549591
орок -10.7405077785
ырысына -11.4336549591
көрүшөбүзбү -11.4336549591
жаңырып -9.64189548984
тиштенип -10.047360598
жеңермин -11.4336549591
намыспы -11.4336549591
төбөңдөн -11.4336549591
бекер -8.54328320118
каңгып -11.4336549591
чабыттап -11.4336549591
окуясын -11.4336549591
керегелер -11.4336549591
кооптоно -10.3350426704
тешигинен -11.4336549591
жиберишеби -11.4336549591
маселелерди -11.4336549591
тпзгинин -11.4336549591
ичтиң -11.4336549591
кычыратып -11.4336549591
сааны -11.4336549591
бутуңда -10.7405077785
датка -10.3350426704
калгандарын -11.4336549591
калбайын -10.047360598
убарачылык -11.4336549591
өзүңөрдү -11.4336549591
курчун -10.7405077785
калгансыган -11.4336549591
кылышса -11.4336549591
үйрөнүшсө -11.4336549591
агайынтууган -10.7405077785
кейиймин -11.4336549591
кудайбергендин -8.94874830928
атаңа -11.4336549591
кылайын -10.3350426704
кыткылыктады -11.4336549591
бакыргылары -11.4336549591
жоктотпой -11.4336549591
убакыт -8.1014504489
кылганда -11.4336549591
кыржыда -11.4336549591
дилгир -10.3350426704
дыйканбайдын -11.4336549591
убараланышкан -11.4336549591
төрүнүн -10.7405077785
алаканын -9.82421704664
солкулдабай -11.4336549591
аракеттенген -10.7405077785
сууну -10.047360598
келишиңди -11.4336549591
данга -11.4336549591
үйрөтсөңчү -11.4336549591
ошолорго -11.4336549591
катуулай -11.4336549591
айлам -10.7405077785
жүргүзүүчү -11.4336549591
окщогондор -11.4336549591
тартпа -11.4336549591
миң -8.79459762946
бараандуу -11.4336549591
карасуунун -10.7405077785
кумарлуу -11.4336549591
доомат -11.4336549591
бышты -10.3350426704
шашыпбушуп -11.4336549591
көзигишсе -11.4336549591
ыкташууга -11.4336549591
жумушчу -10.047360598
тереңге -11.4336549591
сапарга -11.4336549591
аксыга -10.7405077785
келгенпне -11.4336549591
кийимдерге -11.4336549591
оңунан -11.4336549591
коштуруу -11.4336549591
билинбесе -11.4336549591
атайсыңбы -10.7405077785
жытын -10.3350426704
манабы -11.4336549591
куржундун -11.4336549591
үйлөнгөн -10.047360598
башыңды -11.4336549591
очогунда -11.4336549591
тааныйсыңбы -11.4336549591
бирдемелерди -10.7405077785
кайталаганча -11.4336549591
суйлөңүз -11.4336549591
кутмандуу -11.4336549591
күтү -10.7405077785
кылк -11.4336549591
таймак -11.4336549591
буйруктарьь -11.4336549591
сыймыгыбызга -11.4336549591
жашап -9.13106986608
ыкыс -11.4336549591
сөзгенде -11.4336549591
бетин -8.86870560161
турушунун -10.7405077785
ишеничи -10.7405077785
уруктууганы -11.4336549591
сылыч -11.4336549591
тизмегин -11.4336549591
алганынан -11.4336549591
бетегеси -10.7405077785
таасирлүү -11.4336549591
өкүнүчтүү -10.3350426704
энчисин -10.3350426704
бутактын -11.4336549591
туралыбы -11.4336549591
көрсөткөн -11.4336549591
чечекейи -11.4336549591
колубузга -11.4336549591
ниетим -11.4336549591
токойдун -10.7405077785
батасын -9.82421704664
сурабайм -11.4336549591
түшүнүгү -11.4336549591
жайлоосун -11.4336549591
жаның -10.3350426704
байкатуу -11.4336549591
түрмөгө -9.35421341739
чоочугандай -11.4336549591
асылым -11.4336549591
эмесмин -9.13106986608
созолонтту -11.4336549591
кеткенсийт -11.4336549591
ырайына -11.4336549591
алдыра -10.7405077785
борбору -10.3350426704
акын -8.2147791342
баштайбыз -11.4336549591
мактачы -11.4336549591
бүрчүктөрүн -11.4336549591
учураштым -11.4336549591
бөймаза -11.4336549591
балээни -11.4336549591
доско -11.4336549591
сабырсыздана -11.4336549591
шардын -11.4336549591
анжиян -10.7405077785
дүр -11.4336549591
баамдуу -9.48774481002
жактагылар -10.7405077785
уктум -10.7405077785
алсыздыгын -10.3350426704
бурду -9.13106986608
жаттаган -11.4336549591
ийүүгө -11.4336549591
тыйып -10.7405077785
барышат -10.7405077785
кылдары -10.3350426704
кожеке -11.4336549591
ийни -9.82421704664
элепжелеп -9.82421704664
мелтирете -10.7405077785
түшүнөбү -11.4336549591
күүсүнөн -10.7405077785
чыныиы -11.4336549591
таякесин -11.4336549591
арачылар -11.4336549591
шерттешкендердин -11.4336549591
издеп -8.72560475797
көзүтнүн -11.4336549591
тоолуктар -11.4336549591
бектенбылтыртан -11.4336549591
денесин -11.4336549591
ага9 -11.4336549591
таристе -11.4336549591
кубанганынан -11.4336549591
ырбатууда -11.4336549591
иштесеңдер -11.4336549591
окутуу -11.4336549591
чапжаак -11.4336549591
жогорулаган -11.4336549591
сүт -10.7405077785
кетментөбөлүк -10.3350426704
кароолдогонсуп -11.4336549591
планы -10.3350426704
ээсинин -9.48774481002
түйүлө -11.4336549591
ойлогонундай -11.4336549591
келишти -8.66106623683
чайпалткан -11.4336549591
тартипке -11.4336549591
аркыллуу -11.4336549591
сый -9.35421341739
уялган -10.7405077785
устатынын -9.23643038174
өзүбүзгө -11.4336549591
барактарын -11.4336549591
ток -9.82421704664
шашып -9.64189548984
келинди -9.82421704664
меймандардан -11.4336549591
ичирген -11.4336549591
жакындыгын -10.7405077785
барышты -9.82421704664
огу -11.4336549591
жеткенимде -11.4336549591
аманэсенсиңби -11.4336549591
түздө -11.4336549591
издейбиз -11.4336549591
жарыктын -11.4336549591
экем -11.4336549591
айланды -9.35421341739
кайрылса -10.7405077785
айтыкенин -11.4336549591
терисин -10.047360598
стол -10.047360598
омүрго -11.4336549591
жогбрулай -11.4336549591
тиреп -11.4336549591
акындыкты -11.4336549591
жээкке -10.7405077785
техника -11.4336549591
түңүлдү -11.4336549591
бороон -10.3350426704
чыбыктын -10.7405077785
турушпаса -11.4336549591
кайгысына -11.4336549591
сыртка -10.3350426704
кедейдыйкандар -11.4336549591
кыштан -10.3350426704
колоң -10.7405077785
өзгөчөлүгү -9.64189548984
меймандан -11.4336549591
өткөрүшүп -11.4336549591
колдон -9.23643038174
оңолду -11.4336549591
улантышты -11.4336549591
жылгага -11.4336549591
кушка -10.7405077785
чыкты -6.94501858934
бийлеген -11.4336549591
үнүнө -10.3350426704
баталашуу -11.4336549591
чалганда -11.4336549591
канаттары -11.4336549591
кийрип -11.4336549591
аялында -11.4336549591
минүүгө -10.7405077785
өр -10.7405077785
сындырат -10.7405077785
жакшылап -10.3350426704
качкандыгы -10.7405077785
буйдалышынын -11.4336549591
баладай -10.3350426704
кармаганы -11.4336549591
бурулушу -11.4336549591
учурашуу -11.4336549591
ачуусу -8.94874830928
айта -8.13781809307
кулач -10.7405077785
кагаздан -10.7405077785
жарчы -11.4336549591
каңырыгы -11.4336549591
отуруудан -10.047360598
убараланса -11.4336549591
жоголгонго -11.4336549591
аксакалдуу -11.4336549591
күдүп -11.4336549591
капнап -11.4336549591
айылдагы -8.34261250571
режиссерлор -11.4336549591
угар -11.4336549591
барабар -11.4336549591
олуяатанын -10.3350426704
улашып -11.4336549591
кылсын -10.3350426704
белекке -11.4336549591
жарай -11.4336549591
иренжип -11.4336549591
таңшытса -11.4336549591
бүгүнкү -8.79459762946
сурнайчыга -11.4336549591
куруп -10.047360598
калышпасын -11.4336549591
үтүрөйүп -11.4336549591
ысыккөлдүн -11.4336549591
түгөтө -11.4336549591
түзүүнүн -11.4336549591
кайруусун -11.4336549591
урулган -11.4336549591
зар -9.13106986608
калган -6.43644268531
текши -10.7405077785
сыртынан -8.34261250571
ат -7.27477187571
кесе -9.35421341739
жүрдүң -11.4336549591
кишилерди -9.48774481002
кызык -8.66106623683
орундап -11.4336549591
чайпалгансыды -11.4336549591
андасанда -9.82421704664
боломжолоочунун -11.4336549591
тамашасы -9.82421704664
уыутпаймын -11.4336549591
седептин -8.03245757741
акындардын -9.82421704664
жандап -11.4336549591
кудайга -8.48921597991
жөнүмдү -11.4336549591
сүйлөбөй -10.7405077785
ашкебелигин -11.4336549591
коюшчу -11.4336549591
жалаң -8.38913252135
кашкайган -11.4336549591
кеткен -7.72008289237
кыйнашат -11.4336549591
тааптырсың -10.7405077785
такаганда -10.7405077785
булактай -11.4336549591
саан -9.64189548984
көрсөтүштү -11.4336549591
үзөнгүгө -10.7405077785
өлтүрдүмбү -11.4336549591
калам -9.48774481002
жоголду -10.3350426704
зоолору -11.4336549591
сыналат -11.4336549591
милицияны -11.4336549591
жагын -8.43792268552
күпүлдөшкөндөр -11.4336549591
салйагы -11.4336549591
тили -8.72560475797
уулуңуз -11.4336549591
меыен -11.4336549591
билгендер -9.82421704664
жанагы -9.48774481002
шакиртине -10.047360598
тилегени -10.7405077785
качабыз -11.4336549591
чогулбастан -11.4336549591
айсалкынга -10.3350426704
мүйүзүң -11.4336549591
анжияндан -11.4336549591
музыковеди -11.4336549591
көңүлдүгүн -11.4336549591
шашат -11.4336549591
николайдан -11.4336549591
кызарыптатарыа -11.4336549591
молдого -9.64189548984
тоого -10.3350426704
жыңайлак -11.4336549591
уруна -11.4336549591
сал -10.3350426704
кызматын -10.3350426704
мыктыбек -8.79459762946
жүрегү -11.4336549591
койсоңор -11.4336549591
кайдыгер -11.4336549591
качса -10.047360598
айылдагылар -9.35421341739
боштондугу -11.4336549591
этет -9.23643038174
айтуусу -10.3350426704
бейит -10.7405077785
комузчулугун -10.047360598
чаптырса -10.7405077785
башыаа -11.4336549591
челек -10.7405077785
келбети -11.4336549591
эшигин -9.82421704664
катышуу -11.4336549591
аткарышыбыз -11.4336549591
күмөнгөр -11.4336549591
беришти -8.60044161502
бакытсыздыктын -11.4336549591
орносо -11.4336549591
кербен -11.4336549591
чыкыраган -11.4336549591
чогу -11.4336549591
курбум -10.047360598
отурушкандан -10.7405077785
көктөп -11.4336549591
кийминдеги -11.4336549591
бирержарымы -11.4336549591
сокошайман -11.4336549591
сүрөт -10.7405077785
эгинге -10.7405077785
кайрыкты -9.82421704664
жылтыратып -11.4336549591
урбаспы -11.4336549591
чувулунан -11.4336549591
денеге -11.4336549591
коргошундай -11.4336549591
жайынча -11.4336549591
күңгүрөнгөн -10.3350426704
укканы -10.3350426704
кайрыганы -11.4336549591
кошулду -9.03575968627
тургансыды -10.7405077785
жылбаган -11.4336549591
бакытсыз -11.4336549591
таноолору -10.3350426704
айлуу -11.4336549591
сабына -10.7405077785
чарбам -11.4336549591
таңга -10.7405077785
кыйналбаса -11.4336549591
акылуу -11.4336549591
ээгпн -11.4336549591
таанычу -11.4336549591
орнотулган -11.4336549591
бүткөнсүп -10.7405077785
жүргөндөи -11.4336549591
тою -11.4336549591
түзүп -11.4336549591
сала -10.047360598
заманымдын -11.4336549591
кожокеге -11.4336549591
чер -11.4336549591
оюмча -11.4336549591
солдаттардан -11.4336549591
үнүнүн -11.4336549591
дарамети -11.4336549591
баратат -8.48921597991
черткендей -11.4336549591
атабаладай -10.7405077785
окуучуң -11.4336549591
сыйлайбыз -11.4336549591
силердей -11.4336549591
анте -11.4336549591
шамалына -10.7405077785
арманын -10.047360598
ээлендирип -11.4336549591
жыгылбайбы -11.4336549591
толук -8.66106623683
коер -10.7405077785
бойдок -10.3350426704
шылдыңды -10.7405077785
чокчо -10.7405077785
түнөгөндүктүн -11.4336549591
көнбөйт -11.4336549591
баламды -10.047360598
селт -9.48774481002
жеңдирип -10.7405077785
көксөгөнүн -11.4336549591
байлоодогу -10.7405077785
чыкканына -10.7405077785
артисттерди -10.7405077785
чыкса -9.35421341739
жулкунганын -11.4336549591
актык -11.4336549591
көргөндөй -10.7405077785
көзектүү -11.4336549591
учуп -8.66106623683
кыйшалаңдап -11.4336549591
оокаттарынын -11.4336549591
жуучулукка -10.7405077785
мелмилдеген -11.4336549591
ортосу -10.7405077785
кайтканыңда -11.4336549591
айылдык -9.64189548984
дүңгүрөп -10.047360598
концерттерге -11.4336549591
акысы -10.3350426704
таанышкан -11.4336549591
билектерин -11.4336549591
келип -6.30375624415
чыгарганы -11.4336549591
адамдын -9.23643038174
ойлогонун -10.047360598
төшөнүшүп -11.4336549591
ынтаа -10.047360598
ээрчий -9.35421341739
өзгөрүлбөй -11.4336549591
ышкыбоздугу -11.4336549591
табышмактуу -9.64189548984
туурасынан -11.4336549591
жемелей -11.4336549591
айбан -11.4336549591
мингенге -11.4336549591
элечегине -11.4336549591
чатырашып -11.4336549591
кайнатасы -11.4336549591
ичиң -11.4336549591
өзгөчөлүктөрдү -11.4336549591
кошконум -11.4336549591
эркимче -11.4336549591
опосуздугу -11.4336549591
көксулууга -11.4336549591
умачтай -10.7405077785
жолборс -9.82421704664
сагынганымды -11.4336549591
облус -11.4336549591
чаркы -10.3350426704
кекиликтерди -11.4336549591
аксарбашыл -10.3350426704
куштун -11.4336549591
аккыздын -9.64189548984
байкагысы -11.4336549591
тиктеген -9.82421704664
жаагы -9.64189548984
ныгыруунун -11.4336549591
карайлатты -11.4336549591
акырындатты -11.4336549591
сурагандарга -10.7405077785
ашканада -10.7405077785
жүгүрттү -9.82421704664
районду -11.4336549591
калбырга -11.4336549591
таңдай -11.4336549591
жүргөндөрүнөн -11.4336549591
калбагансыйт -11.4336549591
жашоонун -10.3350426704
отурууга -9.82421704664
сабатып -11.4336549591
өйүздүн -11.4336549591
чыкпаган -10.047360598
күрөң -10.3350426704
салоом -11.4336549591
токтогулдукуна -11.4336549591
заңкылдап -11.4336549591
тааныдым -10.3350426704
айланганына -11.4336549591
тамакаш -11.4336549591
асем -11.4336549591
чогулушат -10.7405077785
эшиктен -8.94874830928
жүзүнөн -11.4336549591
бектен -7.99966775459
уурулар -9.64189548984
карышкыр -9.48774481002
тийип -8.60044161502
аякка -11.4336549591
тишин -9.82421704664
чаңга -11.4336549591
майсайын -11.4336549591
өзүбек -11.4336549591
казыктын -11.4336549591
келия -11.4336549591
шалдыратып -10.7405077785
оргуштап -11.4336549591
кыйчылдаганы -11.4336549591
ныктап -11.4336549591
көзүн -7.42632177384
тургапдарга -11.4336549591
бышы -11.4336549591
бошоп -9.23643038174
өпкөсү -10.7405077785
саргая -11.4336549591
аргасы -11.4336549591
айыбым -10.3350426704
толукшуган -11.4336549591
уланткан -10.7405077785
жыт -11.4336549591
тобокел -10.047360598
орногондой -11.4336549591
үйлөрүнө -9.82421704664
айланага -11.4336549591
кыякчыны -10.7405077785
жылаңбаштанды -11.4336549591
турмушундагы -10.3350426704
арзыбай -9.82421704664
жамбашын -11.4336549591
арбакка -11.4336549591
кутулат -10.3350426704
күбүнүп -11.4336549591
оюндагыны -10.7405077785
дердейип -11.4336549591
куйручук -11.4336549591
бирибиз -11.4336549591
кагып -9.03575968627
кысылганын -10.7405077785
аткарбаган -11.4336549591
байкушум -11.4336549591
таңкалтты -11.4336549591
мынасы -11.4336549591
беркилер -9.82421704664
катыңкы -11.4336549591
калжаңдап -11.4336549591
күлчоро -11.4336549591
учурабай -11.4336549591
эңкейип -10.3350426704
каалабай -11.4336549591
бирөөлөрдү -10.7405077785
салмайынча -11.4336549591
адепсиздикке -11.4336549591
бийлеп -11.4336549591
кумарбы -11.4336549591
күтсүн -11.4336549591
күркүрөөдөнбү -11.4336549591
эриң -11.4336549591
тажрыйбасы -11.4336549591
төшөй -11.4336549591
тамашаңды -11.4336549591
ооганбайдын -11.4336549591
угуучулар -11.4336549591
бышактаганын -11.4336549591
мүрзөгө -11.4336549591
чачкын -10.3350426704
жолотушчу -11.4336549591
сөлдөйгөн -11.4336549591
жаркылдатып -11.4336549591
жардылардын -11.4336549591
изденип -11.4336549591
жамгырдай -11.4336549591
ченин -11.4336549591
адамдар -9.35421341739
жарып -9.13106986608
бакай -11.4336549591
кебинин -11.4336549591
батынабы -11.4336549591
катылып -11.4336549591
жусуптун -11.4336549591
кылыптыр -11.4336549591
табып -9.35421341739
көздүн -10.3350426704
замандар -10.7405077785
астын -11.4336549591
кпйин -10.7405077785
бөлүнүшүп -10.047360598
турасыңар -11.4336549591
аласың -10.7405077785
кайыгып -10.7405077785
байманаптардын -11.4336549591
ь -10.7405077785
ишенбейт -11.4336549591
падышалы -11.4336549591
кубаныч -9.48774481002
жеткилең -10.7405077785
кызыткылары -11.4336549591
өчпөйт -11.4336549591
эстүүсү -11.4336549591
залкар -10.3350426704
үзүшөйүн -11.4336549591
кунаажын -11.4336549591
карабаштарды -11.4336549591
күбүрөтүшкөн -11.4336549591
талаасына -10.7405077785
тартынчы -11.4336549591
тилектеш -10.7405077785
чалга -10.7405077785
ушакайыңдан -11.4336549591
элейип -11.4336549591
даңкакташат -11.4336549591
кедей -8.43792268552
күңгөйтескей -11.4336549591
эстесем -11.4336549591
комсомолго -11.4336549591
чынжырлуу -10.7405077785
кагаздарды -11.4336549591
жакасын -8.94874830928
дегенде -8.29816074314
төңкөрүп -11.4336549591
албайбы -10.7405077785
кармамак -11.4336549591
өрөөндүн -8.72560475797
ланган -11.4336549591
жоготпойм -11.4336549591
туураланып -11.4336549591
болучу -8.43792268552
боромбайды -10.7405077785
бүлөнүн -11.4336549591
сиздики -11.4336549591
өлбөгөн -11.4336549591
башкаруучулары -11.4336549591
намасын -10.047360598
кошулат -11.4336549591
даанышмандар -11.4336549591
далдалаган -11.4336549591
баласымын -11.4336549591
сүрөтүн -11.4336549591
манаптарды -9.48774481002
качары -11.4336549591
кийиздери -11.4336549591
карыялардын -9.82421704664
кенен -8.72560475797
келгемин -10.7405077785
тушундагы -11.4336549591
акча -9.64189548984
күндөрдөн -10.7405077785
өкүмөт -11.4336549591
өкмөттүн -10.3350426704
кечиришип -11.4336549591
оңойбу -10.7405077785
очоктун -11.4336549591
борчуктап -11.4336549591
сергий -10.7405077785
малчы -11.4336549591
татаалдана -11.4336549591
ойпикирин -11.4336549591
аманэсен -8.60044161502
шыбырайт -11.4336549591
алабызбы -11.4336549591
кериле -11.4336549591
түшүнгөндөн -11.4336549591
атактуу -9.03575968627
калыңдан -11.4336549591
төмөп -11.4336549591
тоспойт -11.4336549591
дүйнөдө -9.48774481002
тапкан -9.48774481002
токтоткои -11.4336549591
адалдан -10.7405077785
аламат -11.4336549591
өнөрдү -11.4336549591
тынышты -11.4336549591
дар -11.4336549591
угушуна -11.4336549591
жылкычы -10.7405077785
тамда -11.4336549591
манастан -11.4336549591
шайман -11.4336549591
жапты -10.7405077785
күңгүрөндү -10.7405077785
кайтканы -11.4336549591
салчудай -11.4336549591
кеңкелес -11.4336549591
ишенерин -11.4336549591
айтпасаңар -11.4336549591
колундагыдай -11.4336549591
жеңе -9.23643038174
мууну -10.3350426704
күткөнсүп -10.3350426704
кеткенче -11.4336549591
күнөөлөп -11.4336549591
кысталууда -11.4336549591
жулуп -9.82421704664
камынгандар -11.4336549591
жандыктар -11.4336549591
болушта -11.4336549591
эшмамбетке -11.4336549591
чыкпаганың -11.4336549591
керегени -10.7405077785
ырчылардын -10.3350426704
антын -10.7405077785
күүсүнүн -10.3350426704
керимсел -11.4336549591
айлы -9.23643038174
имишпи -11.4336549591
айырмалары -11.4336549591
жоиун -11.4336549591
уулумду -10.7405077785
мөзгилиндеги -11.4336549591
далдаланды -10.7405077785
колундай -11.4336549591
кааласаң -10.7405077785
жампаларды -11.4336549591
берем -8.94874830928
жылаңбаш -9.48774481002
билгендеринин -11.4336549591
көзүңдөн -11.4336549591
өчпөй -11.4336549591
тизесинин -10.7405077785
амандыгын -11.4336549591
элечегиң -11.4336549591
чукулуп -11.4336549591
түшүнүшүп -11.4336549591
аралагандагы -11.4336549591
кеткенсип -11.4336549591
тун -11.4336549591
элинин -10.7405077785
бөлүнүүгө -11.4336549591
роль -11.4336549591
таруу -10.3350426704
өтүнүчүм -11.4336549591
айланадагы -10.7405077785
кедейдики -11.4336549591
каракүчкө -11.4336549591
желим -11.4336549591
айгыры -11.4336549591
чычкандыктар -11.4336549591
кайрымдары -11.4336549591
осуят -10.7405077785
карагай -10.3350426704
жандана -10.3350426704
өсүүп -11.4336549591
чыбыктарды -10.7405077785
укмуштуу -11.4336549591
турбайсыңарбы -10.047360598
досун -10.7405077785
көтөрүлө -9.82421704664
барпыны -11.4336549591
турсунбу -10.3350426704
кабардан -10.3350426704
келүүнүн -11.4336549591
айыктыргандыгы -11.4336549591
огонбаев -10.7405077785
куушкан -11.4336549591
жоопторго -11.4336549591
капшыра -11.4336549591
коштошор -11.4336549591
бирэкиден -11.4336549591
молу -11.4336549591
корголоду -11.4336549591
жарактуу -10.3350426704
коебузбу -11.4336549591
кезде -11.4336549591
окуялар -10.3350426704
болобуз -10.3350426704
копо -11.4336549591
жагынын -10.7405077785
аткыгандай -11.4336549591
устатынан -10.7405077785
чакырыпган -11.4336549591
бостектин -11.4336549591
кыяктын -10.7405077785
кетүүгө -9.48774481002
улаган -11.4336549591
кетишмекпи -11.4336549591
балтыр -11.4336549591
күбүрөтүп -11.4336549591
жанагыдай -11.4336549591
чыйыпчыйып -11.4336549591
чыбыктарын -11.4336549591
курусун -10.7405077785
социализмдп -11.4336549591
камынып -11.4336549591
баарыбыз -9.82421704664
түйүлүп -11.4336549591
сүйлөшөлүбү -10.7405077785
капкаякка -11.4336549591
жарайбыз -10.3350426704
бериши -10.3350426704
күмөн -9.64189548984
кийинкилердин -11.4336549591
ойлонбоду -11.4336549591
жамандыгыбызды -11.4336549591
билгендерден -10.7405077785
маселелер -11.4336549591
мемиреди -11.4336549591
көмүлбөй -11.4336549591
кызысың -11.4336549591
багам -10.7405077785
мундирин -11.4336549591
шап -11.4336549591
артисиңдин -11.4336549591
катышыптыр -11.4336549591
жашырылды -11.4336549591
кайрылбас -11.4336549591
курган -11.4336549591
байкалып -10.7405077785
опуртмалуулугу -11.4336549591
өзөгүбүздү -11.4336549591
ишенсе -11.4336549591
кечээ -9.23643038174
ыйлагысы -11.4336549591
сүлдөрү -11.4336549591
айтышууда -10.7405077785
карачач -11.4336549591
кайткай -11.4336549591
дөөлөттүү -11.4336549591
кур -10.3350426704
сунду -8.38913252135
чеиин -11.4336549591
арызарманын -11.4336549591
ушактарды -11.4336549591
аттап -10.3350426704
бироокумда -11.4336549591
болуштардын -10.3350426704
зарылдыктар -11.4336549591
муруттуу -11.4336549591
мүрзөлөр -11.4336549591
эле -4.84061042493
чексиз -10.3350426704
бергенинен -11.4336549591
өнөрүн -8.94874830928
иниңе -11.4336549591
дайындап -11.4336549591
айылды -9.13106986608
катындар -10.7405077785
кошулушпайт -11.4336549591
кайтышары -11.4336549591
атоо -11.4336549591
дайыныбызды -11.4336549591
агымды -11.4336549591
калары -11.4336549591
токунуп -10.7405077785
түпкүрүндө -11.4336549591
туштушунан -10.7405077785
инисине -10.3350426704
тийгиздиңизби -11.4336549591
баамдай -10.7405077785
жеринен -9.48774481002
баштарын -11.4336549591
бакжакай -10.7405077785
сиңип -10.3350426704
токойдон -10.3350426704
абийириңди -11.4336549591
бутактагы -11.4336549591
кедейдин -10.3350426704
татынакай -9.82421704664
буурадай -10.7405077785
берүүнү -10.3350426704
жеңилирээгине -11.4336549591
туугандай -10.7405077785
келгендер -9.64189548984
курагындагы -11.4336549591
энчилеп -11.4336549591
каптамак -11.4336549591
акырындатып -10.7405077785
чыйрак -10.7405077785
башында -8.25560112872
келет -7.79606879935
акталса -10.7405077785
тамашалар -11.4336549591
шыкалар -11.4336549591
кыскартылды -11.4336549591
чачышууга -11.4336549591
чүйлүк -11.4336549591
чарчы -11.4336549591
оңдойбуз -11.4336549591
кызыгасың -11.4336549591
топусу -10.7405077785
кылгандыр -11.4336549591
көбөйө -11.4336549591
ара -8.94874830928
ойлогону -10.7405077785
кайнатын -11.4336549591
коштошуу -10.047360598
серпим -11.4336549591
арасын -10.7405077785
жетим -9.64189548984
кыздары -11.4336549591
самоор -10.047360598
коңшуларына -10.7405077785
кырдаалдын -10.7405077785
вки -11.4336549591
селкисин -11.4336549591
жарданып -10.7405077785
ак -6.68872283071
шуудурап -11.4336549591
чычаласа -11.4336549591
кордуктан -10.7405077785
кубанышчу -11.4336549591
жадагандары -11.4336549591
керөзмурасын -11.4336549591
жаңылган -10.7405077785
тартчу -10.7405077785
төөнүн -11.4336549591
сараңдыгы -11.4336549591
кыймылдоодон -11.4336549591
белек -10.047360598
саламатсызбы -11.4336549591
чакырткан -11.4336549591
башканыкына -10.7405077785
алейкимаассалом -11.4336549591
чамгаракты -11.4336549591
ойготконсуду -11.4336549591
өткөрүштү -11.4336549591
коюлганда -11.4336549591
кыртыштуу -11.4336549591
чечилип -10.7405077785
өлгөнүм -10.7405077785
сындуу -10.3350426704
ажыраганын -11.4336549591
эчкиге -10.7405077785
оңбойбуз -11.4336549591
жазылары -11.4336549591
өйдөылдый -10.7405077785
