\data\
ngram 1=21710
ngram 2=76925

1-grams:
-9.23643038174 биринсерин
-11.4336549591 арамзалыгы
-11.4336549591 козгойт
-11.4336549591 тгукумусуң
-10.7405077785 күйгөн
-11.4336549591 жетелейин
-11.4336549591 желек
-9.64189548984 жылаңаяк
-10.3350426704 эринен
-11.4336549591 бозокорлордун
-11.4336549591 ыңгайланганда
-9.23643038174 султаналыны
-11.4336549591 унчугушат
-11.4336549591 кылыпсың
-11.4336549591 мамыда
-11.4336549591 барбайбыз
-11.4336549591 жеңилирээгине
-11.4336549591 үйлөнүшүн
-11.4336549591 көрбөдүңбү
-11.4336549591 сабынан
-11.4336549591 энчимди
-11.4336549591 тактысынан
-11.4336549591 уюшулардын
-10.7405077785 үзөнгүгө
-9.23643038174 узакка
-9.82421704664 астына
-11.4336549591 куласа
-10.3350426704 оёздун
-11.4336549591 айдөшүнөн
-11.4336549591 түнгүнө
-11.4336549591 баамдап
-9.64189548984 седепке
-11.4336549591 ийнинеи
-11.4336549591 сегиз
-9.48774481002 кечки
-11.4336549591 айылдабы
-11.4336549591 айлымды
-11.4336549591 чыртыйган
-10.3350426704 жабылып
-11.4336549591 нымтыраганын
-8.66106623683 буга
-11.4336549591 талуу
-10.7405077785 кырдач
-11.4336549591 бөгөгөн
-11.4336549591 жукпай
-11.4336549591 жутунганда
-10.7405077785 түшүптүр
-11.4336549591 тилди
-11.4336549591 аптыга
-10.7405077785 абысындары
-11.4336549591 күмөнгөр
-10.7405077785 уулдун
-11.4336549591 ушактардан
-11.4336549591 атабекти
-11.4336549591 дөөттү
-10.3350426704 дүйнөсүнө
-11.4336549591 тынчтыкка
-10.047360598 аша
-10.3350426704 кызылдуу
-10.7405077785 зээндүү
-11.4336549591 кирой
-10.7405077785 улуусу
-11.4336549591 биздикине
-10.7405077785 төлөбай
-10.7405077785 айнанайын
-8.48921597991 акыл
-10.3350426704 таанышкандан
-11.4336549591 өрөөндөгү
-11.4336549591 сыйлоого
-11.4336549591 сооротуу
-11.4336549591 башкараак
-10.7405077785 тамашалашып
-9.82421704664 кебетесин
-11.4336549591 эрдижука
-11.4336549591 иоёздде
-10.047360598 шардана
-11.4336549591 эркимче
-10.3350426704 кетейин
-11.4336549591 кучакташты
-10.7405077785 кызыңарды
-10.7405077785 тегерегиндегилерди
-11.4336549591 жута
-11.4336549591 жигиттен
-11.4336549591 тилиңерди
-10.7405077785 каныгып
-11.4336549591 тартышкан
-11.4336549591 жолукту
-11.4336549591 кадам
-11.4336549591 кычыратып
-11.4336549591 сурабайсыңбы
-8.34261250571 күйөөсүнүн
-11.4336549591 түрсүлдөп
-11.4336549591 тиктегендер
-11.4336549591 чакырылгандар
-10.7405077785 өлсөк
-11.4336549591 айтыша
-6.97930766282 жооп
-11.4336549591 койлуу
-11.4336549591 өткөнгө
-10.7405077785 казанаяк
-11.4336549591 кармагандан
-10.7405077785 канаттуу
-10.3350426704 маскара
-11.4336549591 дуулар
-11.4336549591 убараланышып
-10.3350426704 чокусу
-11.4336549591 бересиңер
-10.7405077785 чагында
-11.4336549591 түкүлдөп
-11.4336549591 мечит
-11.4336549591 ыктымал
-11.4336549591 жакырланып
-8.79459762946 колунда
-11.4336549591 адамкерчиликти
-11.4336549591 бешиктө
-11.4336549591 кесибин
-11.4336549591 бөзенишет
-11.4336549591 папиросту
-10.7405077785 жаралган
-11.4336549591 кечпес
-11.4336549591 килограмм
-11.4336549591 ортолуктан
-11.4336549591 көчкөндөргө
-11.4336549591 кайтарабыз
-11.4336549591 таттуулуктун
-11.4336549591 анав
-10.7405077785 журтта
-11.4336549591 бармаксың
-10.047360598 чалынган
-10.3350426704 жогу
-11.4336549591 маданий
-8.94874830928 көзүнөн
-11.4336549591 шулыинге
-10.7405077785 максатка
-11.4336549591 билинип
-11.4336549591 таасирлүү
-11.4336549591 жеткирер
-10.7405077785 жыла
-10.7405077785 ээликкен
-11.4336549591 сыбызгышы
-11.4336549591 дагдыйткан
-11.4336549591 ойготконсуду
-10.3350426704 жөлөп
-10.7405077785 көрбөсөм
-11.4336549591 кагышкандыктан
-9.64189548984 никелейден
-10.7405077785 тартам
-11.4336549591 сыйлаша
-10.7405077785 кыласыңбы
-10.7405077785 кайгырып
-10.7405077785 кетүүдөн
-11.4336549591 үчүгк
-11.4336549591 отурасыз
-10.7405077785 чаалыгып
-11.4336549591 желден
-10.047360598 кызым
-11.4336549591 айтсак
-10.7405077785 жумшачу
-10.7405077785 бирдемелерди
-11.4336549591 уюгандыктан
-10.7405077785 дешчү
-11.4336549591 көзүтнүн
-11.4336549591 тээтиги
-11.4336549591 кызыксыз
-11.4336549591 кутулбоочудай
-10.7405077785 аттандырган
-11.4336549591 ээгпн
-9.82421704664 салганда
-9.48774481002 болгондуктан
-10.7405077785 багууга
-11.4336549591 жаздана
-10.7405077785 кирели
-11.4336549591 аттанганы
-11.4336549591 чалыштай
-6.80868214579 ар
-11.4336549591 балын
-10.7405077785 карагайга
-11.4336549591 корктубу
-10.7405077785 бийге
-11.4336549591 матайдан
-11.4336549591 түйүнүн
-11.4336549591 айран
-10.3350426704 бетинде
-8.25560112872 кабар
-10.7405077785 болгондугу
-10.3350426704 комитетинин
-11.4336549591 насыя
-7.96791905627 албайт
-8.66106623683 учуп
-9.64189548984 козу
-10.7405077785 билгенден
-11.4336549591 чогултканда
-8.13781809307 өтө
-11.4336549591 алипти
-11.4336549591 кооптуудай
-11.4336549591 чалкыган
-10.3350426704 эсептей
-11.4336549591 бирержарымы
-8.66106623683 бата
-11.4336549591 мактайсыңар
-11.4336549591 ташынан
-11.4336549591 кечиктирбей
-11.4336549591 таптак
-11.4336549591 сайыш
-11.4336549591 ыдырыган
-10.7405077785 жалдырашып
-9.35421341739 коңкогой
-10.3350426704 өкүнүчтүү
-11.4336549591 жегизип
-11.4336549591 арбаңдатсаң
-10.7405077785 озуп
-11.4336549591 меймандостугуна
-8.72560475797 черте
-10.7405077785 кашатты
-11.4336549591 түрмөнүн
-11.4336549591 кайнаганы
-11.4336549591 орундатпаган
-11.4336549591 мөңкүп
-8.48921597991 тиктеди
-11.4336549591 таңдырып
-11.4336549591 байбичепин
-9.82421704664 эместигин
-11.4336549591 арстандын
-11.4336549591 кайнатасына
-11.4336549591 жолуктум
-10.7405077785 алжайды
-11.4336549591 жалооругансыйт
-10.7405077785 алдыңар
-11.4336549591 кийимиңди
-11.4336549591 кудам
-9.82421704664 отко
-7.27477187571 комузун
-11.4336549591 чогулбастан
-10.3350426704 маңдайы
-11.4336549591 жүрүштү
-10.3350426704 ысып
-5.20514395548 жок
-11.4336549591 арийне
-11.4336549591 зериккенден
-10.7405077785 гаыа
-9.82421704664 журттун
-10.3350426704 болбосоң
-11.4336549591 чарбамын
-10.7405077785 жаткандай
-11.4336549591 оорусуна
-10.7405077785 ныктай
-11.4336549591 ыракаты
-11.4336549591 жоонураагы
-11.4336549591 тереги
-11.4336549591 ынтызар
-11.4336549591 колуктуну
-10.7405077785 музыкасынын
-10.7405077785 ачуум
-11.4336549591 карызы
-10.047360598 мойнунда
-11.4336549591 күлкүсүнө
-11.4336549591 кечирбеди
-10.7405077785 кимисин
-11.4336549591 жазылды
-11.4336549591 баркы
-11.4336549591 жебесе
-10.7405077785 чаптырса
-11.4336549591 максатына
-11.4336549591 тышынан
-11.4336549591 жанымдагы
-11.4336549591 иниңе
-10.047360598 сагынып
-10.7405077785 бакан
-6.26317096403 жакшы
-10.3350426704 драмалык
-8.66106623683 кийинки
-11.4336549591 жүрөгүт
-10.3350426704 абийирин
-11.4336549591 күзгүнүн
-10.047360598 эти
-8.94874830928 үйүнүн
-7.0516283244 мындай
-10.3350426704 түшүнүшпөй
-11.4336549591 жылбайын
-8.60044161502 күмүш
-11.4336549591 бастынын
-9.48774481002 калп
-11.4336549591 пайгамбар
-8.34261250571 оюн
-11.4336549591 маңдайын
-10.7405077785 арсалактап
-11.4336549591 тартипке
-10.7405077785 купулуна
-10.7405077785 баралына
-11.4336549591 кысталууда
-10.7405077785 жеңилип
-11.4336549591 кечиндө
-10.7405077785 сазда
-11.4336549591 багамын
-11.4336549591 устабы
-8.2147791342 аттан
-11.4336549591 күтүдөй
-11.4336549591 көшөрүп
-9.13106986608 экени
-10.7405077785 билесиз
-11.4336549591 аткарылышында
-11.4336549591 тыят
-10.047360598 кийиздин
-11.4336549591 кыялдуу
-10.7405077785 куюлгандан
-11.4336549591 үзүшө
-11.4336549591 лыпылдап
-9.82421704664 чамасы
-11.4336549591 күлдүрбөдүңүзбү
-11.4336549591 алачык
-11.4336549591 көздөрдөн
-10.047360598 бейкут
-8.79459762946 адам
-9.23643038174 өзүңөр
-10.7405077785 уктай
-10.7405077785 боорун
-11.4336549591 медер
-10.047360598 абалы
-10.7405077785 гүлдөй
-11.4336549591 картайдыкпы
-10.047360598 бурчунда
-10.7405077785 жыйындын
-11.4336549591 ылдыйланган
-11.4336549591 курс
-10.3350426704 өлбөсө
-11.4336549591 текиреңп
-11.4336549591 өксүй
-10.7405077785 ийик
-11.4336549591 активдер
-11.4336549591 сүйлөшкөнүмдө
-11.4336549591 кайрыласыз
-10.7405077785 сулуунун
-11.4336549591 уклай
-11.4336549591 таламайга
-11.4336549591 чуулдак
-10.3350426704 үйлөнөт
-11.4336549591 кебин
-11.4336549591 билишпес
-10.7405077785 карындашым
-9.82421704664 тараптагы
-10.3350426704 этегин
-11.4336549591 чоц
-11.4336549591 окууңду
-11.4336549591 тоосун
-11.4336549591 ырымжырымына
-10.7405077785 байлануу
-11.4336549591 чуңкурда
-10.7405077785 кушчудан
-11.4336549591 жалгашпады
-11.4336549591 якшы
-10.7405077785 киргизишти
-11.4336549591 сабатып
-9.23643038174 күндө
-11.4336549591 чыкчыйып
-11.4336549591 каракүчкө
-11.4336549591 кыялжоругун
-11.4336549591 бактысына
-9.13106986608 талаада
-10.7405077785 этегиндеги
-11.4336549591 бештен
-11.4336549591 меймандостугу
-11.4336549591 карыганыцыз
-9.03575968627 кагып
-11.4336549591 чүтй
-11.4336549591 акчийден
-11.4336549591 кылгыла
-11.4336549591 окуясынан
-8.79459762946 чыкпай
-10.7405077785 күткөнүндөй
-11.4336549591 кептелер
-10.7405077785 суроосун
-11.4336549591 төркүнүм
-7.69598534079 ээ
-11.4336549591 зымпыйып
-11.4336549591 зыркыратты
-11.4336549591 айныба
-9.48774481002 калгансып
-11.4336549591 мураталысы
-9.03575968627 кереметтүү
-10.7405077785 качырган
-11.4336549591 сөөлжандар
-9.82421704664 төмөнтөн
-11.4336549591 жекжааттары
-11.4336549591 чың
-10.7405077785 каалоосуна
-11.4336549591 тыныбеги
-11.4336549591 баратсаң
-9.48774481002 кишиден
-11.4336549591 кудаадан
-11.4336549591 чаба
-11.4336549591 издегеңдери
-11.4336549591 киргенден
-11.4336549591 кыйылгансып
-11.4336549591 күтүүдө
-11.4336549591 кылышары
-10.3350426704 басылып
-11.4336549591 ошондуктанбы
-10.047360598 жылдары
-9.64189548984 өлгөн
-11.4336549591 бүтпөй
-11.4336549591 сүзгөнүн
-11.4336549591 которулат
-11.4336549591 кылгандырсыңар
-10.7405077785 кесепетинен
-11.4336549591 мунажаттуу
-10.3350426704 басылганда
-10.3350426704 жашынып
-11.4336549591 орундалып
-11.4336549591 алдырдым
-11.4336549591 отургучка
-11.4336549591 кыжыкужу
-10.3350426704 кыргызда
-10.3350426704 жөнөгөн
-10.7405077785 калпакчан
-11.4336549591 туткундардын
-11.4336549591 түшүнүшүү
-11.4336549591 тазалайт
-11.4336549591 түндүгүн
-11.4336549591 жолугушса
-11.4336549591 билермандык
-6.95631814459 жер
-10.7405077785 сүзө
-10.7405077785 намаз
-10.3350426704 ырдады
-11.4336549591 осол
-11.4336549591 басыгы
-8.94874830928 о
-11.4336549591 барбыдеп
-11.4336549591 секретарлыкка
-11.4336549591 акемдердин
-11.4336549591 кишисинтип
-11.4336549591 элесиң
-11.4336549591 кийиништи
-11.4336549591 жумуштардан
-11.4336549591 ушакка
-11.4336549591 сатарлар
-11.4336549591 каңкылдабай
-10.3350426704 хам
-11.4336549591 кийимим
-10.7405077785 келерин
-9.64189548984 ырдай
-10.7405077785 жөндөм
-10.7405077785 кошушуп
-11.4336549591 таңырайтып
-11.4336549591 күлдүрүшкөн
-11.4336549591 күкүктүн
-11.4336549591 улутунат
-8.1014504489 көзүнө
-11.4336549591 курчатышып
-10.047360598 кармай
-11.4336549591 көлөш
-11.4336549591 абжалбек
-11.4336549591 абага
-11.4336549591 комуздарды
-11.4336549591 аныктоо
-10.7405077785 саптуу
-11.4336549591 активдерге
-11.4336549591 кыйкыргысы
-11.4336549591 албаңыз
-10.3350426704 жүргөнү
-11.4336549591 капталды
-11.4336549591 желдетишип
-10.3350426704 кетишкен
-10.7405077785 көрөсүңөр
-11.4336549591 жарчы
-11.4336549591 тегерегине
-11.4336549591 курттар
-11.4336549591 наманганды
-11.4336549591 окусунанбы
-10.7405077785 өңөртүп
-11.4336549591 мүшкүл
-11.4336549591 эстебейт
-11.4336549591 жатасыңанын
-9.64189548984 өлүм
-10.7405077785 селкилдетип
-11.4336549591 бөлөк
-11.4336549591 эскерген
-10.7405077785 төрагасынын
-11.4336549591 чиркинай
-10.7405077785 уулуңузду
-10.7405077785 комузчулардан
-10.3350426704 түктүйүп
-11.4336549591 оорлотту
-11.4336549591 күйгүзбөйт
-11.4336549591 башкада
-7.44467091251 элек
-8.94874830928 бурулкан
-11.4336549591 жекире
-11.4336549591 сапсап
-11.4336549591 чуулдашкан
-11.4336549591 роль
-10.7405077785 китеби
-11.4336549591 сайылып
-11.4336549591 токтотуу
-11.4336549591 куурайды
-11.4336549591 куткарбас
-11.4336549591 жериңен
-11.4336549591 далилдейсиз
-10.047360598 шыр
-11.4336549591 тирүүлүк
-11.4336549591 өксүтпөй
-9.03575968627 төз
-11.4336549591 өтөйүн
-10.7405077785 үйлөрүнүн
-11.4336549591 аянтка
-10.7405077785 иниңиз
-11.4336549591 кеткенбиз
-8.43792268552 оокат
-6.96774684042 кыз
-11.4336549591 коктуну
-10.7405077785 бешташты
-11.4336549591 курагындагы
-10.047360598 мукамы
-11.4336549591 тырчыган
-10.7405077785 башкарат
-9.13106986608 беришет
-11.4336549591 кантебиз
-11.4336549591 макиси
-11.4336549591 салыпт
-8.38913252135 төмөн
-10.7405077785 аркасы
-10.7405077785 абеилденин
-11.4336549591 тордон
-11.4336549591 түшүнүшүп
-11.4336549591 ышкыбоздордон
-10.047360598 күрөшүп
-11.4336549591 кубатыта
-10.7405077785 ашса
-10.3350426704 көрөлү
-10.7405077785 жашында
-11.4336549591 денесин
-10.3350426704 боюндагы
-11.4336549591 ичигии
-10.3350426704 карбаластап
-11.4336549591 чачкысы
-11.4336549591 бозоюн
-10.7405077785 сугаруу
-11.4336549591 аяктагансыды
-9.64189548984 кыя
-11.4336549591 кыркырда
-11.4336549591 чертпейсиңби
-10.047360598 анчейин
-11.4336549591 унуткарган
-10.7405077785 инисинин
-11.4336549591 түшүнүшпөйт
-11.4336549591 жүргүзө
-11.4336549591 чыйрыга
-10.7405077785 саюу
-9.13106986608 көпчүлүгү
-8.29816074314 араң
-11.4336549591 чыккансып
-11.4336549591 түшпөсүн
-11.4336549591 оорулардын
-11.4336549591 чулдурак
-11.4336549591 турушканына
-11.4336549591 сыкктуу
-11.4336549591 чынысын
-10.3350426704 сыяктанат
-11.4336549591 бериңизчи
-11.4336549591 аштагы
-11.4336549591 тазаланды
-10.7405077785 чымыраган
-11.4336549591 чымын
-10.7405077785 жалбырактар
-11.4336549591 өрчүтөр
-10.7405077785 капырай
-10.7405077785 бирди
-11.4336549591 беришиптир
-10.7405077785 кутурткан
-10.7405077785 дыйкандары
-11.4336549591 каккак
-11.4336549591 кудалыгы
-11.4336549591 букараларына
-11.4336549591 бытыкый
-11.4336549591 мудалап
-11.4336549591 уучтап
-11.4336549591 учурдагыдай
-11.4336549591 агынан
-11.4336549591 кайнатасы
-10.3350426704 бошобойт
-9.82421704664 артта
-8.79459762946 денеси
-11.4336549591 чуурутту
-11.4336549591 түйшүктү
-9.82421704664 аштык
-11.4336549591 чогулгула
-10.3350426704 жумушун
-10.7405077785 чайханага
-11.4336549591 жемишти
-11.4336549591 митаамдыкка
-10.3350426704 анып
-10.3350426704 жүздүү
-6.95631814459 койду
-11.4336549591 букараларга
-10.3350426704 жума
-10.7405077785 дегенден
-10.047360598 экемин
-10.7405077785 алыстап
-11.4336549591 байлоо
-11.4336549591 билбегендиги
-11.4336549591 шорпосуна
-7.60501356258 жаныбек
-9.23643038174 жоголуп
-11.4336549591 илажы
-11.4336549591 гимнастеркачан
-11.4336549591 полицияга
-11.4336549591 жаздырышат
-10.047360598 нокоттой
-11.4336549591 түңүлгон
-9.64189548984 билбейсиңби
-11.4336549591 уюп
-11.4336549591 кайтаруунун
-10.7405077785 кетесиң
-11.4336549591 жыгачтын
-11.4336549591 чеберлик
-11.4336549591 дооңон
-11.4336549591 сүрбөсө
-11.4336549591 ийий
-11.4336549591 таштоо
-10.3350426704 эчки
-10.7405077785 келишкенде
-11.4336549591 шуудуратып
-10.047360598 желге
-10.3350426704 курчанган
-8.13781809307 ырас
-10.047360598 жөнөп
-10.7405077785 агымы
-11.4336549591 жалыныпжалбарууну
-11.4336549591 ортосунан
-11.4336549591 аттансаңыз
-11.4336549591 кирмек
-9.23643038174 берсин
-11.4336549591 казна
-9.64189548984 алакан
-8.72560475797 алышкан
-11.4336549591 күздүн
-10.047360598 соолугу
-10.7405077785 караңгылап
-11.4336549591 куруунун
-11.4336549591 акылдашсаң
-11.4336549591 орустарды
-11.4336549591 дилдедей
-11.4336549591 салбайт
-10.7405077785 шамалына
-10.047360598 экенмин
-9.48774481002 колдорун
-11.4336549591 чыкырса
-11.4336549591 кунары
-10.7405077785 курап
-10.7405077785 кеткенби
-10.3350426704 кайрым
-11.4336549591 терөк
-10.3350426704 токтолбой
-11.4336549591 ыргакты
-11.4336549591 акылдуулугуң
-10.3350426704 жашырат
-11.4336549591 жаңылыгын
-11.4336549591 сокпой
-11.4336549591 калтырууда
-11.4336549591 түшүнбөсөм
-11.4336549591 атаандашып
-10.3350426704 корккон
-8.34261250571 анда
-10.7405077785 жылаңбаштанып
-9.13106986608 тебетей
-10.7405077785 себебим
-11.4336549591 кепенин
-11.4336549591 тектирге
-10.7405077785 ойдон
-11.4336549591 башташкан
-11.4336549591 алдияр
-11.4336549591 бактысыз
-11.4336549591 көрөркөзгө
-10.7405077785 күнүңдөгүдөй
-11.4336549591 басылса
-11.4336549591 келатышып
-11.4336549591 аитпай
-9.82421704664 чабылган
-11.4336549591 достукту
-11.4336549591 күтүрөтүп
-11.4336549591 жылмайышты
-11.4336549591 маселелерди
-10.7405077785 эткенден
-11.4336549591 лүк
-11.4336549591 эмей
-11.4336549591 каныкейге
-11.4336549591 чамынып
-11.4336549591 аңдыганы
-10.7405077785 күркүрөө
-11.4336549591 кетенчиктегенден
-11.4336549591 далдаасында
-9.03575968627 сүйлөп
-11.4336549591 кууруп
-11.4336549591 боркок
-10.7405077785 чыдамсыздык
-10.3350426704 даңкайган
-10.7405077785 канын
-10.7405077785 айдыралыга
-11.4336549591 бурушпады
-11.4336549591 болжолунан
-11.4336549591 далайы
-7.72008289237 эгерде
-10.047360598 салуу
-11.4336549591 жерлеринин
-11.4336549591 бөлөкбөтөн
-11.4336549591 корком
-9.48774481002 махаббат
-10.7405077785 уулуңду
-10.7405077785 жорулар
-11.4336549591 ойлошу
-10.7405077785 энчисиндеги
-10.047360598 окутуп
-11.4336549591 ышкырыкпы
-11.4336549591 туталанып
-9.82421704664 айлана
-10.7405077785 чөнтөк
-9.48774481002 капысынан
-9.13106986608 түшөт
-11.4336549591 оттү
-10.7405077785 бурат
-11.4336549591 бийлеген
-11.4336549591 ашырмак
-10.7405077785 тыныбектики
-11.4336549591 көздешерин
-10.047360598 тебетейди
-11.4336549591 кошулбай
-10.7405077785 ажайып
-11.4336549591 д
-9.23643038174 салынган
-11.4336549591 көңтөрүш
-9.64189548984 силерди
-11.4336549591 көтөрдүң
-8.06635912909 канча
-11.4336549591 түлкүнү
-11.4336549591 үзүлбөй
-11.4336549591 чыныханды
-9.82421704664 китеп
-10.7405077785 ашыра
-11.4336549591 тароодо
-8.38913252135 биле
-10.7405077785 даабады
-10.7405077785 көрүшкөнчө
-11.4336549591 кылышкан
-9.23643038174 толо
-11.4336549591 кереметине
-11.4336549591 катындарга
-11.4336549591 келмелерин
-11.4336549591 айландырганбы
-10.7405077785 тартышып
-10.7405077785 райондук
-11.4336549591 жыгачтары
-11.4336549591 шылдырап
-10.3350426704 ишенчү
-11.4336549591 коргологон
-10.7405077785 ийменди
-11.4336549591 чалынгандыктанбы
-10.7405077785 кылба
-6.57384255471 алар
-11.4336549591 муңун
-11.4336549591 айбанаттары
-8.66106623683 кызын
-9.82421704664 кыялга
-11.4336549591 тереңдөөдө
-11.4336549591 аралашуудан
-11.4336549591 аттанышкан
-9.64189548984 артында
-11.4336549591 v
-11.4336549591 бейбак
-11.4336549591 коз
-11.4336549591 суусап
-9.82421704664 жатканына
-9.48774481002 немени
-11.4336549591 үнүнүн
-11.4336549591 эшиктө
-10.7405077785 молдолорду
-8.72560475797 арасына
-11.4336549591 кылыптырмын
-11.4336549591 жалгаштырган
-11.4336549591 жайлоодон
-11.4336549591 күркүрөгөн
-11.4336549591 топтошуп
-11.4336549591 көрүшкөнгө
-10.7405077785 иреңинде
-8.94874830928 байбичеси
-11.4336549591 милдет
-10.3350426704 коргон
-11.4336549591 и
-11.4336549591 кетишмек
-8.60044161502 анысы
-11.4336549591 угулгандан
-11.4336549591 өткөрбөдү
-11.4336549591 алышпадыңарбы
-11.4336549591 ошент
-7.48241124049 дейт
-11.4336549591 убайын
-11.4336549591 сыябы
-10.7405077785 уккула
-11.4336549591 өйдөдө
-10.7405077785 жаныбар
-8.43792268552 унчукпай
-11.4336549591 ээрчиткени
-10.7405077785 аксакалга
-11.4336549591 көргөнүңдү
-11.4336549591 көрсөткөн
-11.4336549591 сурайлы
-10.7405077785 кайрылышты
-10.7405077785 эптүү
-11.4336549591 кербөзин
-10.7405077785 багыт
-10.7405077785 басса
-11.4336549591 нотаны
-11.4336549591 келишкенсип
-7.14319551792 баш
-11.4336549591 чайкамасын
-11.4336549591 жакыпдаганда
-10.7405077785 урмат
-11.4336549591 жасакерсинүү
-11.4336549591 китептен
-11.4336549591 камышын
-9.03575968627 тышкары
-11.4336549591 билегине
-11.4336549591 шытыраганда
-7.42632177384 көзүн
-11.4336549591 кийиздери
-11.4336549591 зыңкыйган
-11.4336549591 чычая
-11.4336549591 карарганын
-11.4336549591 төгулүүгө
-11.4336549591 байланат
-11.4336549591 серпип
-11.4336549591 толкундаган
-7.48241124049 күнү
-8.94874830928 бош
-11.4336549591 айдалды
-11.4336549591 тайрактаган
-11.4336549591 устуканын
-9.82421704664 бөрү
-11.4336549591 комузчулук
-10.7405077785 көрүнүшүнө
-10.047360598 ботом
-11.4336549591 уурдатып
-11.4336549591 жээлигип
-11.4336549591 шоок
-11.4336549591 өтүшмөк
-10.7405077785 сеңселткен
-11.4336549591 түптүз
-11.4336549591 теңселишет
-10.3350426704 шоола
-11.4336549591 чүмкөгөн
-11.4336549591 коноктобой
-9.35421341739 жеткенде
-10.047360598 сөзет
-11.4336549591 атайлыгың
-11.4336549591 кыядан
-10.047360598 жоолугун
-11.4336549591 аксакалдуу
-9.48774481002 тагдыр
-11.4336549591 жеткизип
-10.3350426704 шок
-10.7405077785 калышканда
-10.7405077785 жөөлүйт
-9.48774481002 белгиси
-10.3350426704 кайталанып
-10.7405077785 жердештери
-9.35421341739 чынында
-9.48774481002 келинчеги
-11.4336549591 аттангыла
-11.4336549591 кичинекейинин
-11.4336549591 кичүүсүн
-10.7405077785 уулумду
-8.13781809307 тамаша
-11.4336549591 сүйлөшмөйүнчө
-11.4336549591 аялдарданкалышпай
-8.54328320118 мырза
-10.3350426704 жолугушууга
-11.4336549591 чуурутуп
-11.4336549591 күлүктөрү
-11.4336549591 соту
-10.7405077785 өзгөрө
-11.4336549591 бечарага
-8.86870560161 келиптир
-11.4336549591 түрмөктөлүп
-11.4336549591 басыпбасып
-11.4336549591 мөөрөйүн
-11.4336549591 учурду
-10.3350426704 кагуу
-10.3350426704 иреңин
-10.3350426704 катыны
-10.3350426704 жүрөжүрө
-11.4336549591 үйрөнүшсүн
-11.4336549591 токтолбогону
-11.4336549591 болбоо
-10.7405077785 такалып
-11.4336549591 табылгынын
-9.48774481002 бүткөн
-11.4336549591 наркомпроско
-10.3350426704 пайдалуу
-10.3350426704 барса
-9.82421704664 жемеледи
-10.7405077785 кайрышты
-10.7405077785 бирөөдөн
-10.3350426704 төшүнө
-10.7405077785 үйлөрү
-11.4336549591 күтпөгөнүнө
-11.4336549591 өзүнүкү
-9.03575968627 жүрөсүң
-11.4336549591 тааланын
-10.7405077785 жылдагыдан
-9.64189548984 кылчактап
-10.3350426704 жылдыз
-11.4336549591 башталгандан
-10.3350426704 көрдүңбү
-10.7405077785 батышка
-11.4336549591 ойногонуна
-11.4336549591 жөнөшсө
-11.4336549591 аймаңдай
-11.4336549591 күйгүзгөн
-11.4336549591 бригадири
-10.7405077785 күтүлбөгөндөй
-8.79459762946 нерсеге
-10.3350426704 кыйкырат
-7.82273704643 түшкөн
-7.06420710661 ушундай
-11.4336549591 байгөни
-8.29816074314 акыры
-11.4336549591 кедейдыйкандар
-10.7405077785 өзүмдүкү
-11.4336549591 уурдайт
-11.4336549591 өзгөрүлбөгөнсүң
-11.4336549591 кылчаккылчак
-10.7405077785 кирсе
-11.4336549591 аралаштыра
-11.4336549591 жакпай
-11.4336549591 кишикара
-10.7405077785 өрдөй
-11.4336549591 уккандын
-9.35421341739 сабак
-11.4336549591 шерттешпей
-11.4336549591 түткүнчө
-10.047360598 жыйылып
-10.7405077785 марка
-8.54328320118 артисттер
-11.4336549591 балбандык
-10.047360598 көзекти
-10.7405077785 арбагына
-10.7405077785 өңүндө
-11.4336549591 кыйбагансып
-8.86870560161 кылуу
-11.4336549591 колундагыдай
-11.4336549591 кайрыганда
-8.06635912909 айткан
-10.3350426704 кирсин
-10.7405077785 тукум
-11.4336549591 көлип
-11.4336549591 уйдүн
-10.7405077785 жоюу
-10.047360598 түңүлгөн
-11.4336549591 этүүгө
-8.13781809307 жатат
-11.4336549591 атактуусу
-9.48774481002 өңдүү
-11.4336549591 термечиков
-10.3350426704 антпей
-11.4336549591 сарамжалы
-11.4336549591 антпайм
-11.4336549591 урматтаганын
-11.4336549591 сүрөттөр
-10.7405077785 жабуусунан
-8.86870560161 нече
-11.4336549591 үтйдү
-11.4336549591 кишилербиз
-11.4336549591 чыккыла
-11.4336549591 кели
-11.4336549591 жүрбөймүнбү
-11.4336549591 делдейип
-11.4336549591 эбегейсиз
-5.7988653559 экен
-10.7405077785 байгеге
-10.047360598 аздап
-11.4336549591 күчкө
-11.4336549591 айтпадым
-10.3350426704 олуяата
-9.64189548984 кудайдын
-10.047360598 жоош
-11.4336549591 бытырапды
-11.4336549591 күтүүчү
-10.3350426704 карагай
-11.4336549591 экеы
-11.4336549591 аянсынбы
-11.4336549591 кыраан
-11.4336549591 өлөң
-11.4336549591 мартабаңарга
-9.03575968627 болбосун
-11.4336549591 ымырчымыр
-11.4336549591 кытмырланган
-11.4336549591 катарга
-10.7405077785 беймаза
-11.4336549591 чертпейт
-11.4336549591 сурнайы
-11.4336549591 аташса
-11.4336549591 кайныңа
-11.4336549591 сыйбай
-11.4336549591 тарбалаңдаган
-10.047360598 атабек
-11.4336549591 жайкаган
-11.4336549591 аткаруучу
-11.4336549591 турасызбы
-11.4336549591 сүр
-10.7405077785 конферансье
-11.4336549591 бетмебет
-11.4336549591 бышырышты
-11.4336549591 келгендиги
-11.4336549591 шорубуз
-10.7405077785 аштыгын
-9.03575968627 таанып
-10.7405077785 кубалап
-10.7405077785 стулга
-11.4336549591 келө
-10.7405077785 калсам
-11.4336549591 күүлөрдөн
-10.7405077785 кошууга
-11.4336549591 мамилелер
-11.4336549591 асты
-11.4336549591 карасанатайлыгынан
-11.4336549591 кызыктырып
-9.64189548984 кылмак
-11.4336549591 чакыртылган
-11.4336549591 болбоңуз
-11.4336549591 арнамысынан
-10.7405077785 жетиле
-10.7405077785 ассалом
-11.4336549591 самоорду
-7.58350735736 жерде
-10.3350426704 кутулуп
-11.4336549591 барбасын
-11.4336549591 комиссиянын
-10.7405077785 мас
-10.7405077785 берсеңиз
-11.4336549591 даттанды
-10.7405077785 кушуна
-10.7405077785 молдосуна
-10.3350426704 кокусунан
-11.4336549591 чорбу
-11.4336549591 чөктүсүн
-11.4336549591 таманын
-9.23643038174 билермандар
-10.7405077785 сырдуу
-10.3350426704 оту
-10.7405077785 мандат
-11.4336549591 качышы
-10.7405077785 ырбап
-11.4336549591 кагаздарды
-10.7405077785 такалды
-11.4336549591 даярданган
-11.4336549591 кыргын
-10.7405077785 сөгүп
-9.82421704664 айылдаштары
-10.7405077785 чое
-11.4336549591 укалай
-9.23643038174 аттарын
-11.4336549591 комуздуку
-9.64189548984 жүрүшү
-11.4336549591 тууганчылыктын
-9.82421704664 тарта
-10.7405077785 ачакей
-10.7405077785 киргизди
-11.4336549591 ууруга
-10.7405077785 кантер
-11.4336549591 кыйкырык
-11.4336549591 бактыбызга
-11.4336549591 аныкууп
-11.4336549591 чойгулап
-11.4336549591 кутуну
-11.4336549591 дабыщ
-10.7405077785 теги
-10.7405077785 көңүлдөрү
-9.23643038174 асыл
-11.4336549591 күткөнсүдү
-8.29816074314 бардыгы
-11.4336549591 өлөрүнө
-11.4336549591 куйругуна
-10.7405077785 канатындай
-10.3350426704 бурулган
-11.4336549591 жалпылдатып
-11.4336549591 кайтканы
-11.4336549591 ырчылардан
-11.4336549591 кошпостон
-11.4336549591 укпады
-11.4336549591 коркогу
-10.047360598 агып
-11.4336549591 уругунун
-11.4336549591 чертилчү
-11.4336549591 үндө
-11.4336549591 жайгарууну
-11.4336549591 атырууга
-11.4336549591 атаэнесин
-11.4336549591 жигитсиң
-10.047360598 жолугушуудан
-11.4336549591 төөнүн
-11.4336549591 минсең
-10.7405077785 абайлаган
-11.4336549591 ойлобогон
-11.4336549591 магазин
-11.4336549591 дайын
-9.82421704664 токойдо
-11.4336549591 жакыныраак
-11.4336549591 саап
-11.4336549591 адамдай
-10.3350426704 кармагыла
-11.4336549591 кымтыды
-9.64189548984 окууну
-11.4336549591 иштеди
-11.4336549591 билдиргени
-11.4336549591 бүтөрүн
-11.4336549591 тырчый
-9.48774481002 баласын
-11.4336549591 кыйшайды
-11.4336549591 чакыргандыгы
-10.7405077785 мелжиген
-11.4336549591 эсепчилигине
-11.4336549591 атабекке
-11.4336549591 кужурун
-11.4336549591 жылкыларынын
-11.4336549591 аңгемелешет
-11.4336549591 кыскан
-11.4336549591 түшүрүлдү
-11.4336549591 көрбөгөндөй
-11.4336549591 имерүүгө
-11.4336549591 асылышты
-10.3350426704 имере
-8.48921597991 федорович
-11.4336549591 жеңесине
-10.047360598 коеюн
-11.4336549591 казнаныкы
-11.4336549591 куя
-11.4336549591 табам
-11.4336549591 жайкап
-10.047360598 аялдары
-9.35421341739 маматка
-11.4336549591 үстөмдүк
-11.4336549591 кургуру
-11.4336549591 сунган
-10.3350426704 коштун
-11.4336549591 балдарыбыздан
-10.7405077785 каңтарылып
-10.7405077785 келатышат
-11.4336549591 белендеп
-11.4336549591 кекээрдүү
-11.4336549591 төгүшүүгө
-11.4336549591 обдулуп
-11.4336549591 берилчү
-11.4336549591 катындын
-10.7405077785 арызын
-11.4336549591 мингизгенсип
-11.4336549591 муңайтпачы
-11.4336549591 кагылайыным
-10.047360598 ити
-10.7405077785 конокторго
-11.4336549591 жомокторго
-9.82421704664 айтканы
-11.4336549591 тарыхтын
-11.4336549591 тарпылдатып
-10.3350426704 талканга
-11.4336549591 кармалып
-11.4336549591 чокчогой
-11.4336549591 жайрады
-11.4336549591 жылдырбайт
-8.86870560161 болобу
-10.3350426704 кыйлага
-11.4336549591 акылдашып
-11.4336549591 камбарканга
-10.3350426704 колтугуна
-11.4336549591 көрүнбө
-11.4336549591 чымчым
-10.047360598 көтөрүлдү
-11.4336549591 болобузбу
-11.4336549591 дарысы
-11.4336549591 үрөөдө
-10.7405077785 кырсыктуу
-11.4336549591 сыздаганы
-10.7405077785 жалдырады
-11.4336549591 трийке
-10.7405077785 качам
-11.4336549591 бөлмөлөрдөн
-11.4336549591 асылгандарды
-11.4336549591 көкжашаттын
-10.7405077785 тепки
-11.4336549591 оолукканды
-10.7405077785 коңшусуна
-11.4336549591 карашына
-11.4336549591 билектерин
-11.4336549591 толбойт
-11.4336549591 ойлойсуң
-11.4336549591 илегилектей
-10.7405077785 сурашты
-9.48774481002 кубанычы
-11.4336549591 нукумай
-11.4336549591 каталды
-9.82421704664 секин
-9.64189548984 тамыр
-8.48921597991 менден
-9.23643038174 артист
-11.4336549591 элекпи
-8.43792268552 тааныш
-10.7405077785 этияттанууну
-11.4336549591 чатышып
-11.4336549591 сунтанда
-10.3350426704 оокатын
-11.4336549591 каршытерши
-9.82421704664 арманы
-10.7405077785 жолугуп
-10.3350426704 дегенди
-11.4336549591 тунуктугу
-11.4336549591 баратпаймынбы
-11.4336549591 жалтанчаак
-11.4336549591 атаймын
-11.4336549591 гүлүп
-10.7405077785 колхозчулар
-9.23643038174 жеңин
-8.25560112872 кишиге
-11.4336549591 азаматтардын
-11.4336549591 короосун
-11.4336549591 жакыман
-8.34261250571 кала
-11.4336549591 каатчылык
-9.48774481002 чертчү
-10.3350426704 чертилбей
-11.4336549591 баштайлы
-9.48774481002 максаты
-9.64189548984 демин
-11.4336549591 табууну
-11.4336549591 эсйи
-11.4336549591 тийиштүүсүн
-11.4336549591 дуулдатканы
-11.4336549591 кудайбергениңди
-9.35421341739 атчандар
-11.4336549591 ууртап
-11.4336549591 турарда
-10.7405077785 укмушка
-9.23643038174 келер
-8.34261250571 сыртынан
-10.7405077785 табылгыс
-11.4336549591 буроого
-10.7405077785 жылкылуу
-10.7405077785 көрк
-11.4336549591 балачакасын
-11.4336549591 эрдиктеримди
-11.4336549591 тирилигине
-11.4336549591 шыктанган
-11.4336549591 басылбайт
-11.4336549591 сагындырган
-10.7405077785 арасын
-10.3350426704 жылаңач
-10.7405077785 аяса
-9.82421704664 алдыларына
-11.4336549591 баттыңбы
-10.7405077785 кайрылдым
-11.4336549591 күлчоро
-11.4336549591 мончоктотуп
-11.4336549591 тигиниси
-9.35421341739 адамдар
-9.13106986608 кууп
-10.047360598 күкүк
-11.4336549591 киришкендиктен
-10.7405077785 жетекчилерине
-11.4336549591 агындай
-11.4336549591 өтүшүн
-10.7405077785 терме
-9.35421341739 берүү
-10.7405077785 намыстуу
-11.4336549591 токою
-11.4336549591 жашырсамбы
-11.4336549591 кеселге
-11.4336549591 сүйлөшөм
-9.82421704664 жайдары
-11.4336549591 жакпаганын
-10.7405077785 бүлө
-11.4336549591 акылдашчу
-11.4336549591 өлүүтирүүсү
-11.4336549591 түптүңүз
-11.4336549591 биригишип
-11.4336549591 камынышты
-11.4336549591 койбойсузбу
-8.60044161502 түшүнгөн
-11.4336549591 калармын
-8.25560112872 эсине
-10.7405077785 жаратылыштын
-11.4336549591 алдрдын
-11.4336549591 кубанычынан
-8.86870560161 катын
-10.3350426704 аткарып
-11.4336549591 бакырышты
-11.4336549591 чыгышкандан
-10.7405077785 төрүнөн
-11.4336549591 мурдагыга
-9.64189548984 аралашып
-11.4336549591 сыйынса
-11.4336549591 чачыңды
-10.3350426704 төшөгүндө
-11.4336549591 кыйылгансыды
-10.7405077785 тасмадай
-11.4336549591 жөнөөчүдөй
-11.4336549591 жегени
-11.4336549591 байтеректей
-11.4336549591 аңгемелешкенден
-11.4336549591 дини
-11.4336549591 шыкаалады
-10.047360598 атаңдын
-11.4336549591 обондору
-11.4336549591 бечаралыгын
-11.4336549591 султаналыда
-11.4336549591 чайпалгансыды
-11.4336549591 бүлөсүнүн
-11.4336549591 кантишет
-10.7405077785 кайданжайдан
-10.047360598 жомогу
-7.48241124049 кызыл
-11.4336549591 торуна
-11.4336549591 ыргак
-11.4336549591 кошула
-4.75909356726 бир
-11.4336549591 качырышкан
-11.4336549591 алейкумасалам
-8.1014504489 убакыт
-10.3350426704 келчи
-9.23643038174 үйүр
-11.4336549591 чыкыйыңа
-11.4336549591 тизме
-11.4336549591 баштанбады
-11.4336549591 айткандын
-11.4336549591 кырчынында
-10.047360598 айбаттуу
-11.4336549591 талашпасам
-10.7405077785 тойдун
-9.64189548984 утурлай
-11.4336549591 балаңды
-11.4336549591 букараларда
-11.4336549591 лөрдүн
-11.4336549591 ассалмалейким
-11.4336549591 чыдамсызданат
-11.4336549591 зэкетти
-8.66106623683 баатыр
-11.4336549591 буркураган
-9.23643038174 бээ
-10.047360598 көтөрүшүп
-11.4336549591 жошулган
-11.4336549591 намасты
-10.7405077785 анжиян
-11.4336549591 кетпеңиз
-11.4336549591 ошентиптир
-10.047360598 көргөнсүп
-11.4336549591 ташкен
-11.4336549591 болдукпу
-11.4336549591 текебери
-7.35611751517 кээде
-10.7405077785 билинди
-10.7405077785 сатканы
-11.4336549591 калгансыйт
-11.4336549591 сабактардын
-11.4336549591 айылдарына
-11.4336549591 адептүүлүк
-10.7405077785 энелери
-11.4336549591 кеңештеринин
-11.4336549591 аңкилдейсиң
-10.3350426704 өөн
-10.7405077785 ырларды
-11.4336549591 каргылданып
-10.7405077785 күчөдү
-11.4336549591 алтындын
-11.4336549591 каалаганына
-8.86870560161 алышты
-11.4336549591 өтүшпөйт
-11.4336549591 калем
-8.66106623683 толук
-11.4336549591 союздук
-10.7405077785 окшобогон
-11.4336549591 чоңоолдун
-11.4336549591 кобурсобур
-11.4336549591 салгылачы
-11.4336549591 ашуусу
-11.4336549591 элиң
-11.4336549591 кошконум
-11.4336549591 буюмунан
-11.4336549591 дөөлөттү
-11.4336549591 таластып
-11.4336549591 дилиндегисин
-8.94874830928 жел
-10.7405077785 иретинде
-11.4336549591 суроолу
-11.4336549591 аптыгышы
-10.7405077785 маматтыкы
-11.4336549591 урунат
-11.4336549591 кийлигишүү
-11.4336549591 опузалай
-10.3350426704 теке
-9.03575968627 кошулду
-11.4336549591 семире
-9.03575968627 уйкусу
-9.82421704664 дебей
-11.4336549591 ыңгайсызданып
-11.4336549591 кочкул
-10.3350426704 шумкардай
-11.4336549591 бөлүштүргөндө
-11.4336549591 аттады
-11.4336549591 мансапка
-8.06635912909 сонун
-11.4336549591 билейинчи
-9.82421704664 айдалган
-10.3350426704 мактай
-10.047360598 койгондон
-9.64189548984 пишпекке
-8.72560475797 башталат
-11.4336549591 бечараларды
-11.4336549591 токмоктой
-7.79606879935 кишинин
-10.047360598 жамбаштап
-9.48774481002 төрө
-11.4336549591 алдыңарга
-11.4336549591 тойбойт
-10.7405077785 колоң
-10.7405077785 анжиянга
-11.4336549591 коренский
-11.4336549591 ууруларды
-11.4336549591 кантисполкомдун
-11.4336549591 жеткенсиди
-11.4336549591 күтүшүнө
-11.4336549591 бүрсүгүнүбү
-10.3350426704 таман
-11.4336549591 чыркыратып
-10.7405077785 чаптырышты
-11.4336549591 жыйнапсың
-11.4336549591 жүгүртө
-11.4336549591 жашайм
-10.047360598 душман
-8.29816074314 дегенде
-11.4336549591 күнөкөр
-11.4336549591 мурункусунун
-11.4336549591 арбайган
-11.4336549591 учканда
-11.4336549591 канчасын
-11.4336549591 билбейсиңерби
-7.93714739761 аларга
-10.7405077785 антын
-11.4336549591 өкүматы
-11.4336549591 карагат
-9.82421704664 сүртүнүп
-11.4336549591 даңкакташат
-10.047360598 көнүп
-11.4336549591 эрге
-11.4336549591 кылышың
-10.3350426704 тууралуу
-11.4336549591 келгениңди
-11.4336549591 отуруш
-11.4336549591 кулуну
-10.047360598 капшыт
-7.48241124049 биринчи
-11.4336549591 үмүттүү
-9.82421704664 коюңуз
-8.79459762946 аялына
-11.4336549591 алаканга
-11.4336549591 мырзаңы
-11.4336549591 кудалыктын
-11.4336549591 тутунгандай
-11.4336549591 шап
-10.7405077785 көкүрөгүн
-11.4336549591 тешиктен
-11.4336549591 сырдашы
-9.35421341739 маңдай
-11.4336549591 апталап
-10.7405077785 былкылдатпай
-11.4336549591 ашыгуу
-11.4336549591 кырманта
-10.047360598 куурайдын
-11.4336549591 кыроодон
-9.64189548984 элине
-11.4336549591 сүйлөшөрбүз
-10.7405077785 кыймылсыз
-11.4336549591 додонун
-11.4336549591 ханынын
-10.7405077785 атабабадан
-11.4336549591 силердйн
-9.48774481002 көргүсү
-11.4336549591 жегеничкени
-9.64189548984 кимисинин
-7.85013602062 күлүп
-11.4336549591 муруттар
-10.047360598 таасын
-11.4336549591 күрөшүүнүн
-10.3350426704 качкысы
-11.4336549591 булдуруктатып
-8.66106623683 ойноп
-11.4336549591 самтырап
-10.047360598 көзигет
-6.55845763587 атайдын
-11.4336549591 бутуколу
-11.4336549591 сактоого
-11.4336549591 сарайларга
-11.4336549591 чечилмек
-11.4336549591 кетпегей
-11.4336549591 молдокем
-11.4336549591 талатууга
-10.3350426704 досум
-11.4336549591 канааттандырмак
-10.3350426704 билбеди
-10.7405077785 кишп
-11.4336549591 өткүм
-10.7405077785 агайынтууган
-10.7405077785 сүт
-10.7405077785 келатам
-11.4336549591 азуусундай
-10.7405077785 кайыгып
-10.7405077785 баштыкты
-11.4336549591 уккандарынан
-11.4336549591 жолдошторуң
-11.4336549591 кесесин
-9.23643038174 жапырт
-9.82421704664 жайлуу
-10.047360598 сенсиңби
-11.4336549591 келгеннн
-9.64189548984 турасыңбы
-11.4336549591 жиберишеби
-11.4336549591 астын
-11.4336549591 алтымыш
-10.7405077785 баасы
-9.82421704664 этпей
-9.03575968627 байлар
-10.7405077785 жандили
-9.64189548984 сарала
-11.4336549591 тийгендер
-8.79459762946 учур
-11.4336549591 эскилеринин
-11.4336549591 мелткалт
-9.35421341739 күтүү
-11.4336549591 бергендиги
-11.4336549591 оорутуп
-10.7405077785 арсыкулдун
-11.4336549591 жардамдаш
-11.4336549591 чукчуюп
-10.7405077785 астыртан
-10.3350426704 түгү
-10.047360598 тынчтыкты
-10.7405077785 билбегенин
-10.047360598 жигиттердин
-11.4336549591 каттарынан
-10.7405077785 кемчиликтер
-9.35421341739 айтууга
-11.4336549591 шыңгыраган
-11.4336549591 күрөңкөйүп
-11.4336549591 жүздүүлүк
-11.4336549591 билиниши
-11.4336549591 кызылбашта
-11.4336549591 качканың
-10.7405077785 бакылдаган
-11.4336549591 унутпаганын
-11.4336549591 күчүндө
-11.4336549591 кердирип
-11.4336549591 билермандыгы
-11.4336549591 беттешүүдө
-11.4336549591 жумушта
-9.82421704664 кетсе
-10.7405077785 сурар
-10.7405077785 карабайт
-11.4336549591 жүздөн
-11.4336549591 билүүнүн
-9.35421341739 карабай
-11.4336549591 саксынып
-11.4336549591 буйдала
-11.4336549591 корголоду
-11.4336549591 ээлендирип
-11.4336549591 турганыңарды
-10.7405077785 короону
-10.3350426704 окуясы
-11.4336549591 эмгегиңерди
-11.4336549591 уурдаганбыз
-11.4336549591 кайындарыңа
-11.4336549591 бычак
-11.4336549591 каардуулугун
-11.4336549591 кырылдаткан
-7.69598534079 өтүп
-11.4336549591 каңтарылган
-11.4336549591 жадагаида
-11.4336549591 найзакерлер
-11.4336549591 азаптозокту
-11.4336549591 тоер
-8.79459762946 ырды
-11.4336549591 учундагыларың
-10.3350426704 чыккансыйт
-11.4336549591 мейманмын
-10.7405077785 миңдеген
-9.64189548984 кыткылыктап
-11.4336549591 зч
-11.4336549591 айрылуудан
-11.4336549591 болуштан
-11.4336549591 борчуктун
-9.23643038174 тегерегинде
-8.17555842105 элден
-10.3350426704 амалы
-11.4336549591 мандалактын
-9.23643038174 ачууланды
-10.7405077785 балачака
-6.01755455687 алып
-10.7405077785 жайкы
-9.82421704664 арзыбай
-11.4336549591 үргүлөгөнсүп
-11.4336549591 ылдам
-11.4336549591 окутам
-11.4336549591 кылычын
-11.4336549591 ырайымсыздык
-10.047360598 журтунда
-10.7405077785 тургандыр
-11.4336549591 бекинип
-11.4336549591 сатыктагы
-11.4336549591 ээри
-11.4336549591 далдалоого
-11.4336549591 чыгымымдын
-9.64189548984 кудуңдап
-11.4336549591 кармалган
-10.3350426704 тоодо
-11.4336549591 таптырып
-10.7405077785 уюштуруу
-11.4336549591 үлпүлдөтүшүп
-11.4336549591 жаралышы
-10.047360598 айлык
-9.64189548984 дүбүртү
-10.3350426704 чиренип
-11.4336549591 бактын
-11.4336549591 үкү
-11.4336549591 зарылдык
-10.3350426704 серп
-10.3350426704 саруу
-10.7405077785 келинине
-11.4336549591 сүйлөшмөк
-11.4336549591 сүрүштүрүүчү
-10.7405077785 чапчыган
-11.4336549591 жаздайт
-11.4336549591 жогбрулай
-11.4336549591 жадаганеып
-9.48774481002 каранды
-11.4336549591 ашынан
-10.3350426704 инисине
-8.94874830928 баарынын
-11.4336549591 жазуулар
-10.3350426704 сүзүлтүп
-8.43792268552 калганда
-10.7405077785 тынды
-11.4336549591 мөзгилдин
-11.4336549591 постановкаларды
-10.7405077785 жетем
-9.23643038174 бака
-10.3350426704 жалтанган
-10.7405077785 бадырайган
-11.4336549591 табакты
-11.4336549591 курган
-11.4336549591 кайырчылар
-9.35421341739 кантейин
-11.4336549591 жаңылбай
-11.4336549591 жетпегендигин
-9.82421704664 байкай
-11.4336549591 боосу
-11.4336549591 гимни
-9.35421341739 токтотту
-11.4336549591 эненин
-10.7405077785 далдаасынан
-11.4336549591 көлөкөңөр
-7.37321194853 молдо
-11.4336549591 мыгый
-10.7405077785 жолоочуну
-10.047360598 калбай
-11.4336549591 күрүлдөгөн
-11.4336549591 ызырынуудан
-11.4336549591 сүйө
-11.4336549591 дарактуу
-9.35421341739 серке
-11.4336549591 тегеректеги
-10.7405077785 кытыгылуу
-11.4336549591 кармаганы
-11.4336549591 аласыңбы
-11.4336549591 кусалыктан
-10.047360598 олтурган
-10.7405077785 шаңга
-10.3350426704 маңдайындагы
-11.4336549591 өксүйөксүй
-11.4336549591 сүйлөөдө
-9.48774481002 имиш
-9.48774481002 көрүнүшү
-11.4336549591 зуурада
-10.7405077785 кыялында
-11.4336549591 чайкайт
-11.4336549591 окутушту
-11.4336549591 акжолтойлорум
-11.4336549591 айтаары
-11.4336549591 сүттөй
-11.4336549591 гог
-11.4336549591 жанындай
-11.4336549591 айкындыгына
-11.4336549591 ойдолоткон
-10.047360598 оюнун
-11.4336549591 тууралайм
-11.4336549591 өлүктүн
-10.7405077785 кеттим
-11.4336549591 орундалуучудай
-11.4336549591 чечпей
-10.7405077785 өлтүрүп
-6.92279545256 жөнүндө
-10.7405077785 алымыш
-11.4336549591 ун
-10.7405077785 демдеди
-10.047360598 албетте
-11.4336549591 шектенишпейт
-11.4336549591 жалпак
-10.047360598 айланасын
-8.54328320118 сурап
-10.7405077785 козголгон
-11.4336549591 жалпыга
-10.7405077785 дартын
-11.4336549591 тушуна
-11.4336549591 муюп
-11.4336549591 тарлык
-11.4336549591 камчысынын
-10.3350426704 турбайт
-9.23643038174 секретарь
-7.67245484338 жактан
-11.4336549591 арналуу
-11.4336549591 өткөнүңүздү
-11.4336549591 шектөнбейт
-11.4336549591 этине
-10.7405077785 виноградов
-11.4336549591 тирүүлөрү
-11.4336549591 салганын
-11.4336549591 битирин
-11.4336549591 көрүүдөн
-11.4336549591 каалашыңча
-11.4336549591 куйругунан
-11.4336549591 ыйлоо
-11.4336549591 кальпг
-8.34261250571 чыгат
-11.4336549591 акырындады
-10.7405077785 ичүүчү
-11.4336549591 белеске
-10.047360598 айттың
-11.4336549591 кечи
-11.4336549591 учурабагай
-10.7405077785 семетейдин
-10.3350426704 ашыкпады
-11.4336549591 ышкыра
-11.4336549591 тыңшагансып
-11.4336549591 таңкалтты
-9.03575968627 сылап
-10.7405077785 жетекчиси
-8.66106623683 кызык
-11.4336549591 минмекчи
-9.35421341739 сур
-11.4336549591 атаэнесине
-11.4336549591 күндөшүн
-9.64189548984 баласына
-10.3350426704 кийиминин
-11.4336549591 аралаганың
-11.4336549591 күчөгөн
-10.7405077785 осуят
-10.7405077785 чыгабы
-11.4336549591 өтүңүз
-10.7405077785 чыгарган
-9.35421341739 кер
-11.4336549591 тешигинен
-10.7405077785 чукугандай
-11.4336549591 суракка
-11.4336549591 жазарда
-11.4336549591 чынылардын
-11.4336549591 чыйпылдаган
-11.4336549591 жерлер
-11.4336549591 чапандары
-11.4336549591 тилекте
-11.4336549591 бозосу
-9.13106986608 кайнаган
-11.4336549591 күйүт
-11.4336549591 датыңды
-11.4336549591 аткарыларыаткарылбасы
-11.4336549591 билгениң
-11.4336549591 жели
-11.4336549591 токтогонда
-11.4336549591 комузчудан
-11.4336549591 тамакашты
-10.7405077785 чыгууну
-11.4336549591 жумшайт
-10.7405077785 өкмөтүн
-10.047360598 оёзго
-11.4336549591 орногонуң
-11.4336549591 зоотбекке
-9.64189548984 жүрчү
-11.4336549591 айтпаган
-9.82421704664 тиет
-11.4336549591 тикен
-11.4336549591 көзүбүзгө
-10.047360598 күнүндө
-11.4336549591 ойлончу
-11.4336549591 жарашкансыйт
-10.7405077785 туягы
-11.4336549591 ыркы
-11.4336549591 кетментобого
-11.4336549591 ыңк
-11.4336549591 букача
-11.4336549591 томпоюп
-11.4336549591 арткылары
-11.4336549591 ойгонушту
-9.48774481002 кайрат
-9.35421341739 укмуш
-11.4336549591 түнт
-11.4336549591 окудум
-11.4336549591 кыншайтып
-10.3350426704 кайтышты
-10.7405077785 чакаларын
-11.4336549591 таппайбыз
-11.4336549591 түшкөндүктөн
-9.82421704664 көтөрүлө
-10.7405077785 бил
-10.3350426704 суудан
-11.4336549591 өсүүгө
-11.4336549591 тигиши
-10.7405077785 солдаттын
-10.7405077785 ойдолотуп
-10.3350426704 жашып
-10.7405077785 кулагым
-11.4336549591 табылбоочудай
-11.4336549591 тайтекеси
-11.4336549591 пайдалуулугуна
-11.4336549591 жеткей
-11.4336549591 сасык
-11.4336549591 элиңден
-11.4336549591 ачасына
-10.7405077785 этинен
-10.3350426704 алабула
-11.4336549591 күрөктү
-11.4336549591 кылчактады
-11.4336549591 жүгүрүк
-8.94874830928 жакасын
-10.3350426704 чабылды
-11.4336549591 дейсизби
-10.047360598 турбайсыңбы
-10.3350426704 алсын
-11.4336549591 тыйылбайт
-11.4336549591 столу
-9.03575968627 сүйлөй
-10.7405077785 тыйылды
-11.4336549591 сөздиби
-11.4336549591 ышкыбоздугу
-11.4336549591 ээңе
-10.3350426704 ошончолук
-11.4336549591 аташа
-10.3350426704 ойлонтту
-11.4336549591 оюлбаган
-11.4336549591 тараганча
-11.4336549591 кирерге
-11.4336549591 турбасаң
-10.7405077785 камаласың
-11.4336549591 чыйпылдашкандар
-11.4336549591 жептир
-11.4336549591 убактысынча
-9.48774481002 аялдар
-7.30652057403 кудай
-10.3350426704 таланып
-9.48774481002 кат
-11.4336549591 чакыргандарга
-11.4336549591 табылышына
-11.4336549591 кылбасмын
-10.7405077785 каалаганындай
-10.7405077785 жаракөр
-11.4336549591 тунам
-11.4336549591 калбырга
-11.4336549591 катышканы
-11.4336549591 казык
-11.4336549591 паракорлук
-10.3350426704 сындырып
-11.4336549591 соодадан
-10.7405077785 алдап
-11.4336549591 окуясынын
-11.4336549591 түрдүрүп
-10.7405077785 аянттын
-11.4336549591 дүкүлдөп
-11.4336549591 жасалганын
-9.64189548984 малын
-11.4336549591 көрүнүктүүсү
-11.4336549591 айыкпаганын
-10.7405077785 күчүмдү
-8.66106623683 эрмек
-11.4336549591 эсенбектер
-11.4336549591 мыкчыңдап
-10.3350426704 көрсөтүү
-10.047360598 отургула
-11.4336549591 кошунанын
-11.4336549591 айкырыпкыйкырып
-9.82421704664 кыңылдап
-9.23643038174 изи
-11.4336549591 бармай
-11.4336549591 кыюусу
-10.7405077785 жоронун
-11.4336549591 көчүрөлү
-10.7405077785 тийбейт
-11.4336549591 сопсоо
-11.4336549591 кедейкембагалдардын
-11.4336549591 табактан
-11.4336549591 чогуусу
-11.4336549591 ылдамдата
-11.4336549591 жорого
-11.4336549591 тыңшаган
-11.4336549591 умтулбастан
-9.64189548984 барар
-11.4336549591 чирилийлешип
-11.4336549591 акыйкаттын
-11.4336549591 жетерлик
-11.4336549591 ийнесиндей
-9.23643038174 ача
-11.4336549591 сабырлакды
-10.7405077785 тетиги
-11.4336549591 созулганда
-10.3350426704 болушуна
-10.7405077785 чери
-9.13106986608 жөө
-9.64189548984 ассалоом
-11.4336549591 өкүнгөндөй
-11.4336549591 тигиле
-10.7405077785 эгинге
-10.3350426704 корук
-10.7405077785 кысылып
-10.7405077785 өңөрүшүп
-11.4336549591 аяктанбыяктан
-11.4336549591 аткып
-10.7405077785 мугалимге
-11.4336549591 ошосуңбу
-8.13781809307 этти
-8.60044161502 тийип
-11.4336549591 сүйлөбөйт
-11.4336549591 бутага
-11.4336549591 темирдей
-9.35421341739 токойго
-11.4336549591 тарыхты
-10.7405077785 кантмек
-11.4336549591 алышуудан
-11.4336549591 илгерилебей
-11.4336549591 дабасын
-11.4336549591 канды
-9.03575968627 катарына
-10.7405077785 фрунзенин
-11.4336549591 көңүлүңдө
-11.4336549591 таштсону
-11.4336549591 катындардын
-9.82421704664 чакты
-10.7405077785 арачы
-11.4336549591 чувулунан
-11.4336549591 өнөктүк
-8.79459762946 мурут
-11.4336549591 тигилди
-9.35421341739 кыймыл
-10.7405077785 күлүктөр
-11.4336549591 эдырзага
-11.4336549591 кеттик
-10.7405077785 өткөнчө
-10.7405077785 чыңдалып
-11.4336549591 эмгекчилерине
-11.4336549591 өлгөндөгүсүнөн
-10.7405077785 жабылган
-11.4336549591 зоолору
-11.4336549591 саюудан
-11.4336549591 болорубузду
-10.7405077785 тизесинин
-10.7405077785 күлүкчө
-8.2147791342 баштаган
-8.72560475797 ошонун
-11.4336549591 козуга
-11.4336549591 агымындай
-10.047360598 кедейлердин
-11.4336549591 актар
-11.4336549591 сырдашкысы
-11.4336549591 заңкайган
-11.4336549591 түштүккө
-11.4336549591 багытында
-9.23643038174 жүрүшкөн
-11.4336549591 кошпогону
-11.4336549591 салгандарыбыз
-10.7405077785 коштон
-11.4336549591 элеңдеген
-10.3350426704 ушубу
-11.4336549591 түшүнүктөн
-9.23643038174 атасын
-11.4336549591 укпайсыңбы
-11.4336549591 татат
-10.047360598 аба
-11.4336549591 сөзүүчү
-11.4336549591 өткөндүн
-11.4336549591 күйбөйт
-10.047360598 шымчан
-11.4336549591 каксоо
-11.4336549591 бактылуубуз
-11.4336549591 жакаларындагы
-11.4336549591 комсоолугуна
-10.047360598 кирипчыгып
-11.4336549591 бакал
-11.4336549591 көңүлүтг
-11.4336549591 бүдөмүк
-11.4336549591 таноосунун
-11.4336549591 сабыры
-11.4336549591 каткырыктарды
-11.4336549591 катышуу
-10.7405077785 шишимик
-11.4336549591 жазакерсинүүгө
-11.4336549591 жалгыздашынын
-9.82421704664 угуу
-10.7405077785 ассалоомалейким
-11.4336549591 атаган
-11.4336549591 оозумду
-8.03245757741 андай
-11.4336549591 аптекке
-10.3350426704 сиңип
-11.4336549591 булактап
-10.3350426704 таруу
-11.4336549591 жашырылды
-10.7405077785 кыбырап
-11.4336549591 мураталыбыз
-11.4336549591 кырга
-11.4336549591 чолпон
-10.7405077785 алуунун
-11.4336549591 жалгызсыратат
-11.4336549591 жүрүңүз
-10.7405077785 болгула
-7.79606879935 атасынын
-11.4336549591 мергендин
-9.82421704664 тынарбек
-10.7405077785 куугун
-11.4336549591 кайраттанса
-10.7405077785 тарабай
-10.7405077785 ооздорун
-11.4336549591 камандай
-7.48241124049 кыргыз
-11.4336549591 баяндап
-10.7405077785 толтурду
-11.4336549591 чыркырап
-11.4336549591 айтары
-11.4336549591 айдалганы
-11.4336549591 азышкан
-10.3350426704 дилгирлиги
-11.4336549591 күтүн
-11.4336549591 жаныңды
-10.7405077785 өңүнө
-11.4336549591 кебине
-10.7405077785 жетүү
-11.4336549591 бүтүшүн
-11.4336549591 тарттырып
-11.4336549591 трагедиясы
-11.4336549591 отурушунун
-9.48774481002 кабагы
-11.4336549591 билинбегени
-10.3350426704 кулагынын
-10.7405077785 орчундуу
-11.4336549591 калкалар
-11.4336549591 сылыктыгың
-11.4336549591 жешке
-10.7405077785 учураган
-11.4336549591 шатырашып
-10.047360598 тилегине
-11.4336549591 жээнинен
-11.4336549591 мейманына
-10.047360598 койгонун
-11.4336549591 кеңешиңерди
-10.7405077785 супа
-11.4336549591 соттолуп
-11.4336549591 тарабаган
-11.4336549591 мыктылык
-9.64189548984 найза
-10.7405077785 сууган
-7.87830689758 ойго
-10.7405077785 тартынбайт
-9.35421341739 эркек
-11.4336549591 жазы
-9.48774481002 козголду
-11.4336549591 сагындым
-11.4336549591 митингди
-10.7405077785 капкачанкы
-11.4336549591 бүлүнүп
-11.4336549591 убактысы
-11.4336549591 тийгизем
-11.4336549591 үндөрүн
-11.4336549591 чыгарына
-11.4336549591 шоктутум
-11.4336549591 баштадым
-11.4336549591 баштаары
-11.4336549591 тууганбайдыкы
-10.7405077785 жардамга
-11.4336549591 узатылган
-11.4336549591 кейий
-11.4336549591 сакалдын
-11.4336549591 араздашып
-11.4336549591 куштай
-11.4336549591 акыркысы
-11.4336549591 жулкулдап
-11.4336549591 тууганың
-11.4336549591 кийинби
-11.4336549591 алаарлык
-10.7405077785 амалкөй
-11.4336549591 кашыма
-10.047360598 кемпирлер
-9.82421704664 десте
-11.4336549591 баратыптыр
-11.4336549591 кайтыңкырап
-8.86870560161 төрт
-7.64946532515 тиктеп
-11.4336549591 бакылдаганына
-10.7405077785 тилектин
-10.7405077785 өзүбү
-11.4336549591 катынмын
-10.7405077785 созолоно
-9.82421704664 үйлөр
-11.4336549591 чиренген
-11.4336549591 бекенмин
-10.7405077785 сыны
-11.4336549591 пайдалангысы
-7.56245394816 үстүнө
-10.7405077785 мойнуңарга
-10.3350426704 турмушка
-9.64189548984 сүрөп
-11.4336549591 бооз
-10.3350426704 дүркүрөдү
-11.4336549591 кагылып
-11.4336549591 көмөч
-8.48921597991 дабыш
-11.4336549591 жаңылыктардын
-11.4336549591 курбуң
-10.7405077785 отургансып
-11.4336549591 сыйлайлы
-11.4336549591 тебетеңин
-11.4336549591 өзүбек
-11.4336549591 ойдуңдун
-11.4336549591 чыкпачы
-11.4336549591 баксалап
-11.4336549591 көпүрөлөр
-9.48774481002 каргаша
-11.4336549591 тескей
-8.25560112872 чын
-11.4336549591 ыйлашып
-11.4336549591 быштынын
-11.4336549591 жыгылбайбы
-11.4336549591 кыйнабаса
-11.4336549591 күрпүлдөдү
-10.7405077785 жолоочулардын
-11.4336549591 тепкедей
-11.4336549591 кызматчыларың
-11.4336549591 атан
-11.4336549591 айгинеленип
-11.4336549591 өйүзү
-11.4336549591 белгилери
-9.35421341739 бойго
-11.4336549591 чоочунбуз
-11.4336549591 ичпегендери
-11.4336549591 жуулган
-9.82421704664 эсенаман
-11.4336549591 ашууга
-11.4336549591 сөлөкөт
-10.7405077785 агайиндер
-11.4336549591 калтырды
-11.4336549591 булактардан
-11.4336549591 опкоолжуду
-11.4336549591 жумшактап
-11.4336549591 отурганынан
-9.35421341739 кедейлер
-10.7405077785 асып
-11.4336549591 оюм
-11.4336549591 аңдыйм
-11.4336549591 шашам
-11.4336549591 кошулушту
-11.4336549591 кепич
-11.4336549591 анысына
-11.4336549591 бериңиздер
-11.4336549591 тазалай
-11.4336549591 сарамжалдуу
-11.4336549591 кумаркечтикке
-11.4336549591 тойтамаша
-10.7405077785 абыш
-11.4336549591 жоругуң
-10.7405077785 шып
-8.2147791342 акын
-11.4336549591 арчаны
-11.4336549591 салкынына
-11.4336549591 бүкүтүкү
-11.4336549591 ысыгына
-9.64189548984 тилегин
-11.4336549591 баамдашты
-11.4336549591 мурчуюмуш
-11.4336549591 тигилип
-11.4336549591 сопунун
-8.79459762946 жашырын
-11.4336549591 кызылбаштыкынан
-11.4336549591 уурулардын
-10.7405077785 күңк
-11.4336549591 тарбагай
-11.4336549591 капкаяктагы
-10.047360598 кушту
-11.4336549591 ойногону
-11.4336549591 көргөзүшкөн
-9.23643038174 көйнөкчөн
-11.4336549591 тааныбагандай
-10.7405077785 тууганбайдын
-11.4336549591 кармалбагап
-11.4336549591 өркүнү
-11.4336549591 душманыңды
-11.4336549591 дааткан
-11.4336549591 чоңкичинеси
-11.4336549591 түнттөрү
-11.4336549591 чүрчүйтүп
-11.4336549591 убагым
-9.82421704664 келгенче
-11.4336549591 төпөштөп
-9.64189548984 табышмактуу
-11.4336549591 үйрөнүшсө
-11.4336549591 нерселерге
-11.4336549591 сыныңды
-10.047360598 төмөнкү
-11.4336549591 аным
-11.4336549591 ичкиликти
-11.4336549591 болжошту
-11.4336549591 жалынуужалбаруу
-11.4336549591 каалаганыңа
-11.4336549591 түгүгл
-10.7405077785 никелейиң
-10.3350426704 бадал
-11.4336549591 кагыраган
-11.4336549591 мүлксүлк
-11.4336549591 төгүшүп
-10.3350426704 кулактарын
-11.4336549591 өтпөйсүң
-10.3350426704 моюнга
-10.7405077785 бериптир
-10.047360598 укпай
-11.4336549591 ченине
-9.48774481002 аяп
-11.4336549591 ичкертимиш
-11.4336549591 чөйрөсү
-11.4336549591 жоргомду
-11.4336549591 эрини
-9.64189548984 орустан
-9.48774481002 башканын
-11.4336549591 жаттаган
-11.4336549591 сүйлөтө
-10.3350426704 жоголду
-11.4336549591 оңдуруп
-7.99966775459 баласы
-11.4336549591 насип
-10.7405077785 кубарыңдын
-9.64189548984 кызыган
-9.82421704664 сөйкө
-11.4336549591 дөөлөтүм
-11.4336549591 жадады
-11.4336549591 тутанткысы
-10.7405077785 суй
-11.4336549591 чочуунун
-11.4336549591 айкындайт
-11.4336549591 кыпчыкей
-10.7405077785 мээси
-11.4336549591 көбүктү
-11.4336549591 бузбайм
-11.4336549591 кайталанган
-10.7405077785 баштаганынан
-11.4336549591 айыптады
-11.4336549591 билинбе
-10.7405077785 дарман
-11.4336549591 окуганын
-10.3350426704 оокаты
-11.4336549591 сексегей
-11.4336549591 нота
-10.7405077785 союш
-11.4336549591 ашыктыкка
-11.4336549591 айтышуусун
-10.3350426704 тапканына
-11.4336549591 ээрчигиле
-11.4336549591 азгырылдымбы
-10.047360598 колпоч
-10.7405077785 кайнатаңдын
-10.047360598 көтөрүлгөн
-7.79606879935 келет
-11.4336549591 зыңылдатып
-11.4336549591 асканын
-10.3350426704 кошчулардын
-9.82421704664 алымбайга
-9.82421704664 жашырып
-11.4336549591 ичишчү
-5.21306478897 жана
-10.7405077785 туурадан
-10.3350426704 чөбү
-11.4336549591 насыбайын
-11.4336549591 агындыларга
-11.4336549591 жашташ
-11.4336549591 кармачы
-8.60044161502 таластан
-8.38913252135 сунду
-11.4336549591 бетимди
-10.3350426704 ишенемин
-9.48774481002 көрдүм
-11.4336549591 үзөнтүсүн
-9.64189548984 уруп
-10.7405077785 өзгөрүлгөнүн
-11.4336549591 басаңдаганда
-11.4336549591 өтүшүп
-9.35421341739 атасына
-10.3350426704 бышык
-11.4336549591 опуртопурга
-11.4336549591 жыгыласың
-7.39060369124 көк
-11.4336549591 тоскоолдук
-11.4336549591 маңдайдан
-11.4336549591 убактарында
-8.66106623683 күйөө
-10.7405077785 ойдо
-11.4336549591 көлдүк
-11.4336549591 эшекке
-11.4336549591 жупу
-8.79459762946 бооруна
-11.4336549591 сылапсылап
-11.4336549591 дабышыңар
-11.4336549591 кайдыгер
-11.4336549591 кээнинин
-11.4336549591 күбүр
-11.4336549591 карыпка
-10.7405077785 билими
-11.4336549591 жыргашат
-11.4336549591 чыныиы
-10.3350426704 өгүздү
-9.35421341739 чыгарды
-11.4336549591 үшкүрүүнү
-10.7405077785 өрөөнүнө
-11.4336549591 тургузушат
-11.4336549591 когоп
-11.4336549591 аракеттенишет
-10.7405077785 старчындарды
-10.3350426704 эмки
-11.4336549591 кайруунун
-11.4336549591 качыптырбы
-11.4336549591 жасалып
-11.4336549591 эшеклер
-10.7405077785 тигилишти
-9.35421341739 жүрүшөт
-11.4336549591 текшерилип
-11.4336549591 бултактатып
-11.4336549591 оорумун
-10.7405077785 акчий
-10.7405077785 сөзүмө
-10.3350426704 маматтыкына
-10.7405077785 келгендеги
-10.7405077785 башталарда
-9.35421341739 мейманга
-11.4336549591 такап
-11.4336549591 аиылга
-9.35421341739 кызматчы
-10.7405077785 балбан
-11.4336549591 маданияттын
-11.4336549591 жаштарга
-9.35421341739 шек
-11.4336549591 айырбай
-10.7405077785 кызыңды
-11.4336549591 мырзасына
-11.4336549591 таятасына
-11.4336549591 кандым
-9.82421704664 туруучу
-10.3350426704 байкабай
-11.4336549591 баарыжоктун
-11.4336549591 үдөөсүнө
-11.4336549591 аңтарылып
-10.3350426704 ишенбегендей
-11.4336549591 жадай
-11.4336549591 кайтпайт
-10.3350426704 көбөйүп
-10.3350426704 кийинген
-11.4336549591 зарыгып
-11.4336549591 туягың
-11.4336549591 мусапыр
-10.7405077785 албасына
-11.4336549591 кетериңде
-10.3350426704 текке
-10.7405077785 пуд
-11.4336549591 абышкалары
-11.4336549591 кетебиз
-9.82421704664 карызынан
-10.3350426704 кабырга
-11.4336549591 дыйканбай
-10.3350426704 үрөндү
-10.7405077785 ээлерине
-11.4336549591 кангандан
-11.4336549591 баардыгы
-9.13106986608 бактылуу
-11.4336549591 шылдыр
-11.4336549591 өзгөрүлгөидөй
-11.4336549591 жблугушуп
-9.64189548984 өзүңүз
-10.047360598 жарабайт
-10.7405077785 мобу
-8.60044161502 чыдабай
-11.4336549591 айырмаң
-11.4336549591 үйүндөгүлөргө
-9.64189548984 токтолуп
-11.4336549591 жактырбайт
-11.4336549591 апаңды
-11.4336549591 керебетиңе
-11.4336549591 элеттиктер
-10.7405077785 кулагында
-11.4336549591 үйбүлөсүндө
-11.4336549591 жыйналбайтерилбей
-10.047360598 учурады
-8.66106623683 дүйнөдөн
-10.7405077785 алиппе
-10.7405077785 каларын
-11.4336549591 соодагерчиликке
-11.4336549591 күбүрөтүп
-11.4336549591 жаңыртайын
-10.3350426704 байласа
-10.3350426704 шаңкылдаган
-11.4336549591 тойго
-10.7405077785 атат
-11.4336549591 качпайбыз
-7.19954845447 алардын
-11.4336549591 убайыңды
-10.7405077785 максатты
-11.4336549591 экоөбүздү
-11.4336549591 каргадай
-11.4336549591 таратышкан
-11.4336549591 тамашакөйүбү
-11.4336549591 чакырылбагандар
-11.4336549591 ажалдан
-10.7405077785 көлгө
-11.4336549591 жеткирбедик
-11.4336549591 аралагандагы
-11.4336549591 өкүлдөрүнө
-11.4336549591 тоголотконуна
-11.4336549591 калышкандыктанбы
-11.4336549591 карбаласташты
-11.4336549591 заманасы
-11.4336549591 кулунду
-7.6269924693 отура
-10.7405077785 угайын
-11.4336549591 чачылгандай
-11.4336549591 жүрүүнү
-11.4336549591 тынчыйт
-10.7405077785 карыш
-10.3350426704 ондогон
-11.4336549591 орундатууга
-11.4336549591 ачылса
-8.94874830928 абдыракманды
-10.7405077785 коймолжун
-11.4336549591 келиптирби
-11.4336549591 драмада
-11.4336549591 такалган
-11.4336549591 жадырабастан
-11.4336549591 жебеген
-11.4336549591 чыгышканда
-11.4336549591 көрүшүүнү
-11.4336549591 сырттагылар
-7.99966775459 иши
-9.64189548984 аралжы
-10.3350426704 керекпи
-11.4336549591 ылымтага
-10.7405077785 турбастан
-9.48774481002 тынчы
-11.4336549591 ынтыгат
-11.4336549591 уруусунда
-9.64189548984 кайталап
-11.4336549591 алдыдан
-11.4336549591 аңдан
-10.7405077785 уурудан
-8.1014504489 экинчи
-10.7405077785 декрет
-11.4336549591 чычканды
-11.4336549591 аңдыгаңып
-8.34261250571 келгенден
-11.4336549591 атарларын
-11.4336549591 жамбашына
-11.4336549591 кычап
-11.4336549591 көздөрдү
-8.13781809307 жогору
-10.047360598 келиндер
-11.4336549591 жоголгондо
-11.4336549591 ашыңа
-10.3350426704 билгенимди
-10.7405077785 айдашкан
-10.7405077785 тарбалаңдап
-9.35421341739 капшытта
-11.4336549591 булбулдардын
-10.7405077785 берүүсүн
-7.79606879935 акырында
-11.4336549591 жүргүнчүлөрдүн
-11.4336549591 сыйларын
-11.4336549591 актала
-10.7405077785 жыбыраган
-11.4336549591 салмагына
-10.3350426704 көпчүлүк
-11.4336549591 толукшуп
-10.7405077785 жалчылары
-11.4336549591 мурункудаң
-11.4336549591 суусамырды
-11.4336549591 тагыныптыр
-11.4336549591 үзгөн
-10.047360598 сейрек
-10.047360598 тергөө
-11.4336549591 айтыштырмак
-10.7405077785 биялы
-10.3350426704 ойлошту
-11.4336549591 ташбоорлор
-8.29816074314 бийик
-11.4336549591 ойоздун
-10.047360598 аяңдап
-11.4336549591 достун
-11.4336549591 тыйылган
-11.4336549591 сөздөрүнө
-11.4336549591 ойлодум
-11.4336549591 үйрөнүшкөн
-11.4336549591 пейилдик
-11.4336549591 ылдыйлай
-11.4336549591 ичиркенип
-11.4336549591 кызыга
-8.72560475797 өзгөчө
-11.4336549591 ишаратына
-10.7405077785 турмак
-11.4336549591 токтосоңчу
-10.3350426704 шектенбесин
-11.4336549591 мейкини
-10.3350426704 көздүн
-8.34261250571 бирге
-11.4336549591 ырдан
-10.3350426704 өзүндө
-10.7405077785 теректерди
-11.4336549591 төңкөрүп
-11.4336549591 кароого
-11.4336549591 черткенче
-11.4336549591 айланса
-11.4336549591 бетибашыңыздын
-11.4336549591 сураганы
-9.82421704664 кага
-11.4336549591 алдырды
-10.7405077785 ую
-11.4336549591 оштоно
-11.4336549591 чочулайт
-10.047360598 акт
-11.4336549591 бүтөөрү
-10.047360598 айтсам
-11.4336549591 үйүңөрдү
-10.7405077785 бутуңда
-11.4336549591 үзүлгөнүнө
-10.3350426704 салууга
-11.4336549591 оймолжун
-11.4336549591 кармаштарда
-10.047360598 эжелеп
-8.60044161502 келишип
-11.4336549591 начарлай
-9.64189548984 калганы
-11.4336549591 бүгүнкүдөй
-11.4336549591 басылганы
-11.4336549591 уурулуктун
-11.4336549591 ичтеги
-11.4336549591 ойлонто
-11.4336549591 жайнай
-10.3350426704 кызынын
-11.4336549591 апан
-11.4336549591 ыйламсырады
-11.4336549591 жанталашып
-9.82421704664 таятасынын
-11.4336549591 басылгандан
-9.82421704664 келдик
-10.7405077785 атабабасынан
-11.4336549591 канбас
-11.4336549591 ашыкпаган
-11.4336549591 тарбияланган
-11.4336549591 кагазына
-11.4336549591 петербургка
-8.48921597991 жигитке
-8.60044161502 алыс
-11.4336549591 ойлонбосо
-10.7405077785 качканым
-9.48774481002 селт
-11.4336549591 табылгаларга
-11.4336549591 бергенинен
-11.4336549591 ушакайыңдар
-11.4336549591 кыруусуна
-11.4336549591 ошонукундай
-11.4336549591 дубадан
-11.4336549591 абал
-11.4336549591 нурга
-11.4336549591 сыйда
-11.4336549591 молдолордо
-11.4336549591 жыбыратканы
-8.60044161502 уулунун
-9.35421341739 ачылып
-11.4336549591 жантакбайдыкына
-10.7405077785 кучактады
-11.4336549591 чүкө
-9.23643038174 секретары
-11.4336549591 жалтанткан
-11.4336549591 ачканга
-11.4336549591 кагышып
-11.4336549591 козүн
-11.4336549591 жаакты
-9.82421704664 кайтты
-11.4336549591 эдирейип
-10.7405077785 атаса
-11.4336549591 кошулушу
-11.4336549591 чулдур
-10.047360598 таштаган
-11.4336549591 жеткендер
-11.4336549591 ымдашып
-11.4336549591 көксулууга
-11.4336549591 адырды
-9.23643038174 устатынын
-11.4336549591 бакырыкты
-11.4336549591 барпыны
-11.4336549591 козгобогула
-11.4336549591 бошотууга
-9.23643038174 чокту
-9.23643038174 балдарга
-11.4336549591 жигитине
-11.4336549591 кедейлерин
-11.4336549591 күчсүз
-10.047360598 токтоткон
-11.4336549591 алдайт
-11.4336549591 болушуңар
-10.7405077785 насиби
-11.4336549591 шиберлүү
-11.4336549591 комсомолго
-9.64189548984 абышканы
-9.35421341739 ээрчий
-10.3350426704 шаардын
-10.7405077785 жыйында
-10.7405077785 жайнатып
-10.7405077785 саяпкер
-10.3350426704 отуруучу
-11.4336549591 төбөл
-10.7405077785 бергендиктен
-11.4336549591 үйлөгөн
-11.4336549591 жарчынын
-11.4336549591 зеригүүдөн
-11.4336549591 кысталыш
-10.7405077785 күндөрдөн
-11.4336549591 кетерин
-11.4336549591 сааны
-11.4336549591 өндүрүү
-11.4336549591 түрүшөт
-11.4336549591 төркүнүнөн
-11.4336549591 жеткизбей
-10.7405077785 олуяатадагы
-10.7405077785 буюму
-10.047360598 мунуң
-11.4336549591 атчандын
-11.4336549591 барпы
-11.4336549591 колдорундагы
-11.4336549591 прогресс
-9.48774481002 баатырдын
-11.4336549591 бешмант
-10.7405077785 кайдандыр
-8.48921597991 жакта
-11.4336549591 уятсыйытты
-11.4336549591 окуясын
-11.4336549591 унщнтип
-11.4336549591 сүйлөшкөндөр
-10.7405077785 жетелешип
-10.7405077785 такалышат
-9.35421341739 кайтарды
-11.4336549591 түшүнөн
-11.4336549591 дува
-10.7405077785 жоголдуң
-11.4336549591 нысабы
-10.3350426704 ушулбу
-10.7405077785 тартканы
-8.06635912909 атка
-11.4336549591 өзүңдүкү
-11.4336549591 кайнадыбы
-11.4336549591 кудалуу
-11.4336549591 лду
-11.4336549591 кылаңгыр
-10.047360598 кыраакы
-11.4336549591 тамында
-11.4336549591 кыймылдын
-11.4336549591 акылдагы
-11.4336549591 кутулмак
-10.7405077785 шыңгырап
-11.4336549591 күткөнүн
-11.4336549591 өзгөрүш
-10.7405077785 кыбыраган
-9.48774481002 дөбөгө
-11.4336549591 бузбаган
-11.4336549591 элинен
-10.7405077785 бөлүнгөнү
-8.79459762946 тартты
-9.23643038174 десем
-9.82421704664 малай
-11.4336549591 шамшыкал
-10.3350426704 байлаштырып
-9.23643038174 куп
-10.047360598 тике
-10.3350426704 ыя
-11.4336549591 үйрүдү
-11.4336549591 карыздан
-11.4336549591 колкосун
-11.4336549591 болгончо
-11.4336549591 катыкты
-11.4336549591 шаңкылдап
-11.4336549591 укпагандар
-9.64189548984 мүчөсү
-7.33931039685 аккыз
-11.4336549591 кетишпейт
-11.4336549591 саргара
-10.7405077785 мамиле
-10.7405077785 эскертип
-9.64189548984 жаңырып
-10.7405077785 жактырат
-11.4336549591 сыйларына
-11.4336549591 караңгычылыкка
-10.7405077785 түшүштү
-11.4336549591 мелодиясына
-10.7405077785 туугандардын
-11.4336549591 тирүүлүктон
-10.7405077785 эптүүлүгүн
-11.4336549591 кайрыганы
-11.4336549591 кажетсиздигин
-7.33931039685 таң
-9.82421704664 келме
-10.047360598 чыныгы
-11.4336549591 китепте
-11.4336549591 шылдыңдоочу
-10.3350426704 кызматын
-10.3350426704 насаа
-9.23643038174 ырчынын
-9.48774481002 таптакыр
-10.7405077785 биринчиден
-11.4336549591 иемесиңер
-11.4336549591 камалганына
-8.66106623683 капкачан
-11.4336549591 келищет
-11.4336549591 чолуп
-10.7405077785 аздыркөптүр
-11.4336549591 күмбөзүнө
-11.4336549591 мактаган
-11.4336549591 чөнтөгүңөн
-10.7405077785 аңгемелешип
-11.4336549591 тамашада
-10.7405077785 тамырдын
-10.7405077785 кочкор
-10.3350426704 катынына
-11.4336549591 айтпайсың
-9.64189548984 келгени
-11.4336549591 секетпайды
-11.4336549591 буркуратышып
-9.82421704664 кантет
-9.23643038174 айтканда
-10.7405077785 калабыз
-10.3350426704 көбөйдү
-11.4336549591 ээрчитери
-11.4336549591 терикти
-11.4336549591 оңбогурлар
-8.43792268552 ашык
-11.4336549591 ченей
-8.94874830928 ара
-11.4336549591 жемелешип
-11.4336549591 мамилеге
-11.4336549591 кышкысын
-10.3350426704 жайык
-7.79606879935 комуздун
-11.4336549591 чыңырып
-11.4336549591 куштун
-8.03245757741 кыздын
-10.047360598 кучагын
-11.4336549591 өкматына
-11.4336549591 борчуктап
-8.1014504489 көзгө
-10.7405077785 көнөр
-11.4336549591 бектенбылтыртан
-11.4336549591 чарчагандыкы
-11.4336549591 созулат
-11.4336549591 кекиликтерди
-11.4336549591 көтөрүлөт
-11.4336549591 аштойсуз
-9.23643038174 келчү
-11.4336549591 жетимиштен
-9.64189548984 көккашат
-11.4336549591 бетибашы
-9.23643038174 оору
-11.4336549591 азчылыгы
-10.3350426704 жуучу
-9.82421704664 кошумча
-11.4336549591 кылышса
-11.4336549591 сагынганымды
-9.23643038174 сайма
-11.4336549591 агайынтууганынын
-10.7405077785 болгонбу
-11.4336549591 опосуздугун
-8.13781809307 баштаганда
-9.13106986608 келиши
-11.4336549591 сакалмурутун
-9.13106986608 боромбай
-10.7405077785 көрүшкөндө
-11.4336549591 жалкпаган
-11.4336549591 ташкенттен
-11.4336549591 ушудур
-11.4336549591 улутунду
-8.79459762946 мыктыбек
-11.4336549591 токтолсун
-11.4336549591 натыйжасын
-11.4336549591 акылманды
-10.047360598 тигилер
-11.4336549591 бодур
-10.3350426704 колотко
-11.4336549591 дегенсиген
-11.4336549591 өнөрпостун
-10.7405077785 урганы
-11.4336549591 тукумун
-10.7405077785 ирмебей
-10.7405077785 уланткан
-11.4336549591 белгиленди
-8.66106623683 абышканын
-11.4336549591 бетмаңдайынан
-11.4336549591 аздык
-11.4336549591 жайгаш
-11.4336549591 шариятта
-11.4336549591 түгөнбөсүн
-11.4336549591 көңүлдөн
-10.047360598 жөргөлөк
-11.4336549591 жашоосундай
-11.4336549591 сакталчу
-11.4336549591 коолдоп
-11.4336549591 нйчего
-8.86870560161 сенден
-11.4336549591 сураганча
-10.7405077785 какшып
-10.047360598 жайжайына
-11.4336549591 каптырган
-10.3350426704 кымтыланып
-9.48774481002 ачуусун
-11.4336549591 агаңдын
-11.4336549591 берилгендиги
-10.3350426704 абышкасын
-11.4336549591 жылдарында
-10.3350426704 телмирип
-11.4336549591 мөңгү
-10.3350426704 тынчый
-11.4336549591 кырчада
-11.4336549591 кесилип
-10.7405077785 олкусолку
-11.4336549591 анкеталык
-11.4336549591 өбөк
-10.7405077785 дидарына
-11.4336549591 ысыганын
-11.4336549591 балдарыңызга
-11.4336549591 достошкончо
-11.4336549591 жыйрылганда
-11.4336549591 чыгарууга
-10.3350426704 сибирдин
-11.4336549591 кишисинен
-10.7405077785 өнөрүнө
-10.7405077785 быякка
-10.7405077785 туруңуз
-9.35421341739 чалып
-11.4336549591 камынтпай
-9.82421704664 чаң
-11.4336549591 саламы
-10.047360598 арык
-9.64189548984 уюн
-11.4336549591 коңкоюп
-11.4336549591 мылтыктарын
-8.86870560161 кадимкидей
-9.23643038174 билбейт
-11.4336549591 кошогундай
-11.4336549591 дубасын
-10.7405077785 тамырлары
-11.4336549591 барктаган
-11.4336549591 душмандар
-11.4336549591 керилипчоюлуп
-10.3350426704 дүүлүгүштү
-10.7405077785 байкем
-11.4336549591 кармаштырып
-10.7405077785 козголбой
-11.4336549591 коркушпайт
-7.19954845447 үйдүн
-8.66106623683 ысык
-9.48774481002 шерменде
-11.4336549591 прокуроруна
-11.4336549591 мемирөөдө
-11.4336549591 майдаланып
-11.4336549591 коон
-11.4336549591 сабадай
-11.4336549591 азбаган
-10.7405077785 таянеси
-10.7405077785 акмат
-11.4336549591 кармаганкармабаганың
-11.4336549591 кабарланды
-9.35421341739 атым
-11.4336549591 аткармай
-10.3350426704 өздөрүнүн
-10.047360598 жүк
-9.82421704664 кестини
-10.3350426704 атагын
-11.4336549591 шакектерин
-11.4336549591 букжуюшуп
-10.3350426704 турмушундагы
-11.4336549591 бурулчадан
-11.4336549591 топуну
-10.7405077785 көрүнсө
-11.4336549591 чубашты
-11.4336549591 кырс
-11.4336549591 сүзүлгөн
-11.4336549591 тыңлаңыздар
-11.4336549591 кубаттанмак
-10.7405077785 кичирээк
-10.047360598 зарын
-11.4336549591 колуктусунун
-11.4336549591 зыркырап
-9.64189548984 чымчык
-10.7405077785 аралаган
-11.4336549591 тойбосо
-10.7405077785 кармашкан
-11.4336549591 каздар
-10.047360598 бектенге
-11.4336549591 жумуштун
-11.4336549591 ардактайт
-10.7405077785 солтонун
-11.4336549591 жарды
-11.4336549591 норузбай
-11.4336549591 унутту
-11.4336549591 зткен
-11.4336549591 жайына
-11.4336549591 бүркөлсө
-11.4336549591 кичүүлөр
-11.4336549591 жооткото
-11.4336549591 барактар
-10.3350426704 ана
-10.7405077785 болсок
-10.3350426704 армандамын
-11.4336549591 койгонсуң
-11.4336549591 учканын
-11.4336549591 куушкан
-9.64189548984 оттун
-11.4336549591 чырайлык
-11.4336549591 кармашпай
-11.4336549591 оомииин
-11.4336549591 коюшунун
-11.4336549591 карабас
-10.047360598 балдарын
-10.7405077785 убактарда
-11.4336549591 драманын
-10.7405077785 күлкүлөрү
-7.15698884006 мени
-10.7405077785 дебейсиңби
-11.4336549591 салбар
-11.4336549591 кызысың
-10.3350426704 театрдын
-11.4336549591 какырчикир
-11.4336549591 жаңылса
-10.7405077785 ассаломалейкум
-11.4336549591 музоо
-11.4336549591 ишенүү
-7.67245484338 маматтын
-11.4336549591 калети
-11.4336549591 татыбайт
-11.4336549591 басылыи
-11.4336549591 камчым
-7.74477550496 жанында
-9.48774481002 бөлүндү
-11.4336549591 шалкылдап
-11.4336549591 өлгүлө
-10.7405077785 билүүгө
-10.7405077785 байтик
-9.64189548984 кабат
-11.4336549591 таткан
-10.7405077785 тийбеген
-11.4336549591 рыскулбектин
-11.4336549591 койбоймго
-11.4336549591 чертилет
-10.7405077785 ооздугун
-10.7405077785 токтоло
-9.13106986608 жүрөм
-9.23643038174 судья
-11.4336549591 аманэсендикти
-11.4336549591 кечиришип
-11.4336549591 жүгүрө
-11.4336549591 убадаң
-8.06635912909 дабышы
-10.7405077785 чепкенинин
-11.4336549591 салмайынча
-11.4336549591 мүчө
-11.4336549591 тайын
-10.7405077785 коер
-11.4336549591 бозочулардын
-11.4336549591 токолунан
-11.4336549591 кутулса
-11.4336549591 тааныбастык
-11.4336549591 тандалды
-11.4336549591 кимдигин
-10.7405077785 карыжаш
-10.3350426704 жылчык
-11.4336549591 кесилишинен
-10.7405077785 атабаладай
-7.69598534079 салам
-11.4336549591 күңгүрөнө
-11.4336549591 жайылтууга
-11.4336549591 дөөнүн
-10.3350426704 кылчайып
-10.7405077785 жалын
-11.4336549591 тоолордон
-11.4336549591 ыбрай
-11.4336549591 чыгармаларынын
-7.60501356258 деле
-11.4336549591 талашууга
-11.4336549591 жаңыртпагандан
-11.4336549591 буямасы
-11.4336549591 кудайым
-11.4336549591 убайымдуу
-11.4336549591 дабышыңды
-11.4336549591 аянган
-9.48774481002 сурайт
-11.4336549591 музыканы
-11.4336549591 тамгалардын
-9.35421341739 каалаган
-11.4336549591 агышына
-10.047360598 майдамайда
-11.4336549591 саргайгап
-11.4336549591 кийимдей
-11.4336549591 тыңырагын
-11.4336549591 алдастабай
-9.03575968627 пайда
-10.3350426704 сүртүндү
-8.03245757741 а
-10.047360598 окуяга
-11.4336549591 кайруусуна
-11.4336549591 кыштоосу
-10.3350426704 байкалат
-10.7405077785 коңшу
-11.4336549591 катышпайт
-10.3350426704 дасторконго
-11.4336549591 кыйылышып
-11.4336549591 учураштым
-11.4336549591 жалчылардан
-11.4336549591 сүрткөн
-11.4336549591 маанилүү
-10.7405077785 уурулук
-11.4336549591 отурушкандар
-8.54328320118 эгин
-9.48774481002 күбүрөп
-8.2147791342 күтүп
-10.047360598 бэ
-11.4336549591 аттабай
-11.4336549591 кайрыктын
-11.4336549591 өлгөнүнө
-10.7405077785 койгонуна
-9.13106986608 дейм
-10.047360598 тарыхын
-11.4336549591 чангандыр
-11.4336549591 узаган
-11.4336549591 оюнчындын
-11.4336549591 каржайган
-9.13106986608 жашоо
-9.35421341739 терип
-10.3350426704 жолуңар
-10.3350426704 жамандык
-10.047360598 үшкүрдү
-10.7405077785 ийменбей
-11.4336549591 соет
-11.4336549591 диртилдеп
-9.03575968627 ырдап
-11.4336549591 шилекей
-11.4336549591 алыстабайт
-11.4336549591 айылдагыларга
-10.3350426704 келишинен
-9.48774481002 жоругу
-11.4336549591 валейкумаассалом
-11.4336549591 жашырганы
-11.4336549591 ырдоо
-11.4336549591 жарлыкта
-11.4336549591 азуулууга
-10.3350426704 тирелишип
-11.4336549591 кыялдан
-11.4336549591 курмандыкка
-11.4336549591 чочулабай
-11.4336549591 элечегине
-9.64189548984 үйүрү
-6.66297033461 жаш
-7.85013602062 жагынан
-10.7405077785 кыякчы
-10.3350426704 күүсүнүн
-11.4336549591 куйкасын
-11.4336549591 бакырыгы
-10.3350426704 ичигинин
-11.4336549591 басаңдатуу
-11.4336549591 досуңду
-11.4336549591 жумуштар
-10.7405077785 алтындай
-9.23643038174 суусу
-10.7405077785 түзөлүп
-10.047360598 айтуудан
-11.4336549591 жорукпу
-11.4336549591 талаадагы
-10.7405077785 магдырап
-11.4336549591 үзөнгү
-9.48774481002 ажырап
-10.047360598 азамат
-10.7405077785 байтал
-11.4336549591 сырдашууга
-10.3350426704 кучагынан
-9.03575968627 көчүп
-11.4336549591 көккашаттын
-10.3350426704 чака
-11.4336549591 өкүлдүн
-11.4336549591 аккызды
-11.4336549591 созолонтчу
-11.4336549591 шытырап
-8.25560112872 анатолий
-11.4336549591 окумуштуу
-11.4336549591 учурундай
-9.82421704664 суусуну
-11.4336549591 таягы
-10.7405077785 аракеттенген
-10.7405077785 баштыктагы
-11.4336549591 учурашалычы
-11.4336549591 тасырайып
-11.4336549591 карыгандыгы
-11.4336549591 батынабы
-8.29816074314 чор
-11.4336549591 ашырып
-11.4336549591 чаткалдан
-10.047360598 күтүүгө
-10.7405077785 беришип
-10.7405077785 аска
-11.4336549591 өзгөрүшүн
-11.4336549591 каягыман
-11.4336549591 талылуу
-10.7405077785 кыялда
-10.3350426704 улагага
-11.4336549591 корукка
-11.4336549591 жашыган
-10.3350426704 иче
-11.4336549591 таалайын
-11.4336549591 ичитышынан
-11.4336549591 окутуудан
-11.4336549591 токуду
-11.4336549591 тарткынчыктайт
-11.4336549591 кыяпат
-11.4336549591 драмга
-11.4336549591 амалдуу
-11.4336549591 атасам
-11.4336549591 агасына
-11.4336549591 белестерге
-10.047360598 жадаганда
-11.4336549591 чаңга
-11.4336549591 нен
-8.54328320118 минтип
-10.047360598 жүрөгүнөн
-11.4336549591 соорусу
-11.4336549591 таарынчы
-11.4336549591 салышып
-9.13106986608 молдоке
-9.64189548984 көйнөк
-11.4336549591 чертиштирет
-11.4336549591 маңгинин
-11.4336549591 айылыңа
-9.48774481002 алек
-10.7405077785 идишаяктары
-11.4336549591 шкаф
-11.4336549591 колдой
-11.4336549591 түгөнткөнчө
-11.4336549591 шашылганынан
-11.4336549591 бошотпойсуңар
-11.4336549591 жаралганбы
-11.4336549591 чамалай
-10.7405077785 аманэсенби
-11.4336549591 өлүгүнөн
-10.047360598 сергек
-10.7405077785 журттан
-11.4336549591 күрмөм
-10.7405077785 тамдын
-11.4336549591 аңгемелешүүгө
-8.86870560161 көйрөң
-10.7405077785 каеринен
-10.7405077785 сөөмөйү
-9.82421704664 обон
-8.06635912909 күүсүн
-11.4336549591 желпжелп
-7.6269924693 комузду
-10.7405077785 сумсайып
-10.7405077785 жаңылган
-11.4336549591 табылбагансыды
-10.7405077785 сөзүндө
-9.64189548984 аккыздын
-11.4336549591 топчулана
-11.4336549591 каражаттарды
-11.4336549591 сүйдү
-11.4336549591 намыстанды
-6.91186638202 отуруп
-11.4336549591 толкунданыа
-11.4336549591 тилден
-10.7405077785 түпсүз
-11.4336549591 топтолушуптур
-11.4336549591 бубакты
-11.4336549591 жө
-11.4336549591 кабыргасы
-11.4336549591 булактан
-10.3350426704 каракол
-11.4336549591 келечекте
-11.4336549591 огундай
-11.4336549591 чалынбайлы
-10.7405077785 тапыраган
-11.4336549591 чайын
-10.7405077785 күндөгүдөй
-7.99966775459 токтогулдун
-11.4336549591 түшпөгөнүн
-11.4336549591 кубанчу
-10.7405077785 ылымта
-9.82421704664 билдирип
-9.82421704664 койгондо
-9.35421341739 кан
-11.4336549591 кезеги
-8.79459762946 атайын
-9.82421704664 күйөөсүнөн
-9.35421341739 күлүштү
-9.82421704664 далдаланып
-11.4336549591 алышчу
-11.4336549591 копшоп
-11.4336549591 кийиминен
-10.7405077785 жоголгонун
-8.25560112872 үйү
-11.4336549591 ылаалап
-11.4336549591 бурган
-11.4336549591 копсун
-10.7405077785 эстегендей
-11.4336549591 ээликтирет
-11.4336549591 баскансыды
-11.4336549591 мингизин
-11.4336549591 баштарынын
-11.4336549591 мээнеттерди
-11.4336549591 кетпесин
-10.3350426704 кайрап
-10.7405077785 анжы
-11.4336549591 консерваторияга
-11.4336549591 дусман
-10.7405077785 буудан
-11.4336549591 чолпондой
-11.4336549591 ээрчишкен
-11.4336549591 талашпай
-11.4336549591 эженин
-11.4336549591 башталар
-11.4336549591 чакырылгандардын
-8.48921597991 эс
-11.4336549591 насыбайдан
-11.4336549591 көргөнүңөргө
-9.35421341739 ошончо
-10.7405077785 элегиң
-10.7405077785 эмитен
-11.4336549591 баштанган
-11.4336549591 ызамын
-11.4336549591 көрүнгөндөн
-9.03575968627 тиричилик
-11.4336549591 кыңгырата
-10.3350426704 бериши
-9.48774481002 үчүнчү
-11.4336549591 тамгаларын
-10.7405077785 келгилечи
-11.4336549591 германдан
-10.7405077785 койбойбу
-8.86870560161 иштеген
-11.4336549591 келишине
-7.79606879935 боло
-11.4336549591 кайтпоочудай
-10.3350426704 солто
-11.4336549591 кейибейт
-11.4336549591 карыядан
-11.4336549591 жаткандар
-8.72560475797 ичип
-10.3350426704 дүбүрт
-11.4336549591 сейи
-10.3350426704 жомокко
-11.4336549591 калыңдан
-11.4336549591 кылышып
-10.7405077785 унчукту
-11.4336549591 бекерчиликтин
-11.4336549591 каалоосундай
-6.85894398057 барып
-10.7405077785 өскүлөң
-10.3350426704 оозуңа
-11.4336549591 сыйлагысы
-11.4336549591 эңкейишти
-11.4336549591 атышып
-11.4336549591 көндүрө
-10.7405077785 теңдүү
-11.4336549591 осуятын
-11.4336549591 муңбас
-9.64189548984 мурдун
-11.4336549591 кампайып
-9.82421704664 кем
-9.23643038174 жоргону
-11.4336549591 наам
-11.4336549591 жалчысын
-11.4336549591 агасын
-8.94874830928 айлына
-11.4336549591 папирос
-11.4336549591 толтур
-10.3350426704 чымыр
-11.4336549591 илгеркилердин
-11.4336549591 өтүүчү
-11.4336549591 койдуруп
-10.7405077785 чарчап
-11.4336549591 чакырт
-11.4336549591 короокороо
-9.82421704664 сөзмөр
-10.7405077785 карылык
-10.7405077785 жетеледи
-10.7405077785 чалкалай
-11.4336549591 мудаасын
-11.4336549591 жомокту
-7.85013602062 бекен
-11.4336549591 бышыруу
-10.047360598 суроолорго
-9.82421704664 оокатты
-11.4336549591 секет
-9.64189548984 жетим
-11.4336549591 ачынган
-10.7405077785 бүткөнсүп
-10.047360598 бересиңби
-6.71515608778 го
-10.7405077785 угалы
-10.047360598 жеримди
-10.3350426704 эртелеп
-11.4336549591 жарыбады
-11.4336549591 билдиреби
-10.3350426704 кебетесине
-11.4336549591 таанылганда
-11.4336549591 күмбөздүң
-11.4336549591 коболоңго
-10.047360598 көтөрүңкү
-10.3350426704 үнүнө
-11.4336549591 кетсем
-9.64189548984 күүлөрдү
-11.4336549591 түшүнгөнүнө
-11.4336549591 комузчуда
-11.4336549591 барпысы
-10.7405077785 шаарында
-9.48774481002 жүз
-10.7405077785 абийири
-11.4336549591 күрөшү
-10.3350426704 жайкалып
-9.35421341739 былк
-6.64616321629 жигит
-10.7405077785 ойлошсо
-11.4336549591 мурункусуна
-11.4336549591 тапыртупур
-11.4336549591 күүтүм
-11.4336549591 маананын
-11.4336549591 майдандуу
-10.3350426704 күрөшүү
-10.7405077785 сурмалуу
-9.48774481002 жем
-11.4336549591 түйшүктөн
-8.34261250571 айылдагы
-11.4336549591 кейүүчү
-11.4336549591 кагуучу
-8.79459762946 күндөн
-11.4336549591 чыгыптырбы
-11.4336549591 рөзидеңциясында
-11.4336549591 мончогун
-11.4336549591 атасысың
-11.4336549591 шам
-10.047360598 кыштактын
-11.4336549591 тамашаңар
-10.047360598 күнөө
-11.4336549591 соороторлук
-11.4336549591 кыркына
-10.7405077785 ушуга
-10.7405077785 болоюнум
-9.82421704664 жумадан
-11.4336549591 тымпыйды
-11.4336549591 кажылдашуулар
-11.4336549591 тарп
-11.4336549591 эртедиркечтир
-11.4336549591 көлбүп
-10.7405077785 жарашат
-10.3350426704 бөлө
-11.4336549591 ансалкын
-9.82421704664 курбу
-10.3350426704 калбаган
-10.7405077785 катышат
-9.82421704664 жар
-11.4336549591 жазаңды
-9.03575968627 көптөн
-11.4336549591 эңишти
-11.4336549591 тактысы
-11.4336549591 акысыз
-11.4336549591 көпчүлүктө
-11.4336549591 тартыштыгынан
-10.7405077785 басыла
-11.4336549591 дайындап
-10.3350426704 бактысын
-11.4336549591 сапсайып
-11.4336549591 кечем
-11.4336549591 чыбыктай
-11.4336549591 алыстаган
-11.4336549591 тунукелүү
-11.4336549591 болышевиктер
-11.4336549591 абдыракмандай
-11.4336549591 ойлонгонсуп
-11.4336549591 чыгармачылыгы
-11.4336549591 отургузса
-10.3350426704 киргиле
-10.047360598 жылдардан
-11.4336549591 имесе
-11.4336549591 көтөрүлгөндө
-11.4336549591 айдоолордун
-11.4336549591 корккону
-11.4336549591 көнүмүшкө
-11.4336549591 чыртылдактарынын
-11.4336549591 бөксөргөн
-10.7405077785 келгендерге
-11.4336549591 табылбаганы
-11.4336549591 берекелүүлүгү
-10.7405077785 алдым
-11.4336549591 нукушуунун
-11.4336549591 капканынан
-11.4336549591 тактайланбаган
-10.7405077785 мансаптан
-11.4336549591 илешпей
-9.23643038174 кайнап
-10.7405077785 чакырышчу
-10.7405077785 толкундады
-11.4336549591 казсаң
-11.4336549591 насибим
-11.4336549591 жакпаган
-11.4336549591 түпгунүшүп
-11.4336549591 коңшусу
-11.4336549591 көрөңгөсүнүн
-11.4336549591 тартпа
-11.4336549591 чегелери
-10.7405077785 табакка
-11.4336549591 толгогондо
-10.047360598 чертиши
-11.4336549591 көмөкөйдөн
-10.3350426704 коболоң
-11.4336549591 болуштукуна
-10.7405077785 чоңдоруна
-11.4336549591 дселди
-11.4336549591 жашынын
-11.4336549591 кимисинде
-11.4336549591 болгондугуна
-11.4336549591 конушубуз
-11.4336549591 дептерин
-11.4336549591 кызылбаштарга
-11.4336549591 алакташты
-11.4336549591 арбайыпсарбайып
-10.3350426704 базардын
-11.4336549591 жердегилер
-11.4336549591 ракатка
-11.4336549591 бололу
-8.48921597991 жолго
-11.4336549591 окчун
-11.4336549591 өнө
-9.48774481002 николай
-11.4336549591 караниеттүүлүгү
-10.3350426704 саздын
-11.4336549591 душмандарды
-11.4336549591 кулагандай
-11.4336549591 жазаланышты
-10.3350426704 кашкайып
-8.2147791342 учурда
-11.4336549591 жайгарып
-11.4336549591 калбоо
-11.4336549591 бышыкчыйрактыгында
-10.7405077785 чапаны
-11.4336549591 кандидатура
-11.4336549591 талантынын
-9.03575968627 балдарды
-10.7405077785 жилик
-11.4336549591 көргөнбилгенимди
-10.7405077785 окусаңар
-11.4336549591 кысынып
-10.7405077785 элекмин
-11.4336549591 аңлына
-10.7405077785 революциячыл
-11.4336549591 жайылууда
-11.4336549591 беркинин
-11.4336549591 жакынсынтып
-10.7405077785 көзүң
-11.4336549591 чокмор
-9.35421341739 тагдыры
-11.4336549591 эриништи
-11.4336549591 баракка
-11.4336549591 жетиптирби
-11.4336549591 ыргытышсын
-11.4336549591 билерсиз
-10.7405077785 олда
-10.047360598 кетем
-11.4336549591 комузчусун
-10.7405077785 эңгидеңги
-10.7405077785 кампадан
-9.64189548984 суроону
-11.4336549591 жагылганча
-10.047360598 кээрдүү
-11.4336549591 чакырдың
-11.4336549591 ыпласка
-11.4336549591 акылдуумун
-10.7405077785 теңдиги
-10.7405077785 басам
-10.3350426704 жолдоштор
-11.4336549591 турбаса
-10.3350426704 малайы
-6.8903601768 болгон
-11.4336549591 ыймандай
-10.3350426704 билгендерин
-9.13106986608 уулжандын
-11.4336549591 сугалактар
-10.3350426704 шайы
-11.4336549591 эмй
-11.4336549591 түртүшөр
-11.4336549591 жапжаңы
-11.4336549591 тандоону
-11.4336549591 чочколугу
-10.047360598 кантсин
-9.82421704664 эрдикатын
-10.3350426704 милицияга
-11.4336549591 бап
-7.87830689758 ыраазы
-11.4336549591 коломтодогу
-9.64189548984 зыйнатты
-10.7405077785 жая
-10.7405077785 кулач
-9.64189548984 тааныды
-10.3350426704 комузчумун
-11.4336549591 бурулуштары
-11.4336549591 апасын
-11.4336549591 жүгөндөрдү
-11.4336549591 отк
-11.4336549591 аткарганын
-10.7405077785 тийбегей
-11.4336549591 эскертишти
-7.44467091251 колун
-11.4336549591 жолдошторуман
-10.7405077785 албасаң
-11.4336549591 мес
-9.23643038174 отургузуп
-8.94874830928 отурушат
-11.4336549591 илгериледи
-11.4336549591 кармайбыз
-9.82421704664 жаныма
-10.3350426704 бизде
-11.4336549591 жоргодой
-10.7405077785 дайындай
-9.23643038174 токойду
-10.7405077785 таанууга
-8.13781809307 түшүндү
-10.7405077785 жаштыгы
-10.3350426704 турмушуна
-11.4336549591 жаныбыздан
-10.3350426704 болобуз
-11.4336549591 таятамдыкына
-11.4336549591 чочутуп
-9.35421341739 кыргызча
-11.4336549591 айылдаш
-11.4336549591 кызыкпасаң
-10.7405077785 билесизби
-11.4336549591 тойлорго
-10.3350426704 сай
-10.3350426704 багытка
-11.4336549591 кийинтсе
-8.66106623683 ыракмат
-11.4336549591 буруксуган
-9.48774481002 кубаныч
-11.4336549591 керөз
-11.4336549591 буудайдын
-11.4336549591 справкасы
-11.4336549591 эрегишүү
-11.4336549591 эрдигине
-11.4336549591 артыла
-11.4336549591 ажырашып
-9.82421704664 таянып
-11.4336549591 жарыган
-9.13106986608 жокто
-11.4336549591 мурунтугун
-10.3350426704 басышты
-10.7405077785 көчүгүн
-10.3350426704 өлөм
-9.03575968627 карып
-10.7405077785 ырдабай
-11.4336549591 конушум
-11.4336549591 электей
-10.7405077785 бетке
-11.4336549591 башталгансыды
-8.79459762946 оозуна
-11.4336549591 балабакыралуу
-10.3350426704 николайдын
-11.4336549591 жүрбөйлү
-9.35421341739 нааразы
-11.4336549591 элдйн
-9.48774481002 каткырып
-11.4336549591 көрсүнчү
-10.3350426704 кедейдин
-11.4336549591 ойлонушпайт
-11.4336549591 үшкүргөн
-10.7405077785 барганча
-11.4336549591 шак
-11.4336549591 коркогун
-9.03575968627 бүттү
-11.4336549591 кобуроо
-11.4336549591 шишигенче
-11.4336549591 күнчө
-10.7405077785 түшүнсүн
-10.7405077785 кайыштырган
-10.3350426704 ээрчиген
-10.047360598 коңшулаш
-11.4336549591 калбайбы
-11.4336549591 мывдай
-10.7405077785 сөлкөбайды
-11.4336549591 саятчы
-10.047360598 тартканда
-11.4336549591 эбин
-11.4336549591 жолуккандан
-11.4336549591 чогу
-11.4336549591 кетпегендиги
-11.4336549591 кыянат
-11.4336549591 тумагына
-10.7405077785 жолугушуу
-10.7405077785 билиңиз
-10.7405077785 дүңк
-10.7405077785 паанайын
-10.7405077785 буурадай
-11.4336549591 өттүм
-11.4336549591 жайкалтып
-11.4336549591 толгоно
-11.4336549591 бекемдеп
-11.4336549591 жеткирбей
-11.4336549591 сүрөтүн
-11.4336549591 алдуурак
-10.3350426704 садага
-8.38913252135 таш
-11.4336549591 мүдөөсүн
-10.3350426704 айрылган
-10.3350426704 жолдошуна
-10.047360598 уктабай
-9.64189548984 түбү
-11.4336549591 ынанарлык
-8.25560112872 башында
-10.7405077785 жорудан
-6.22416880623 ким
-11.4336549591 жанышбайышты
-11.4336549591 ажырабайт
-11.4336549591 сүгйлөшүп
-11.4336549591 тынчтангыла
-9.64189548984 буттары
-11.4336549591 коштошордо
-10.7405077785 манаптарынын
-11.4336549591 каалайбы
-10.7405077785 бүкүдүкү
-9.64189548984 кургакчылык
-11.4336549591 көрдүңөр
-11.4336549591 кыздарды
-11.4336549591 коноору
-10.7405077785 мандатың
-11.4336549591 айлыма
-10.3350426704 кызылтазыл
-11.4336549591 эсибизге
-8.94874830928 деги
-11.4336549591 убарасы
-11.4336549591 күрдөөлдүү
-11.4336549591 айкын
-8.72560475797 унутуп
-10.047360598 сүйлөшкүсү
-9.35421341739 таштын
-11.4336549591 алышууга
-11.4336549591 жадагандары
-11.4336549591 көнбөгөн
-10.3350426704 сүйлөйт
-11.4336549591 тургулачы
-9.35421341739 таасир
-11.4336549591 музыканттары
-10.7405077785 эсинен
-11.4336549591 келцпкетип
-11.4336549591 барактаарда
-10.7405077785 байге
-11.4336549591 тамырларына
-11.4336549591 капшытка
-11.4336549591 төркүнгө
-7.18515971702 чейин
-10.047360598 келатканын
-11.4336549591 ченинде
-11.4336549591 чечтирип
-10.3350426704 өлөрчө
-11.4336549591 күлмүңдөгөн
-11.4336549591 падышалы
-11.4336549591 аптмайынча
-9.35421341739 биринен
-10.7405077785 катнашы
-11.4336549591 чиновник
-11.4336549591 кеңешмек
-11.4336549591 карбаластатып
-11.4336549591 чогулушун
-10.047360598 элдики
-11.4336549591 жылбады
-11.4336549591 бакалдары
-9.64189548984 ойной
-11.4336549591 үйлөнүүмдү
-8.60044161502 көрүнүп
-10.7405077785 ишеним
-11.4336549591 айдоодон
-11.4336549591 айдасаңар
-8.79459762946 алтын
-10.7405077785 комузда
-10.7405077785 жылдыздар
-8.86870560161 эмнени
-11.4336549591 ителгинин
-10.7405077785 тулгага
-11.4336549591 умтулду
-11.4336549591 кайнатмак
-11.4336549591 түшкөндөргө
-11.4336549591 макташкан
-11.4336549591 ойрону
-10.7405077785 шар
-10.7405077785 субакемдин
-11.4336549591 ырайымдуулугун
-9.13106986608 кайткан
-10.7405077785 бергиси
-8.94874830928 алганда
-11.4336549591 ырымын
-11.4336549591 куркугуй
-11.4336549591 ооруган
-11.4336549591 күтпөгөндөй
-11.4336549591 петроградга
-9.82421704664 каттап
-8.29816074314 катары
-9.82421704664 табат
-8.66106623683 оюна
-11.4336549591 жулунду
-11.4336549591 тууганыбыз
-10.7405077785 көрөмбү
-11.4336549591 өыөрүңдү
-11.4336549591 опуртмалуулугу
-10.7405077785 колдуу
-10.3350426704 тер
-10.7405077785 тынчыды
-11.4336549591 жулкуна
-11.4336549591 убакилердин
-11.4336549591 чыррам
-11.4336549591 сатыа
-11.4336549591 алай
-11.4336549591 курундагы
-11.4336549591 бедел
-11.4336549591 жайытынын
-11.4336549591 түшүнүксүздүгүндө
-11.4336549591 кыпчышы
-8.2147791342 өттү
-10.7405077785 үсеке
-10.7405077785 балдарым
-11.4336549591 кесеп
-11.4336549591 күчтүүбүз
-11.4336549591 ээлигип
-11.4336549591 күүлөгөндө
-10.3350426704 деми
-11.4336549591 жесирлеринин
-10.047360598 калсын
-10.7405077785 антты
-10.047360598 искусство
-11.4336549591 салмактуу
-11.4336549591 уулдарына
-11.4336549591 солуктаган
-10.7405077785 кулдук
-11.4336549591 үрөөнү
-11.4336549591 үндүү
-11.4336549591 карыптын
-10.7405077785 тургансышып
-9.23643038174 токтото
-11.4336549591 тегеренейин
-11.4336549591 беришчү
-10.7405077785 аялдарынын
-11.4336549591 күйткүйт
-8.94874830928 чалдын
-11.4336549591 кылгырат
-10.7405077785 эринде
-11.4336549591 учурашам
-10.7405077785 апий
-11.4336549591 келинкыздардын
-11.4336549591 топорлордон
-9.35421341739 алип
-10.047360598 тентек
-10.3350426704 капшытында
-11.4336549591 мамлекеттик
-9.35421341739 илинген
-11.4336549591 айланага
-11.4336549591 барбайып
-10.3350426704 тарагандан
-11.4336549591 орундалбасын
-11.4336549591 дараметсиздигин
-10.7405077785 жайлоонун
-11.4336549591 алалы
-11.4336549591 кутулду
-11.4336549591 болуучулар
-11.4336549591 куудулданып
-11.4336549591 дайындоосу
-11.4336549591 какалгансып
-11.4336549591 ушинткенде
-11.4336549591 кызарыптатарыа
-11.4336549591 өзгөрткөн
-11.4336549591 стул
-11.4336549591 шырдамалдардын
-11.4336549591 алааматы
-10.3350426704 арыкбай
-11.4336549591 кызыгат
-10.047360598 оокаттын
-9.23643038174 убакытты
-10.7405077785 күрөңкөнүн
-9.82421704664 татынакай
-11.4336549591 келаткансыды
-8.48921597991 кор
-11.4336549591 кандуу
-11.4336549591 ыкшалышып
-10.3350426704 чымчыктарды
-10.7405077785 олжосун
-11.4336549591 кетпейм
-11.4336549591 эркиндиктен
-11.4336549591 тийгизе
-11.4336549591 шайыны
-11.4336549591 тэ
-9.03575968627 тап
-11.4336549591 тымый
-9.64189548984 алганы
-11.4336549591 ушалай
-10.7405077785 куюлушуп
-11.4336549591 топтоштурулган
-11.4336549591 мажес
-9.82421704664 мөзгил
-10.3350426704 алаканы
-11.4336549591 куйган
-11.4336549591 өрөөнүнүн
-11.4336549591 сүйгүнчүгү
-11.4336549591 алайга
-11.4336549591 демейинче
-10.7405077785 мурчуя
-11.4336549591 жеңдерин
-11.4336549591 жүрүн
-11.4336549591 түшүрүшмөк
-11.4336549591 тумак
-11.4336549591 жүрөктөрүн
-10.3350426704 элик
-11.4336549591 уккансып
-10.7405077785 ажыроо
-10.3350426704 жапалак
-10.3350426704 бербеген
-11.4336549591 бөлүнүшөрдө
-10.7405077785 түгөндү
-11.4336549591 алышар
-11.4336549591 казганда
-11.4336549591 лирикалык
-8.94874830928 байлап
-10.7405077785 нур
-10.7405077785 убакыттан
-11.4336549591 иренжип
-11.4336549591 жардамдашуу
-10.7405077785 чакырылбай
-10.7405077785 жазасын
-11.4336549591 жомокчу
-9.48774481002 тагдырына
-11.4336549591 которулушуи
-7.99966775459 калың
-11.4336549591 журтка
-7.87830689758 кошо
-11.4336549591 талпынсаңчы
-7.50182932635 жаман
-11.4336549591 балбандарын
-11.4336549591 жерипе
-10.3350426704 кылдары
-10.3350426704 обочо
-11.4336549591 бүлкүлдөп
-11.4336549591 санжыргалуу
-11.4336549591 кастарлап
-11.4336549591 бөлүмүн
-11.4336549591 кайраным
-9.64189548984 нерседен
-11.4336549591 жедиргени
-11.4336549591 паанайы
-10.7405077785 таламын
-11.4336549591 тамакка
-11.4336549591 түңүлбөй
-9.35421341739 арсыкул
-11.4336549591 чычкандан
-11.4336549591 эстүү
-11.4336549591 мугалимдерин
-11.4336549591 абийириңди
-11.4336549591 кылайганча
-11.4336549591 сүбөлөшө
-11.4336549591 кысат
-11.4336549591 өпкө
-10.047360598 тигине
-11.4336549591 атырылган
-11.4336549591 чүйбү
-11.4336549591 динден
-9.23643038174 сулуу
-8.86870560161 зыйнат
-10.7405077785 кембагалдар
-9.82421704664 тирүүсүндө
-10.3350426704 калыбына
-10.7405077785 кылчайды
-11.4336549591 айкалышып
-11.4336549591 орносо
-11.4336549591 морунан
-11.4336549591 аттанышып
-11.4336549591 ыйгарды
-11.4336549591 фрунзеде
-11.4336549591 сунала
-11.4336549591 толгобой
-11.4336549591 акелердин
-10.047360598 узатты
-11.4336549591 жаатка
-8.86870560161 көрүнбөйт
-9.64189548984 күүлөрүнүн
-11.4336549591 калжаңдап
-11.4336549591 жынымда
-9.82421704664 бакыт
-10.7405077785 сураштырып
-10.7405077785 мактанып
-9.82421704664 үрпөйтүп
-9.48774481002 туштуштан
-11.4336549591 чочубасын
-11.4336549591 билериктердин
-11.4336549591 атамдардын
-11.4336549591 дайындагандыктан
-11.4336549591 тайган
-11.4336549591 театрданмын
-10.3350426704 зор
-11.4336549591 жибитеби
-11.4336549591 тазаланган
-10.3350426704 момун
-11.4336549591 калпагы
-11.4336549591 кайнагасын
-11.4336549591 тарабайт
-11.4336549591 уялгансып
-11.4336549591 чычканбы
-10.7405077785 эртеңкиге
-10.047360598 агарып
-10.7405077785 жаргак
-11.4336549591 табылышы
-11.4336549591 кеңколдогу
-11.4336549591 заманыбыз
-11.4336549591 шартылдай
-11.4336549591 сыбызгысын
-11.4336549591 капшытыңа
-7.69598534079 эң
-10.047360598 тикчийтип
-10.7405077785 акырындатып
-11.4336549591 ачпа
-7.11616684554 түштү
-11.4336549591 чытырап
-11.4336549591 омүрго
-11.4336549591 чыбырында
-11.4336549591 үнүңүздү
-11.4336549591 оюнтамашаларга
-10.7405077785 жөлөк
-9.64189548984 күйүп
-9.64189548984 көзек
-11.4336549591 таанышкыла
-9.03575968627 жеп
-11.4336549591 атыңан
-11.4336549591 дайындабады
-11.4336549591 жолугушуп
-11.4336549591 касиетинен
-8.72560475797 өрөөндүн
-10.047360598 аялдыкка
-11.4336549591 жериненсиң
-11.4336549591 баарыбызга
-11.4336549591 ойлонбоду
-11.4336549591 бурулкандын
-10.7405077785 табылгы
-11.4336549591 селки
-11.4336549591 араларыада
-11.4336549591 жумуштап
-9.82421704664 ушундайча
-11.4336549591 күүмдү
-9.23643038174 ыраазымын
-11.4336549591 нерсесин
-11.4336549591 аңги
-8.17555842105 өзүң
-11.4336549591 трубасын
-7.85013602062 кишилердин
-11.4336549591 чертипга
-8.66106623683 айымкан
-9.13106986608 эмесмин
-11.4336549591 шыкаткан
-11.4336549591 алмашылганы
-11.4336549591 арманасирети
-11.4336549591 кабак
-11.4336549591 жандоочулар
-11.4336549591 далисин
-9.48774481002 өмүрүн
-11.4336549591 жеткирейин
-11.4336549591 начарлап
-11.4336549591 түпкү
-10.7405077785 кекиликтер
-10.3350426704 оңдоп
-11.4336549591 байлашып
-10.7405077785 асылы
-9.82421704664 чукулунан
-11.4336549591 сүймөнчүктүн
-11.4336549591 коридорду
-11.4336549591 тетеги
-11.4336549591 замандагы
-11.4336549591 чоктун
-9.03575968627 ансыз
-10.047360598 түшүндүрө
-11.4336549591 каралап
-9.82421704664 черт
-10.3350426704 туруу
-10.3350426704 тамшанды
-8.25560112872 макул
-7.50182932635 албады
-11.4336549591 кыйчалыштабаса
-11.4336549591 кеңарал
-11.4336549591 оозуң
-9.82421704664 күйөөгө
-11.4336549591 сайрачу
-7.99966775459 өзүм
-10.7405077785 өзүнон
-11.4336549591 кагынып
-8.94874830928 быйыл
-11.4336549591 ысыксуугуна
-11.4336549591 кайрандар
-11.4336549591 чуулдашты
-11.4336549591 жазалоодон
-11.4336549591 алка
-11.4336549591 түнөгөндө
-10.7405077785 ооруну
-11.4336549591 шайырлар
-11.4336549591 сагынышканда
-10.7405077785 тараптын
-9.64189548984 жүрөктү
-10.7405077785 өтүштү
-11.4336549591 кайрыл
-11.4336549591 айтпаймын
-11.4336549591 татыктуу
-11.4336549591 күмбөзү
-11.4336549591 ооруларга
-11.4336549591 аттанаар
-11.4336549591 теңдеши
-8.03245757741 неме
-11.4336549591 куурулуп
-11.4336549591 түшүргүлөчү
-9.82421704664 багып
-10.7405077785 келүү
-11.4336549591 болоруң
-11.4336549591 чытырашнайдан
-9.82421704664 жолуңду
-10.3350426704 туйлады
-11.4336549591 шишиген
-8.43792268552 дегендей
-11.4336549591 бешманы
-9.82421704664 сасыган
-11.4336549591 мындайлардын
-10.3350426704 ойлоочу
-11.4336549591 апаларына
-11.4336549591 солдойгон
-11.4336549591 кы
-11.4336549591 түпгүндү
-11.4336549591 бакшылардын
-11.4336549591 аракеттеринен
-11.4336549591 тыаыбек
-10.047360598 жыйноо
-11.4336549591 оңолууда
-11.4336549591 байкамаксан
-11.4336549591 сабы
-10.047360598 окуйт
-10.7405077785 полициядан
-9.23643038174 кеч
-11.4336549591 сельсоветтин
-10.3350426704 албагандыктан
-11.4336549591 коркпойбу
-11.4336549591 кескинин
-9.82421704664 суунун
-11.4336549591 зиркилдеди
-10.3350426704 көөлөнгөн
-11.4336549591 маматтыкында
-10.7405077785 уруш
-10.7405077785 алгандар
-11.4336549591 баштарына
-11.4336549591 иреңинин
-11.4336549591 саңоор
-10.7405077785 туюкка
-11.4336549591 урматтуу
-11.4336549591 келбегендиктен
-11.4336549591 бергендей
-10.7405077785 бейит
-10.7405077785 көзүмө
-11.4336549591 кетсемби
-11.4336549591 урбаспы
-10.047360598 угулбай
-10.7405077785 көйнөгүн
-11.4336549591 өспүрүмдү
-9.48774481002 боюнда
-10.047360598 турганы
-11.4336549591 бычакташып
-10.7405077785 чаарын
-9.64189548984 аткара
-11.4336549591 отургум
-11.4336549591 меймандардан
-11.4336549591 зарлашы
-11.4336549591 жылтылдатат
-11.4336549591 ойлонбогонуна
-10.7405077785 сунат
-11.4336549591 коюлганда
-11.4336549591 чеңгелдей
-11.4336549591 көрөм
-11.4336549591 судьялык
-11.4336549591 жүргөндөрүнөн
-10.047360598 таштайт
-11.4336549591 тагдырым
-10.7405077785 кут
-11.4336549591 олуяатада
-10.3350426704 калдайган
-8.94874830928 кадырын
-10.7405077785 чырканакты
-10.7405077785 кампаны
-9.82421704664 түгөнүп
-10.7405077785 кубакай
-9.03575968627 атактуу
-9.64189548984 качырып
-11.4336549591 секретарлыгынан
-10.7405077785 мупмуздак
-10.7405077785 кылбаган
-10.7405077785 турбайсызбы
-9.03575968627 түбүндө
-10.3350426704 жаккан
-11.4336549591 сызгырылтат
-10.3350426704 арасындагы
-11.4336549591 уялышты
-10.7405077785 карманганы
-11.4336549591 байыш
-11.4336549591 алкымыңды
-10.7405077785 ушундан
-10.7405077785 жибергиле
-11.4336549591 карыялардан
-11.4336549591 өрү
-11.4336549591 шаңшыган
-11.4336549591 бышактаганын
-11.4336549591 жаратканга
-11.4336549591 жанжагын
-10.7405077785 өнөт
-11.4336549591 махаббатыбыз
-11.4336549591 кийии
-10.7405077785 кубанды
-11.4336549591 түшүмдөн
-11.4336549591 түрчү
-11.4336549591 эрдиктери
-11.4336549591 каткыртып
-11.4336549591 туурдугунан
-11.4336549591 оордугуна
-9.82421704664 билбеймин
-11.4336549591 ишенсе
-10.3350426704 ыңгайы
-11.4336549591 жибербеди
-11.4336549591 бүтүнү
-10.3350426704 өтсө
-11.4336549591 ыраазыбыз
-11.4336549591 мекенине
-11.4336549591 опосуздугу
-10.7405077785 аралашты
-10.7405077785 кепкесөзгө
-10.7405077785 жетелетип
-11.4336549591 жазыптыр
-11.4336549591 кызматыңан
-11.4336549591 акмакчылык
-9.35421341739 чыкса
-11.4336549591 алыл
-11.4336549591 ашкананы
-11.4336549591 мөзгилинин
-11.4336549591 режиссерлор
-11.4336549591 палыочон
-11.4336549591 окутпайт
-11.4336549591 бергендер
-11.4336549591 курсагым
-11.4336549591 шамалдын
-10.7405077785 быягына
-10.7405077785 тилиң
-11.4336549591 баштын
-9.35421341739 билем
-10.7405077785 өтүнүч
-11.4336549591 жанданса
-11.4336549591 багууну
-10.3350426704 чачтары
-11.4336549591 ээлешип
-11.4336549591 коюнун
-9.64189548984 экенине
-11.4336549591 түнкүсун
-11.4336549591 жолукканда
-10.7405077785 кыяк
-9.82421704664 жылдар
-10.3350426704 барасың
-10.7405077785 пейилин
-11.4336549591 кеткендиги
-9.82421704664 угууга
-11.4336549591 кыйтыйышып
-9.35421341739 жүгөрүнүн
-11.4336549591 тамашаңды
-7.18515971702 эшикке
-11.4336549591 ийрип
-11.4336549591 алеикум
-11.4336549591 шаңгырай
-10.7405077785 таранып
-9.13106986608 убак
-11.4336549591 келишсе
-11.4336549591 созгон
-11.4336549591 пюлоктоткондон
-9.64189548984 жигиттери
-11.4336549591 чыпылдай
